<?xml version="1.0" encoding="UTF-8"?>
<!-- This network was created in GeNIe Academic, which can be used for academic teaching and research purposes only -->
<smile version="1.0" id="airline_passenger_satisfaction1" numsamples="10000" discsamples="10000">
	<nodes>
		<cpt id="Satisfaction" target="true" diagtype="target">
			<state id="SNeutral_or_Dissatisfied" fault="true" />
			<state id="Satisfied" fault="true" />
			<probabilities>0.5655374191561442 0.4344625808438559</probabilities>
		</cpt>
		<cpt id="In_flight_Entertainment" target="true" diagtype="observation" ranked="true">
			<state id="State0" />
			<state id="State1" />
			<state id="State2" />
			<state id="State3" />
			<state id="State4" />
			<state id="State5" />
			<parents>Satisfaction</parents>
			<probabilities>0.000245057997059304 0.18311278113598 0.2354735065076513 0.2363448238305288 0.1947802646626368 0.1500435658661439 2.95356406575815e-06 0.03943303384193706 0.08279726145539823 0.1156172653541028 0.3984505602911033 0.3636989254933929</probabilities>
		</cpt>
		<cpt id="Cleanliness" target="true" diagtype="observation" ranked="true">
			<state id="State0" />
			<state id="State1" />
			<state id="State2" />
			<state id="State3" />
			<state id="State4" />
			<state id="State5" />
			<parents>In_flight_Entertainment Satisfaction</parents>
			<probabilities>0.6929824561403508 0.06140350877192983 0.06140350877192983 0.1140350877192982 0.06140350877192983 0.008771929824561403 0.1666666666666667 0.1666666666666667 0.1666666666666667 0.1666666666666667 0.1666666666666667 0.1666666666666667 1.239065249176022e-05 0.7615171114910914 0.05695982950462173 0.07785046960572947 0.07368721036849803 0.02997298837756798 7.487271638215032e-05 0.7170560047918537 0.02208745133273435 0.07554657082958968 0.1007038035339922 0.08453129679544771 9.635582278237073e-06 0.06314197066928755 0.7460927713861748 0.08337669345358541 0.08274074502322176 0.0246381838854522 3.566588201726229e-05 0.0265710821028604 0.5485055995434767 0.12714886939154 0.1556102432413153 0.1421285398387902 9.600061440393219e-06 0.06273640151296969 0.06388840888581687 0.7608528694583645 0.08335733348693432 0.0291553865944742 2.554278416347382e-05 0.03236270753512133 0.03037037037037037 0.5952745849297573 0.1702937420178799 0.1716730523627076 6.989585517578807e-05 0.05116376598867687 0.05340043335430209 0.07220241839658909 0.7897532676312294 0.0334102187740267 7.412348973389666e-06 0.03176191535097472 0.03265139722778148 0.2039656067007635 0.5274256912015417 0.2041879771699652 1.512127260630255e-05 0.02514667634428114 0.02641686324321055 0.05780862517389463 0.05599407246113833 0.834618641504869 8.120574287013577e-06 0.03167836029363996 0.03572240628857273 0.1967046709543299 0.2076674462417982 0.5282189956473722</probabilities>
		</cpt>
		<cpt id="Seat_Comfort" target="true" diagtype="observation" ranked="true">
			<state id="State0" />
			<state id="State1" />
			<state id="State2" />
			<state id="State3" />
			<state id="State4" />
			<state id="State5" />
			<parents>Cleanliness Satisfaction</parents>
			<probabilities>0.07777777777777779 0.01111111111111111 0.2777777777777778 0.2111111111111111 0.4111111111111112 0.01111111111111111 0.1666666666666667 0.1666666666666667 0.1666666666666667 0.1666666666666667 0.1666666666666667 0.1666666666666667 1.240540875821859e-05 0.687842699416946 0.06134474630939091 0.1335442252822231 0.09699789108051114 0.02025803250217095 5.05663430420712e-05 0.5385821197411004 0.1077568770226537 0.1159486245954693 0.119286003236246 0.1183758090614887 1.052387868072657e-05 0.04212708635894846 0.6959756687924902 0.1268022142240744 0.1049546420828861 0.03012986466292017 3.895901511609786e-05 0.09728066074489637 0.6148122175471404 0.1045270375564906 0.09400810347514416 0.08933302166121242 9.594534952890833e-06 0.0395582676107689 0.06108840404505594 0.6912766488208316 0.1368468520330819 0.07122023295530866 1.255965837729214e-05 0.02849786485807586 0.03128610901783471 0.2325671941723185 0.352838482793268 0.3547977895001256 1.05572095183801e-05 0.04086695804564938 0.06126348683515974 0.1291674584573806 0.6902620299402463 0.0784295095120458 9.165566798650828e-06 0.02294141369702303 0.02233648628831207 0.03207031822847925 0.6589950872561959 0.2636475289631911 1.51336299524804e-05 0.0448712128091044 0.04205635763794303 0.0437815914525258 0.1122461333575471 0.757029571112927 9.575792396820837e-06 0.02230202049219573 0.02195729196591018 0.02850713396533563 0.2766542181365508 0.6505697596476108</probabilities>
		</cpt>
		<cpt id="Online_Boarding" target="true" diagtype="observation" ranked="true">
			<state id="State0" />
			<state id="State1" />
			<state id="State2" />
			<state id="State3" />
			<state id="State4" />
			<state id="State5" />
			<parents>Seat_Comfort Satisfaction</parents>
			<probabilities>0.08333333333333333 0.08333333333333333 0.08333333333333333 0.08333333333333333 0.5833333333333334 0.08333333333333333 0.1666666666666667 0.1666666666666667 0.1666666666666667 0.1666666666666667 0.1666666666666667 0.1666666666666667 0.02002727117777399 0.3278506903016874 0.2818305778080791 0.2432248167717743 0.1113857167206409 0.01568092722004431 0.09365737996443389 0.1224066390041494 0.1087729697688204 0.1129223473621814 0.2848251333728512 0.2774155305275637 0.01875740882783627 0.1487343978802036 0.4593124607767938 0.2637891360435116 0.09629732933547173 0.01310926713618297 0.08572110792741165 0.08452722063037249 0.252865329512894 0.09933142311365807 0.2380611270296084 0.2394937917860554 0.01609032398821861 0.1007417912075925 0.2082469728373514 0.4665103087160467 0.1969019308388786 0.0115086724119123 0.07669203043652383 0.0736884261113336 0.08009611533840609 0.2559070885062075 0.3007609130957148 0.2128554265118142 0.01590298037869687 0.1077169498312454 0.169498312453521 0.3018133974028946 0.3333333333333334 0.07173502660030891 0.01575757575757576 0.01494949494949495 0.01571268237934905 0.04026936026936027 0.5681257014590347 0.3451851851851852 0.02283539486203615 0.149122048265721 0.237609203356111 0.2524868090995588 0.2055185537583254 0.1324279906582475 0.01527989998610918 0.01662267907579756 0.01555771634949299 0.03519007269528175 0.3635227114877067 0.5538269204056119</probabilities>
		</cpt>
		<cpt id="Gender" target="true" diagtype="observation" ranked="true">
			<state id="Female" />
			<state id="Male" />
			<parents>Online_Boarding Satisfaction</parents>
			<probabilities>0.3959731543624161 0.6040268456375838 0.4749856239217942 0.5250143760782059 0.4526849746370474 0.5473150253629526 0.6327312534209086 0.3672687465790914 0.4633920296570899 0.5366079703429101 0.5573248407643312 0.4426751592356688 0.5014325422279239 0.4985674577720761 0.5509110396570204 0.4490889603429796 0.5899875879189078 0.4100124120810923 0.4910289576900609 0.5089710423099392 0.784144893111639 0.215855106888361 0.488389546176938 0.511610453823062</probabilities>
		</cpt>
		<cpt id="Ease_of_Online_Booking" target="true" diagtype="observation" ranked="true">
			<state id="State0" />
			<state id="State1" />
			<state id="State2" />
			<state id="State3" />
			<state id="State4" />
			<state id="State5" />
			<parents>Online_Boarding Satisfaction</parents>
			<probabilities>0.9986338797814205 0.0001241927471435668 0.0008693492300049675 0.0001241927471435668 0.0001241927471435668 0.0001241927471435668 0.9702107279693485 9.57854406130268e-05 9.57854406130268e-05 9.57854406130268e-05 9.57854406130268e-05 0.02940613026819923 0.00830855343711737 0.7622004547839776 0.07136610110197655 0.0691796396711562 0.04766485919188385 0.0412803918138884 0.08264915161466886 0.2233169129720854 0.1521620142309797 0.1543513957307061 0.1975916803503011 0.1899288451012589 0.002419936154875914 0.05447430748635568 0.7636185768715888 0.07285552466275358 0.05931417979610751 0.0473174750283184 0.06449044585987261 0.152468152866242 0.2034235668789809 0.1831210191082803 0.1962579617834395 0.2002388535031847 0.006713705366688047 0.07432114603378233 0.09801154586273252 0.6711139619414154 0.08295916185589053 0.06688047893949112 0.05439442658092176 0.1511254019292604 0.1639871382636656 0.2502679528403001 0.2009646302250804 0.1792604501607717 0.01137774100124121 0.1066749413873948 0.1443938767066612 0.1503930492345883 0.5131016411529444 0.07405875051717005 0.03392305766502546 0.1485854961195026 0.1637736793791204 0.1683635149795544 0.309563548360177 0.1757907034966202 0.02850356294536817 0.1552850356294537 0.2663301662707839 0.2633610451306413 0.1101543942992874 0.1763657957244656 0.03377185237506622 0.1496115133321561 0.1674907292954265 0.1639590323150274 0.1753487550768144 0.3098181176055094</probabilities>
		</cpt>
		<cpt id="Departure_and_Arrival_Time_Convenience" target="true" diagtype="observation" ranked="true">
			<state id="State0" />
			<state id="State1" />
			<state id="State2" />
			<state id="State3" />
			<state id="State4" />
			<state id="State5" />
			<parents>Ease_of_Online_Booking Satisfaction</parents>
			<probabilities>0.2484210526315789 0.07421052631578948 0.07631578947368421 0.09421052631578947 0.2684210526315789 0.238421052631579 0.4846641988365944 0.02723426758328926 0.03199365415124273 0.06504494976203067 0.2051824431517716 0.1858804865150714 0.04226492894484942 0.4278771813563066 0.07363228039172373 0.08114277299167955 0.201752448273323 0.1733303880421177 0.003010234798314269 0.8791089704996989 0.02769416014449127 0.02793497892835641 0.03154726068633353 0.03070439494280554 0.04672495341837466 0.07003965410157183 0.3817782236873536 0.08958004873154651 0.2205819119965601 0.1912952080645932 0.0002192982456140351 0.0456140350877193 0.8134868421052631 0.04890350877192982 0.04682017543859649 0.04495614035087719 0.04645173597863411 0.07101297214803511 0.08274513544448685 0.3904998092331172 0.219381915299504 0.1899084318962228 0.005411140583554377 0.04488063660477454 0.05251989389920424 0.7894960212201592 0.05273209549071618 0.05496021220159152 0.03773255306140275 0.06515852912918159 0.07511573063149621 0.08166652109354529 0.5762948729146651 0.1640317931697091 0.04747979992304732 0.0489419007310504 0.05071181223547518 0.05502116198537899 0.7116583301269719 0.08618699499807618 0.00800346095608912 0.05148172182565434 0.04888600475881463 0.05624053644819382 0.09214795587280987 0.7432403201384383 0.05358956331536598 0.04991797515819076 0.05101163971564721 0.05929224279353175 0.09210217951722521 0.694086399500039</probabilities>
		</cpt>
		<cpt id="Customer_Type" target="true" diagtype="observation" ranked="true">
			<state id="SFirst_time" />
			<state id="Returning" />
			<parents>Departure_and_Arrival_Time_Convenience Satisfaction</parents>
			<probabilities>0.6533025670608594 0.3466974329391405 0.5821406347230865 0.4178593652769135 0.3097765645536346 0.6902234354463654 0.01040134482034041 0.9895986551796596 0.3854645814167433 0.6145354185832567 0.02673070899028923 0.9732692910097108 0.3528989552595901 0.64710104474041 0.0425856286207948 0.9574143713792052 0.1459134985377867 0.8540865014622133 0.128823956735814 0.871176043264186 0.05420003725088471 0.9457999627491153 0.122697838701539 0.8773021612984611</probabilities>
		</cpt>
		<cpt id="Type_of_Travel" target="true" diagtype="observation" ranked="true">
			<state id="Business" />
			<state id="Personal" />
			<parents>Customer_Type Satisfaction</parents>
			<probabilities>0.9906526548672566 0.009347345132743363 0.9943859649122806 0.005614035087719298 0.3508271328469262 0.6491728671530738 0.9203595647374231 0.07964043526257687</probabilities>
		</cpt>
		<cpt id="Class" target="true" diagtype="observation" ranked="true">
			<state id="Business" />
			<state id="Economy" />
			<state id="SEconomy_Plus" />
			<parents>Type_of_Travel Satisfaction</parents>
			<probabilities>0.4455098160002143 0.4747569435144762 0.07973324048530947 0.818492627397051 0.1447398578959432 0.03676751470700589 0.06534680880520559 0.8207116156721583 0.113941575522636 0.07686640471512769 0.8263752455795678 0.09675834970530452</probabilities>
		</cpt>
		<cpt id="In_flight_Service" target="true" diagtype="observation" ranked="true">
			<state id="State0" />
			<state id="State1" />
			<state id="State2" />
			<state id="State3" />
			<state id="State4" />
			<state id="State5" />
			<parents>In_flight_Entertainment Satisfaction</parents>
			<probabilities>0.2719298245614035 0.008771929824561401 0.008771929824561401 0.4298245614035087 0.2719298245614035 0.008771929824561401 0.1666666666666667 0.1666666666666667 0.1666666666666667 0.1666666666666667 0.1666666666666667 0.1666666666666667 1.239065249176022e-05 0.2933734790474067 0.06952395113126658 0.1953881991425669 0.2932991351324561 0.1484028448938121 7.487271638215035e-05 0.2835429769392034 0.05712788259958072 0.08902365977837677 0.3015124288709194 0.2687181790955376 9.635582278237073e-06 0.03724152550538629 0.3539438438264825 0.199234934767108 0.2782081671195391 0.131361893199206 3.566588201726229e-05 0.04262072901062843 0.4941507953491689 0.06744418289464299 0.2063271274698623 0.18942149939368 9.600061440393219e-06 0.03577942898834553 0.06734443100435843 0.4785534627421615 0.281445001248008 0.1368680759556861 2.554278416347382e-05 0.0372669220945083 0.04814814814814815 0.5488378033205619 0.1863856960408685 0.1793358876117497 1.164849501444414e-05 0.0404086292051067 0.07353694902618584 0.1973837480197559 0.522236976982574 0.1664220482713634 7.412348973389665e-06 0.0360759024534875 0.03549773923356311 0.04390334296938699 0.7743903342969386 0.1101252686976503 1.512127260630255e-05 0.04401802455694671 0.06579265711002237 0.1831942176253553 0.3240035081352446 0.3829764712998246 8.120574287013577e-06 0.03430942636263237 0.03689176898590268 0.04882901318781264 0.115433963489898 0.7645277073994672</probabilities>
		</cpt>
		<cpt id="Check_in_Service" target="true" diagtype="observation" ranked="true">
			<state id="State0" />
			<state id="State1" />
			<state id="State2" />
			<state id="State3" />
			<state id="State4" />
			<state id="State5" />
			<parents>In_flight_Service Satisfaction</parents>
			<probabilities>0.02777777777777778 0.02777777777777778 0.361111111111111 0.361111111111111 0.1944444444444444 0.02777777777777778 0.1666666666666667 0.1666666666666667 0.1666666666666667 0.1666666666666667 0.1666666666666667 0.1666666666666667 0.0001593879502709595 0.1939751354797577 0.1934969716289448 0.2539050047816385 0.2387631495058973 0.1197003506534906 6.437491953135059e-05 0.1561091798635252 0.1603579245525943 0.218681601647998 0.2395390755761556 0.2252478434401957 1.666000266560043e-05 0.2221278155404505 0.2182293749167 0.2457183793149407 0.2394208983073438 0.07448687191789952 3.870568199411673e-05 0.1219616039634618 0.1263740517107911 0.2587474841306703 0.256657377302988 0.2362207772100944 8.665210911233578e-06 0.2335014384250113 0.2288222245329451 0.2420799972271325 0.2499826695781775 0.04560500502582232 2.739425816348893e-05 0.1145901818978742 0.1163982029366645 0.2350701293008985 0.2786269997808459 0.2552870918255534 6.749824504562881e-06 0.1460459528052271 0.1426440412549274 0.2775055348560937 0.277424536962039 0.1563731842972083 7.363878702190016e-06 0.05086231019602645 0.05536900396176674 0.3001001487503497 0.30615325704355 0.2875079161696048 1.258146498578295e-05 0.05383608867416522 0.05587428600186206 0.2951737500314537 0.3070254900480612 0.2880778037794721 8.004738805372779e-06 0.05197476906328546 0.05379984951091045 0.2920208763588044 0.3057089797159918 0.2964875206122024</probabilities>
		</cpt>
		<cpt id="Gate_Location" target="true" diagtype="observation" ranked="true">
			<state id="State0" />
			<state id="State1" />
			<state id="State2" />
			<state id="State3" />
			<state id="State4" />
			<state id="State5" />
			<parents>Departure_and_Arrival_Time_Convenience Satisfaction</parents>
			<probabilities>4.805843906189927e-05 0.1690215301806997 0.1834390618992695 0.3042579777008843 0.2454344482891196 0.09779892349096503 0.0003111387678904792 0.2149968886123211 0.2037958929682638 0.2641568139390168 0.2171748599875545 0.09956440572495333 1.684863189109045e-05 0.4015534438603586 0.1189007952554253 0.2667980859954172 0.1940119962259065 0.01871883003100148 1.750884196519243e-05 0.8958048814651401 0.02533529432363344 0.0323738487936408 0.03090310606856464 0.01556536050705607 1.393767073646652e-05 0.04692813736968278 0.3984919440263144 0.2997296091877126 0.2340831800189552 0.02075319172659865 1.740098837613976e-05 0.01296373634022413 0.8925836987540893 0.04188417902136842 0.03561982320595811 0.01693116168998399 1.329080276448697e-05 0.07202286018075492 0.1063131313131313 0.5655635300372143 0.2154837852206273 0.04060340244550771 1.693766937669377e-05 0.02349254742547426 0.03101287262872629 0.8844681571815719 0.03985433604336044 0.02115514905149052 8.550516451193651e-06 0.1327809699705862 0.1318575141938573 0.2725306108488952 0.394118954784869 0.06870339968534099 1.345170836696261e-05 0.05529997309658328 0.06167608286252355 0.09379876244283027 0.753282216841539 0.03592951304815713 1.034682559390779e-05 0.1496254449135005 0.1581926165052562 0.2259229368429766 0.1620416356261899 0.304207019286483 1.401502410584146e-05 0.05997028814889561 0.06341798407893261 0.0818337257540083 0.07107018724072205 0.7236937997533355</probabilities>
		</cpt>
		<cpt id="On_board_Service" target="true" diagtype="observation" ranked="true">
			<state id="State0" />
			<state id="State1" />
			<state id="State2" />
			<state id="State3" />
			<state id="State4" />
			<state id="State5" />
			<parents>In_flight_Service Satisfaction</parents>
			<probabilities>0.8611111111111109 0.02777777777777777 0.02777777777777777 0.02777777777777777 0.02777777777777777 0.02777777777777777 0.1666666666666667 0.1666666666666667 0.1666666666666667 0.1666666666666667 0.1666666666666667 0.1666666666666667 2.656042496679947e-05 0.6304648074369189 0.0988313413014608 0.09341301460823372 0.099468791500664 0.07779548472775563 6.437491953135058e-05 0.3546414316982103 0.1619029226213467 0.1657654177932278 0.166537916827604 0.1510879361400798 1.666000266560043e-05 0.110072637611622 0.6112721578035454 0.1119718779155005 0.1176695988271358 0.04899706783953086 3.870568199411673e-05 0.1033828766062858 0.5831785106053569 0.1112788357330856 0.1017572379625329 0.1003638334107447 8.665210911233578e-06 0.1781307407022287 0.1826019895324252 0.4257651381234619 0.1828619458597622 0.0306315205712107 2.739425816348893e-05 0.09009971509971509 0.1006191102344949 0.617548761779531 0.1034133245671707 0.08829169406092482 6.749824504562881e-06 0.120815108807171 0.118992656190939 0.2437699119822885 0.3712605972244721 0.1451549759706247 7.363878702190016e-06 0.02461744650142122 0.02642896066215997 0.09928717654162798 0.7524484896684781 0.0972105627476104 1.258146498578294e-05 0.03118945169975592 0.03609622304421127 0.2679222968722478 0.2663370322840392 0.3984424146347601 8.004738805372779e-06 0.02114051518498951 0.02632758593087107 0.1040856186862622 0.1038454765221011 0.7445927989369706</probabilities>
		</cpt>
		<cpt id="Leg_Room_Service" target="true" diagtype="observation" ranked="true">
			<state id="State0" />
			<state id="State1" />
			<state id="State2" />
			<state id="State3" />
			<state id="State4" />
			<state id="State5" />
			<parents>On_board_Service Satisfaction</parents>
			<probabilities>0.02777777777777777 0.8611111111111109 0.02777777777777777 0.02777777777777777 0.02777777777777777 0.02777777777777777 0.1666666666666667 0.1666666666666667 0.1666666666666667 0.1666666666666667 0.1666666666666667 0.1666666666666667 0.006818755787524202 0.2978365182254399 0.2002693829446923 0.1953868170721441 0.1634817745601482 0.1362067514100513 0.01616231086657497 0.2489683631361761 0.1939477303988996 0.1636863823933975 0.1836313617606602 0.1936038514442916 0.004976945034033522 0.1536265827417112 0.3749542560199078 0.1868550098806997 0.1534802020054161 0.1261070043182317 0.01087883959044369 0.1017491467576792 0.4671501706484641 0.1367320819112628 0.1493174061433447 0.1341723549488055 0.003442429224682732 0.09921389302779633 0.2044905718542876 0.3361249550429019 0.1917998253095617 0.1649283255407697 0.004185482982707347 0.0558431545324375 0.1647758563718471 0.3302125784778059 0.2820795241766714 0.1629034034585307 0.004607783267640038 0.1079220562926775 0.214123133292622 0.228001998556598 0.2628657080997058 0.1824793204907567 0.001594973417109715 0.02397293378443693 0.06220396326727888 0.07104881585306912 0.7110681488641856 0.1301111648139198 0.008917441748969222 0.07153130693259181 0.2345383066449324 0.2508390066161665 0.2353053984082846 0.1988685396490555 0.001940932696847296 0.02245187011488223 0.06389340607459476 0.06987357708650264 0.1268425746209935 0.7149976394061796</probabilities>
		</cpt>
		<cpt id="Food_and_Drink" target="true" diagtype="observation" ranked="true">
			<state id="State0" />
			<state id="State1" />
			<state id="State2" />
			<state id="State3" />
			<state id="State4" />
			<state id="State5" />
			<parents>Cleanliness Satisfaction</parents>
			<probabilities>0.8777777777777779 0.07777777777777779 0.01111111111111111 0.01111111111111111 0.01111111111111111 0.01111111111111111 0.1666666666666667 0.1666666666666667 0.1666666666666667 0.1666666666666667 0.1666666666666667 0.1666666666666667 0.001042131904123865 0.7756438886407622 0.06476105404198303 0.05835938663093643 0.05084114932261426 0.04935238945958017 0.003034901365705615 0.5763277693474962 0.1068285280728376 0.1016691957511381 0.1083459787556904 0.103793626707132 0.0007577671129072999 0.04641323566557212 0.8132104066683506 0.05279110886587523 0.04622379388734529 0.04060368779994949 0.00303951367781155 0.07411737198971241 0.6658873041851765 0.08814589665653495 0.08463876548982932 0.08417114800093524 0.001093839953943581 0.04340817501439263 0.07109959700633275 0.7641911341393207 0.06021876799078872 0.05998848589522165 0.0009043635541487678 0.02554827040470269 0.1859974376365966 0.4108825081015902 0.1888612555580677 0.1878061647448941 0.0006334726973267452 0.04871405042442671 0.07405295831749652 0.08108450525782339 0.7312808817939948 0.06423413150893197 0.0004399714018588792 0.01847879887807292 0.1374910630808997 0.1343012704174229 0.5667381620194687 0.1425507342022768 0.0008172902288412641 0.0153468942971304 0.05257900472212133 0.05212495459498729 0.04422448238285507 0.8349073737740647 0.000689496667432774 0.01792691335325212 0.1427258101585842 0.1401976557113307 0.1460009193288899 0.5524592047805102</probabilities>
		</cpt>
		<cpt id="In_flight_Wifi_Service" target="true" diagtype="observation" ranked="true">
			<state id="State0" />
			<state id="State1" />
			<state id="State2" />
			<state id="State3" />
			<state id="State4" />
			<state id="State5" />
			<parents>Ease_of_Online_Booking Satisfaction</parents>
			<probabilities>8.767315448009819e-05 0.5292828335963528 0.2041907767841487 0.191039803612134 0.07531123969840434 8.767315448009819e-05 0.9675301788703852 4.405674508767293e-05 4.405674508767293e-05 4.405674508767293e-05 0.01273239933033748 0.01960525156401445 0.0002208968411751712 0.7332302481407849 0.1466755025403137 0.07959649510345335 0.03873057948604668 0.001546277888226198 0.0296207104154124 0.7488260084286574 0.02215532811559302 0.02516556291390729 0.08765803732691149 0.08657435279951836 7.962290591757435e-06 0.06756003567106185 0.7937687113828905 0.1066867316389579 0.03010542072743486 0.001871138289062997 1.827285019917407e-05 0.02819500785732559 0.7346964879581918 0.04179000840551109 0.1006651317472499 0.0946350911815225 4.769172071728348e-05 0.0430179320869897 0.1138401373521557 0.7977871041587181 0.04382869133918352 0.001478443342235788 1.768158992856637e-05 0.02791923049720631 0.04118042294363109 0.7152733573802956 0.1228693684136078 0.09273993917533063 0.0001746877456546423 0.07529041837715085 0.1324133112062189 0.2042099746702769 0.5856406673071884 0.00227094069351035 1.282445880783831e-05 0.02263516979583462 0.02679029444957423 0.03009900482199652 0.8308069149481893 0.08965579152559763 0.0008652390222799049 0.1855937702790396 0.309755569976206 0.2892061431970582 0.209387843391737 0.005191434133679429 1.301879914596677e-05 0.02305629328750716 0.02883664010831641 0.02985210644170182 0.09648232047075977 0.8217596208925688</probabilities>
		</cpt>
		<cpt id="Baggage_Handling" target="true" diagtype="observation" ranked="true">
			<state id="State1" />
			<state id="State2" />
			<state id="State3" />
			<state id="State4" />
			<state id="State5" />
			<parents>In_flight_Service Satisfaction</parents>
			<probabilities>0.03333333333333333 0.6999999999999998 0.2 0.03333333333333333 0.03333333333333333 0.2 0.2 0.2 0.2 0.2 0.5836786738922537 0.118106471150781 0.1133248326426522 0.1138029964934651 0.07108702582084794 0.3504636785162287 0.1588098918083462 0.1595826893353941 0.1731066460587326 0.1580370942812983 0.0992702189343197 0.6030190942717185 0.175147455763271 0.07597720683794862 0.04658602419274218 0.1049941927990709 0.5626016260162602 0.113588850174216 0.1121951219512195 0.1066202090592334 0.03545988665314823 0.1039879373992617 0.5367857328549888 0.2880465865959548 0.03571985649664638 0.07742890021371035 0.08170310701956272 0.5763603485122473 0.1436791057044222 0.1208285385500575 0.02025029362925762 0.0366530314689563 0.2408974930136487 0.4997367461828197 0.2024624357053177 0.01944149876281372 0.02076705549664193 0.04219688936019795 0.7547278190173207 0.1628667373630258 0.03623735467310887 0.03442548693945342 0.07270119281292466 0.3724143137550959 0.4842216518194172 0.02118155619596542 0.02036503362151777 0.03789625360230547 0.1723823246878002 0.7481748318924112</probabilities>
		</cpt>
		<cpt id="Discreted_age" target="true" diagtype="observation" ranked="true">
			<state id="S_0_18_" />
			<state id="S_18_40_" />
			<state id="S_40_65_" />
			<state id="S_65__" />
			<parents>Customer_Type Satisfaction</parents>
			<probabilities>0.06073008849557522 0.7601769911504425 0.1665929203539823 0.0125 0.05894736842105263 0.7903508771929824 0.143859649122807 0.006842105263157894 0.1282597702810085 0.3597486094054757 0.42790580076573 0.08408581954778589 0.02584371550228671 0.3163341744204384 0.6368869263523104 0.02093518372496452</probabilities>
		</cpt>
		<cpt id="Discreted_flight_distance" target="true" diagtype="observation" ranked="true">
			<state id="S_0_600_" />
			<state id="S_1200_2000_" />
			<state id="S_2000__" />
			<state id="S_600_1200_" />
			<parents>Class Satisfaction</parents>
			<probabilities>0.325418553227335 0.1652100663367379 0.2947246498894388 0.2146467305464884 0.2166288282444516 0.2047213084371959 0.4223694574433582 0.1562804058749942 0.4892750073892665 0.1086011062787654 0.04545454545454546 0.3566693408774226 0.5442748789180297 0.08644795759846477 0.03746687380060312 0.3318102896829023 0.5018330513254372 0.1070219966159053 0.05456852791878173 0.3365764241398759 0.5467874083656749 0.07805088400172489 0.04355325571366968 0.3316084519189306</probabilities>
		</cpt>
		<cpt id="Discreted_departure_delay" target="true" diagtype="observation" ranked="true">
			<state id="S_0_15_" />
			<state id="S_15_60_" />
			<state id="S_200__" />
			<state id="S_60_200_" />
			<parents>Food_and_Drink Satisfaction</parents>
			<probabilities>0.1948051948051948 0.1038961038961039 0.2467532467532468 0.4545454545454546 0.509090909090909 0.03636363636363636 0.1272727272727273 0.3272727272727273 0.7202677459526775 0.1936488169364882 0.009651307596513076 0.0764321295143213 0.8407742741180144 0.1167655323134561 0.001873243833905713 0.04058694973462379 0.7176498714960253 0.189408881716574 0.01237224314147391 0.08056900364592672 0.8055764175741644 0.1483289523094255 0.001220428088621855 0.04487420202778821 0.7139957009792214 0.1926200143300693 0.01080726056842608 0.08257702412228327 0.8145029875067897 0.1386927394531957 0.002263262719536484 0.044541010320478 0.7480678995307756 0.1831355230471985 0.006348330113165885 0.06244824730886006 0.7965279074108642 0.1362703005413478 0.01064028374089976 0.05656150830688818 0.7583625358394394 0.1847722204523734 0.0004778591908251035 0.05638738451736222 0.7909875982079085 0.1407051490162976 0.00973962729692877 0.05856762547886501</probabilities>
		</cpt>
		<cpt id="Discreted_Arrival_delay" target="true" diagtype="observation" ranked="true">
			<state id="S_0_15_" />
			<state id="S_15_60_" />
			<state id="S_200__" />
			<state id="S_60_200_" />
			<parents>Discreted_departure_delay Satisfaction</parents>
			<probabilities>0.9391068696593158 0.06088380163438935 4.664353147505504e-06 4.664353147505504e-06 0.9494788331161804 0.05051012521255217 5.520835633681514e-06 5.520835633681514e-06 0.3042192571222503 0.6443562928236567 0.000576992426974396 0.05084745762711865 0.2925430210325047 0.6532823454429573 0.0002549394518801784 0.05391969407265774 0.0003968253968253968 0.001984126984126984 0.875 0.1226190476190476 0.0006702412868632708 0.0006702412868632708 0.8666219839142091 0.1320375335120643 0.02536840141764596 0.1298265249020705 0.01175153889199776 0.8330535347882858 0.02116763400477979 0.1249573233185388 0.007511095937179925 0.8463639467395015</probabilities>
		</cpt>
	</nodes>
	<extensions>
		<genie version="1.0" app="GeNIe 3.0.6518.0 ACADEMIC" name="airline_passenger_satisfaction1">
			<node id="Gender">
				<name>Gender</name>
				<interior color="e5f6f7" />
				<outline color="000080" />
				<font color="000000" name="Arial" size="8" />
				<position>1116 487 1188 535</position>
				<barchart width="128" height="64" />
			</node>
			<node id="Customer_Type">
				<name>Customer Type</name>
				<interior color="e5f6f7" />
				<outline color="000080" />
				<font color="000000" name="Arial" size="8" />
				<position>834 433 906 481</position>
				<barchart width="128" height="64" />
			</node>
			<node id="Type_of_Travel">
				<name>Type of Travel</name>
				<interior color="e5f6f7" />
				<outline color="000080" />
				<font color="000000" name="Arial" size="8" />
				<position>1092 609 1164 657</position>
				<barchart width="128" height="64" />
			</node>
			<node id="Class">
				<name>Class</name>
				<interior color="e5f6f7" />
				<outline color="000080" />
				<font color="000000" name="Arial" size="8" />
				<position>1111 735 1183 783</position>
				<barchart width="128" height="72" />
			</node>
			<node id="Departure_and_Arrival_Time_Convenience">
				<name>Departure and Arrival Time Convenience</name>
				<interior color="e5f6f7" />
				<outline color="000080" />
				<font color="000000" name="Arial" size="8" />
				<position>917 714 989 762</position>
				<barchart width="128" height="126" />
			</node>
			<node id="Ease_of_Online_Booking">
				<name>Ease of Online Booking</name>
				<interior color="e5f6f7" />
				<outline color="000080" />
				<font color="000000" name="Arial" size="8" />
				<position>734 745 806 793</position>
				<barchart width="128" height="126" />
			</node>
			<node id="Check_in_Service">
				<name>Check-in Service</name>
				<interior color="e5f6f7" />
				<outline color="000080" />
				<font color="000000" name="Arial" size="8" />
				<position>553 740 625 788</position>
				<barchart width="128" height="126" />
			</node>
			<node id="Online_Boarding">
				<name>Online Boarding</name>
				<interior color="e5f6f7" />
				<outline color="000080" />
				<font color="000000" name="Arial" size="8" />
				<position>395 723 467 771</position>
				<barchart width="128" height="126" />
			</node>
			<node id="Gate_Location">
				<name>Gate Location</name>
				<interior color="e5f6f7" />
				<outline color="000080" />
				<font color="000000" name="Arial" size="8" />
				<position>265 590 337 638</position>
				<barchart width="128" height="126" />
			</node>
			<node id="On_board_Service">
				<name>On-board Service</name>
				<interior color="e5f6f7" />
				<outline color="000080" />
				<font color="000000" name="Arial" size="8" />
				<position>438 498 510 546</position>
				<barchart width="128" height="126" />
			</node>
			<node id="Seat_Comfort">
				<name>Seat Comfort</name>
				<interior color="e5f6f7" />
				<outline color="000080" />
				<font color="000000" name="Arial" size="8" />
				<position>247 445 319 493</position>
				<barchart width="128" height="126" />
			</node>
			<node id="Leg_Room_Service">
				<name>Leg Room Service</name>
				<interior color="e5f6f7" />
				<outline color="000080" />
				<font color="000000" name="Arial" size="8" />
				<position>246 292 318 340</position>
				<barchart width="128" height="126" />
			</node>
			<node id="Cleanliness">
				<name>Cleanliness</name>
				<interior color="e5f6f7" />
				<outline color="000080" />
				<font color="000000" name="Arial" size="8" />
				<position>403 337 475 385</position>
				<barchart width="128" height="126" />
			</node>
			<node id="Food_and_Drink">
				<name>Food and Drink</name>
				<interior color="e5f6f7" />
				<outline color="000080" />
				<font color="000000" name="Arial" size="8" />
				<position>339 149 411 197</position>
				<barchart width="128" height="126" />
			</node>
			<node id="In_flight_Service">
				<name>In-flight Service</name>
				<interior color="e5f6f7" />
				<outline color="000080" />
				<font color="000000" name="Arial" size="8" />
				<position>486 72 558 120</position>
				<barchart width="128" height="126" />
			</node>
			<node id="In_flight_Wifi_Service">
				<name>In-flight Wifi Service</name>
				<interior color="e5f6f7" />
				<outline color="000080" />
				<font color="000000" name="Arial" size="8" />
				<position>662 54 734 102</position>
				<barchart width="128" height="126" />
			</node>
			<node id="In_flight_Entertainment">
				<name>In-flight Entertainment</name>
				<interior color="e5f6f7" />
				<outline color="000080" />
				<font color="000000" name="Arial" size="8" />
				<position>879 55 951 103</position>
				<barchart width="128" height="126" />
			</node>
			<node id="Baggage_Handling">
				<name>Baggage Handling</name>
				<interior color="e5f6f7" />
				<outline color="000080" />
				<font color="000000" name="Arial" size="8" />
				<position>1059 107 1131 155</position>
				<barchart width="128" height="108" />
			</node>
			<node id="Satisfaction">
				<name>Satisfaction</name>
				<interior color="ffff80" />
				<outline color="000080" />
				<font color="000000" name="Arial" size="8" />
				<position>625 365 697 413</position>
				<barchart width="128" height="64" />
			</node>
			<node id="Discreted_age">
				<name>Discreted age</name>
				<interior color="e5f6f7" />
				<outline color="000080" />
				<font color="000000" name="Arial" size="8" />
				<position>1125 214 1197 262</position>
				<barchart width="128" height="90" />
			</node>
			<node id="Discreted_flight_distance">
				<name>Discreted flight distance</name>
				<interior color="e5f6f7" />
				<outline color="000080" />
				<font color="000000" name="Arial" size="8" />
				<position>844 205 916 253</position>
				<barchart width="128" height="90" />
			</node>
			<node id="Discreted_Arrival_delay">
				<name>Discreted Arrival delay</name>
				<interior color="e5f6f7" />
				<outline color="000080" />
				<font color="000000" name="Arial" size="8" />
				<position>977 321 1049 369</position>
				<barchart width="128" height="90" />
			</node>
			<node id="Discreted_departure_delay">
				<name>Discreted departure delay</name>
				<interior color="e5f6f7" />
				<outline color="000080" />
				<font color="000000" name="Arial" size="8" />
				<position>1137 382 1209 430</position>
				<barchart width="128" height="90" />
			</node>
			<textbox>
				<caption>Input file: airline_passenger_satisfaction1.csv\nData rows: 129880\nElapsed time: 0.625s\n\nLearning algorithm: Tree Augmented Naive Bayes\nAlgorithm parameters:\nClass variable: Satisfaction\nSeed: 0\nMax search time: 60\n\nEM Log Likelihood: -2.94068e+06</caption>
				<font color="000000" name="Arial" size="8" />
				<position>12 800 249 954</position>
			</textbox>
		</genie>
	</extensions>
</smile>
