<?xml version="1.0" encoding="UTF-8"?>
<!-- This network was created in GeNIe Academic, which can be used for academic teaching and research purposes only -->
<smile version="1.0" id="airline_passenger_satisfaction1" numsamples="10000" discsamples="10000">
	<nodes>
		<cpt id="Gender" target="true" diagtype="observation" ranked="true">
			<state id="Female" />
			<state id="Male" />
			<probabilities>0.5073837388358485 0.4926162611641516</probabilities>
		</cpt>
		<cpt id="Class" target="true" diagtype="observation" ranked="true">
			<state id="Business" />
			<state id="Economy" />
			<state id="Economy_Plus" />
			<probabilities>0.4785956267323684 0.4489451801663074 0.0724591931013243</probabilities>
		</cpt>
		<cpt id="Customer_Type" target="true" diagtype="observation" ranked="true">
			<state id="First_time" />
			<state id="Returning" />
			<parents>Gender Class</parents>
			<probabilities>0.1525445414707482 0.8474554585292519 0.2478260869565218 0.7521739130434784 0.1451872734595248 0.8548127265404752 0.1444153154027899 0.85558468459721 0.2193163169105067 0.7806836830894933 0.04364454443194601 0.9563554555680539</probabilities>
		</cpt>
		<cpt id="Discreted_departure_delay" target="true" diagtype="observation" ranked="true">
			<state id="x0_15_" />
			<state id="x15_60_" />
			<state id="x200__" />
			<state id="x60_200_" />
			<probabilities>0.7613104404065292 0.1671542962734832 0.007707114259316293 0.0638281490606714</probabilities>
		</cpt>
		<cpt id="In_flight_Entertainment" target="true" diagtype="observation" ranked="true">
			<state id="State0" />
			<state id="State1" />
			<state id="State2" />
			<state id="State3" />
			<state id="State4" />
			<state id="State5" />
			<parents>Customer_Type Class Discreted_departure_delay</parents>
			<probabilities>2.315779723032745e-05 0.1769024130424714 0.2035801954518086 0.206081237552684 0.2126117363716363 0.2008012597841693 0.0001163873370577281 0.1726024208566108 0.2019320297951583 0.2012337057728119 0.2200884543761639 0.2040270018621974 0.002415458937198068 0.08937198067632851 0.0748792270531401 0.2777777777777778 0.2777777777777778 0.2777777777777778 0.0003103662321539416 0.1492861576660459 0.1846679081315953 0.2107386716325264 0.2293606455617629 0.2256362507759156 1.653111155194075e-05 0.1733948290683066 0.2016630298221253 0.207316669972889 0.2156483501950671 0.2019605898300602 6.808278867102396e-05 0.187568082788671 0.2026824618736384 0.2071759259259259 0.2018654684095861 0.2006399782135077 0.001436781609195402 0.2169540229885057 0.2169540229885057 0.3204022988505747 0.1824712643678161 0.0617816091954023 0.0001680107526881721 0.1947244623655914 0.1947244623655914 0.2340389784946237 0.2017809139784947 0.1745631720430108 0.000249500998003992 0.1978542914171657 0.1918662674650699 0.1918662674650699 0.2173153692614771 0.2008483033932136 0.0009523809523809525 0.1952380952380953 0.1495238095238096 0.2352380952380953 0.2295238095238095 0.1895238095238095 0.02083333333333333 0.1458333333333333 0.5208333333333334 0.1458333333333333 0.1458333333333333 0.02083333333333333 0.002450980392156863 0.1495098039215686 0.1936274509803921 0.2083333333333333 0.2965686274509804 0.1495098039215686 0.0001230587482464128 0.05446580197386232 0.1135093893824912 0.1408038197435456 0.3754522408998056 0.3156456892520489 0.0003446295232624928 0.06950028719126938 0.1460080413555428 0.1641585295807008 0.3429063756461804 0.2770821367030442 0.0004187604690117252 0.1210217755443886 0.1109715242881072 0.2768006700167504 0.2868509212730318 0.2039363484087102 5.213220727765615e-05 0.08669586070274218 0.132363674277969 0.1855385257011782 0.3331769367115004 0.2621728703993327 8.834442546675305e-05 0.1568996996289534 0.204605689381 0.203074386006243 0.2331703869485836 0.2021614936097532 0.0001342642320085929 0.1642051557465091 0.2055585392051557 0.2191192266380236 0.2176423200859291 0.1933404940923738 0.0004616805170821791 0.1306555863342567 0.177746999076639 0.2663896583564173 0.2497691597414589 0.1749769159741459 5.727376861397481e-05 0.1516036655211913 0.2021191294387171 0.225143184421535 0.2299541809851089 0.1911225658648339 0.000787897888433659 0.149227860069335 0.1946107784431138 0.2039079735266309 0.2374724235739048 0.2139930664985818 0.000664451827242525 0.1528239202657807 0.2378737541528239 0.226578073089701 0.2205980066445183 0.1614617940199336 0.00303030303030303 0.07575757575757576 0.1848484848484848 0.403030303030303 0.2393939393939394 0.09393939393939393 0.0002815315315315316 0.1759572072072073 0.182713963963964 0.2401463963963964 0.2367680180180181 0.1641328828828829</probabilities>
		</cpt>
		<cpt id="Departure_and_Arrival_Time_Convenience" target="true" diagtype="observation" ranked="true">
			<state id="State0" />
			<state id="State1" />
			<state id="State2" />
			<state id="State3" />
			<state id="State4" />
			<state id="State5" />
			<parents>Customer_Type Class In_flight_Entertainment Discreted_departure_delay</parents>
			<probabilities>0.1666666666666667 0.1666666666666667 0.1666666666666667 0.1666666666666667 0.1666666666666667 0.1666666666666667 0.1666666666666667 0.1666666666666667 0.1666666666666667 0.1666666666666667 0.1666666666666667 0.1666666666666667 0.1666666666666667 0.1666666666666667 0.1666666666666667 0.1666666666666667 0.1666666666666667 0.1666666666666667 0.1666666666666667 0.1666666666666667 0.1666666666666667 0.1666666666666667 0.1666666666666667 0.1666666666666667 0.1728201099764336 0.1264728986645719 0.201885310290652 0.1751767478397486 0.208955223880597 0.1146897093479969 0.1578947368421053 0.1497975708502024 0.1740890688259109 0.2186234817813765 0.1821862348178138 0.1174089068825911 0.1666666666666667 0.1666666666666667 0.1666666666666667 0.4523809523809523 0.02380952380952381 0.02380952380952381 0.1375 0.07500000000000001 0.2125 0.2625 0.2375 0.07500000000000001 0.1624573378839591 0.10580204778157 0.1993174061433447 0.1965870307167236 0.2116040955631399 0.1242320819112628 0.1833910034602076 0.08304498269896193 0.2179930795847751 0.2318339100346021 0.1453287197231834 0.1384083044982699 0.02777777777777777 0.02777777777777777 0.361111111111111 0.1944444444444444 0.361111111111111 0.02777777777777777 0.1818181818181818 0.1212121212121212 0.2323232323232323 0.202020202020202 0.1818181818181818 0.08080808080808081 0.1766689143627782 0.1159811193526635 0.1827376938637896 0.1840863115306811 0.205664194200944 0.1348617666891436 0.1736111111111111 0.1180555555555556 0.2152777777777778 0.1770833333333333 0.1909722222222222 0.125 0.05263157894736842 0.05263157894736842 0.1052631578947368 0.3157894736842105 0.3157894736842105 0.1578947368421053 0.168141592920354 0.1415929203539823 0.1769911504424779 0.1504424778761062 0.247787610619469 0.1150442477876106 0.1620915032679738 0.1137254901960784 0.1882352941176471 0.1941176470588235 0.218954248366013 0.122875816993464 0.1492063492063492 0.08253968253968254 0.2126984126984127 0.2095238095238095 0.219047619047619 0.126984126984127 0.1052631578947368 0.1578947368421053 0.2105263157894737 0.1578947368421053 0.2631578947368421 0.1052631578947368 0.1869918699186992 0.1544715447154472 0.1788617886178862 0.2032520325203252 0.1544715447154472 0.1219512195121951 0.172318339100346 0.09896193771626298 0.1820069204152249 0.2131487889273356 0.2 0.1335640138408304 0.1815068493150685 0.136986301369863 0.1780821917808219 0.226027397260274 0.1712328767123288 0.1061643835616438 0.1578947368421053 0.05263157894736842 0.2631578947368421 0.1052631578947368 0.2105263157894737 0.2105263157894737 0.1570247933884298 0.1239669421487603 0.1983471074380165 0.140495867768595 0.2231404958677686 0.1570247933884298 0.1666666666666667 0.1666666666666667 0.1666666666666667 0.1666666666666667 0.1666666666666667 0.1666666666666667 0.1666666666666667 0.1666666666666667 0.1666666666666667 0.1666666666666667 0.1666666666666667 0.1666666666666667 0.1666666666666667 0.1666666666666667 0.1666666666666667 0.1666666666666667 0.1666666666666667 0.1666666666666667 0.1666666666666667 0.1666666666666667 0.1666666666666667 0.1666666666666667 0.1666666666666667 0.1666666666666667 0.1916475972540046 0.1418764302059496 0.2133867276887872 0.2145308924485126 0.1601830663615561 0.07837528604118993 0.130718954248366 0.1917211328976035 0.2418300653594772 0.2222222222222222 0.1503267973856209 0.06318082788671024 0.08333333333333331 0.2371794871794872 0.2756410256410256 0.1987179487179487 0.1987179487179487 0.006410256410256409 0.08808290155440415 0.1917098445595855 0.2901554404145078 0.2072538860103627 0.150259067357513 0.07253886010362695 0.1962616822429906 0.132316773241515 0.1834727004426955 0.1972454500737826 0.1933103787506149 0.09739301524840137 0.1270161290322581 0.1693548387096774 0.2338709677419355 0.2237903225806452 0.1935483870967742 0.05241935483870967 0.08 0.04 0.4 0.16 0.28 0.04 0.1088082901554404 0.155440414507772 0.233160621761658 0.2590673575129534 0.2072538860103627 0.03626943005181348 0.2114832535885167 0.1244019138755981 0.1885167464114832 0.2047846889952153 0.1760765550239234 0.09473684210526316 0.136094674556213 0.2011834319526627 0.2504930966469428 0.1913214990138067 0.1597633136094675 0.0611439842209073 0.1081081081081081 0.1351351351351351 0.2162162162162162 0.2162162162162162 0.2162162162162162 0.1081081081081081 0.1594827586206896 0.1810344827586207 0.25 0.1637931034482759 0.1982758620689655 0.04741379310344827 0.2115915363385465 0.1352345906163754 0.1922723091076357 0.1941122355105796 0.172033118675253 0.09475620975160993 0.1214574898785425 0.1740890688259109 0.2368421052631579 0.2226720647773279 0.1740890688259109 0.0708502024291498 0.1904761904761905 0.3333333333333333 0.1904761904761905 0.1428571428571428 0.04761904761904762 0.09523809523809523 0.095 0.125 0.235 0.27 0.225 0.05 0.1915520628683693 0.1345776031434185 0.1974459724950884 0.206286836935167 0.1782907662082515 0.09184675834970529 0.1507128309572301 0.1629327902240326 0.219959266802444 0.2382892057026476 0.164969450101833 0.06313645621181262 0.2708333333333334 0.02083333333333334 0.02083333333333334 0.1458333333333334 0.2708333333333334 0.2708333333333334 0.1734104046242775 0.1329479768786127 0.2427745664739884 0.2023121387283237 0.1791907514450867 0.06936416184971098 0.1666666666666667 0.1666666666666667 0.1666666666666667 0.1666666666666667 0.1666666666666667 0.1666666666666667 0.1666666666666667 0.1666666666666667 0.1666666666666667 0.1666666666666667 0.1666666666666667 0.1666666666666667 0.1666666666666667 0.1666666666666667 0.1666666666666667 0.1666666666666667 0.1666666666666667 0.1666666666666667 0.1666666666666667 0.1666666666666667 0.1666666666666667 0.1666666666666667 0.1666666666666667 0.1666666666666667 0.1060606060606061 0.1818181818181818 0.2954545454545455 0.2196969696969697 0.1287878787878788 0.06818181818181818 0.03333333333333334 0.1761904761904762 0.3761904761904762 0.3761904761904762 0.03333333333333334 0.004761904761904762 0.08333333333333331 0.5833333333333333 0.08333333333333331 0.08333333333333331 0.08333333333333331 0.08333333333333331 0.01515151515151515 0.196969696969697 0.3787878787878788 0.1060606060606061 0.2878787878787879 0.01515151515151515 0.1484375 0.1796875 0.28125 0.21875 0.140625 0.03125 0.07692307692307693 0.2307692307692308 0.2307692307692308 0.1923076923076923 0.2307692307692308 0.03846153846153846 0.2333333333333334 0.03333333333333333 0.4333333333333333 0.03333333333333333 0.03333333333333333 0.2333333333333334 0.07692307692307693 0.3076923076923077 0.1538461538461539 0.2307692307692308 0.1538461538461539 0.07692307692307693 0.109375 0.15625 0.2734375 0.296875 0.125 0.0390625 0.09920634920634924 0.1944444444444445 0.3373015873015874 0.1706349206349207 0.1944444444444445 0.003968253968253969 0.08333333333333331 0.5833333333333333 0.08333333333333331 0.08333333333333331 0.08333333333333331 0.08333333333333331 0.07777777777777778 0.1444444444444444 0.3444444444444444 0.4111111111111111 0.01111111111111111 0.01111111111111111 0.0896551724137931 0.2 0.2551724137931035 0.2068965517241379 0.1931034482758621 0.05517241379310345 0.07500000000000001 0.275 0.325 0.1 0.2 0.025 0.08333333333333333 0.08333333333333333 0.5833333333333334 0.08333333333333333 0.08333333333333333 0.08333333333333333 0.007936507936507934 0.1984126984126984 0.246031746031746 0.3412698412698412 0.1984126984126984 0.007936507936507934 0.1119402985074627 0.1268656716417911 0.335820895522388 0.2014925373134328 0.1865671641791045 0.03731343283582089 0.0303030303030303 0.06060606060606061 0.3636363636363636 0.3939393939393939 0.1212121212121212 0.0303030303030303 0.1666666666666667 0.1666666666666667 0.1666666666666667 0.1666666666666667 0.1666666666666667 0.1666666666666667 0.1060606060606061 0.196969696969697 0.196969696969697 0.3787878787878788 0.1060606060606061 0.01515151515151515 0.02777777777777778 0.02777777777777778 0.02777777777777778 0.361111111111111 0.1944444444444444 0.361111111111111 0.04166666666666666 0.04166666666666666 0.04166666666666666 0.2916666666666667 0.2916666666666667 0.2916666666666667 0.1666666666666667 0.1666666666666667 0.1666666666666667 0.1666666666666667 0.1666666666666667 0.1666666666666667 0.1666666666666667 0.1666666666666667 0.1666666666666667 0.1666666666666667 0.1666666666666667 0.1666666666666667 0.07094441934026209 0.1617713511070945 0.1604157252598283 0.1703569814731134 0.2155445097153186 0.2209670131043832 0.06611570247933884 0.168595041322314 0.143801652892562 0.1851239669421487 0.2148760330578512 0.2214876033057851 0.003401360544217687 0.1666666666666666 0.2074829931972789 0.1258503401360544 0.3503401360544218 0.1462585034013605 0.05054151624548737 0.184115523465704 0.1949458483754513 0.148014440433213 0.2238267148014441 0.1985559566787004 0.04206418039895923 0.1856027753686036 0.1754119687771032 0.1836513443191674 0.2131396357328708 0.2001300954032957 0.02675059008654602 0.1707317073170732 0.1951219512195122 0.1652242328874902 0.2265932336742722 0.2155782848151062 0.003703703703703704 0.1592592592592593 0.2037037037037037 0.2037037037037037 0.2481481481481482 0.1814814814814815 0.02600472813238771 0.1749408983451537 0.2151300236406619 0.2104018912529551 0.1631205673758865 0.2104018912529551 0.03758084251005069 0.177766124803356 0.1800384548155917 0.1837091417584338 0.214123404999126 0.2067820311134417 0.02589223233030091 0.1973407977606718 0.1826452064380686 0.2015395381385584 0.1959412176347096 0.1966410076976907 0.03636363636363636 0.1545454545454545 0.1727272727272727 0.2181818181818182 0.2090909090909091 0.2090909090909091 0.03541315345699831 0.1500843170320405 0.1804384485666105 0.2074198988195615 0.2107925801011804 0.2158516020236088 0.0135693215339233 0.194821370042609 0.1932481153720092 0.1885283513602098 0.2100294985250737 0.199803343166175 0.01641541038525963 0.1896147403685092 0.1989949748743719 0.1889447236180904 0.1983249581239531 0.2077051926298158 0.02631578947368421 0.2105263157894737 0.1228070175438596 0.2017543859649123 0.2456140350877193 0.1929824561403509 0.01314553990610329 0.2178403755868545 0.2075117370892019 0.1802816901408451 0.1906103286384976 0.1906103286384976 0.01676413255360624 0.192280701754386 0.1958674463937622 0.1956335282651072 0.2034307992202729 0.1960233918128655 0.0203150912106136 0.189469320066335 0.1791044776119403 0.2014925373134328 0.2006633499170813 0.208955223880597 0.02469135802469136 0.1481481481481481 0.1358024691358025 0.2345679012345679 0.2469135802469136 0.2098765432098765 0.02863961813842482 0.1968973747016707 0.1909307875894988 0.1909307875894988 0.1861575178997613 0.2064439140811456 0.04166666666666666 0.2916666666666667 0.2916666666666667 0.04166666666666666 0.04166666666666666 0.2916666666666667 0.08333333333333333 0.08333333333333333 0.08333333333333333 0.08333333333333333 0.08333333333333333 0.5833333333333334 0.1666666666666667 0.1666666666666667 0.1666666666666667 0.1666666666666667 0.1666666666666667 0.1666666666666667 0.1666666666666667 0.1666666666666667 0.1666666666666667 0.1666666666666667 0.1666666666666667 0.1666666666666667 0.02984234234234234 0.09872372372372372 0.1118618618618619 0.1281906906906907 0.3331456456456456 0.2982357357357358 0.02207686017988553 0.1046606704824203 0.1144726083401472 0.16107931316435 0.2959934587080948 0.3017170891251022 0.003472222222222222 0.2326388888888889 0.3159722222222223 0.1701388888888889 0.1909722222222222 0.08680555555555557 0.009070294784580499 0.1519274376417234 0.1337868480725624 0.163265306122449 0.2879818594104309 0.253968253968254 0.02072538860103627 0.1101036269430052 0.1207541738629822 0.1342832469775475 0.3223949337938976 0.2917386298215314 0.02155453951665578 0.1299804049640758 0.139124755062051 0.146962769431744 0.3004572175048988 0.2619203135205748 0.002564102564102564 0.141025641025641 0.217948717948718 0.217948717948718 0.2487179487179488 0.1717948717948718 0.0119047619047619 0.1343537414965986 0.1377551020408163 0.1530612244897959 0.282312925170068 0.2806122448979592 0.02160672853828306 0.1129640371229698 0.1215197215777262 0.1326856148491879 0.3255510440835266 0.2856728538283063 0.01776960784313725 0.1176470588235294 0.1139705882352941 0.1642156862745098 0.3026960784313725 0.2837009803921569 0.001718213058419244 0.1666666666666667 0.08419243986254295 0.06357388316151202 0.3419243986254295 0.3419243986254295 0.03053435114503817 0.1038167938931298 0.1312977099236641 0.1389312977099237 0.332824427480916 0.2625954198473283 0.02311189694367265 0.1261682242990654 0.1289467037130589 0.1387976761808538 0.30310684516292 0.2798686537004294 0.02097470697100555 0.1153608883405305 0.1320172732880938 0.1566933991363356 0.3084515731030228 0.2665021591610117 0.02222222222222222 0.06666666666666667 0.1555555555555556 0.1666666666666667 0.3333333333333334 0.2555555555555556 0.01494768310911809 0.09417040358744395 0.1285500747384155 0.1464872944693573 0.336322869955157 0.2795216741405082 0.02738528769118718 0.1158048069919883 0.1299344501092498 0.1376547705753824 0.311143481427531 0.2780772032046613 0.02361111111111111 0.1034722222222222 0.1006944444444444 0.1270833333333333 0.3333333333333334 0.3118055555555556 0.04761904761904762 0.03174603174603174 0.06349206349206349 0.04761904761904762 0.492063492063492 0.3174603174603174 0.02697841726618705 0.1007194244604317 0.1133093525179856 0.131294964028777 0.3075539568345324 0.3201438848920863 0.02777777777777778 0.5277777777777777 0.02777777777777778 0.02777777777777778 0.1944444444444444 0.1944444444444444 0.08333333333333333 0.08333333333333333 0.08333333333333333 0.08333333333333333 0.08333333333333333 0.5833333333333334 0.1666666666666667 0.1666666666666667 0.1666666666666667 0.1666666666666667 0.1666666666666667 0.1666666666666667 0.1666666666666667 0.1666666666666667 0.1666666666666667 0.1666666666666667 0.1666666666666667 0.1666666666666667 0.02851108764519535 0.1436114044350581 0.1351636747624076 0.1446673706441394 0.279831045406547 0.2682154171066526 0.01739130434782609 0.1608695652173913 0.1434782608695652 0.1826086956521739 0.2739130434782609 0.2217391304347826 0.03333333333333333 0.4333333333333332 0.2333333333333333 0.2333333333333333 0.03333333333333333 0.03333333333333333 0.01923076923076923 0.1923076923076923 0.1538461538461539 0.125 0.2596153846153846 0.25 0.0291497975708502 0.1238866396761134 0.1352226720647773 0.1603238866396761 0.2825910931174089 0.2688259109311741 0.02793296089385475 0.1592178770949721 0.1536312849162011 0.1815642458100559 0.2513966480446927 0.2262569832402235 0.1060606060606061 0.196969696969697 0.2878787878787879 0.196969696969697 0.01515151515151515 0.196969696969697 0.02777777777777778 0.1296296296296296 0.1666666666666667 0.1851851851851852 0.1759259259259259 0.3148148148148148 0.0285935085007728 0.1360123647604328 0.1352395672333848 0.1622874806800618 0.2843894899536322 0.2534775888717156 0.01466275659824047 0.1583577712609971 0.1143695014662757 0.1524926686217009 0.2873900293255132 0.2727272727272727 0.007246376811594201 0.1376811594202898 0.09420289855072461 0.181159420289855 0.3550724637681159 0.2246376811594203 0.0352112676056338 0.1197183098591549 0.1408450704225352 0.2112676056338028 0.1971830985915493 0.2957746478873239 0.0232249502322495 0.1420039814200398 0.1539482415394824 0.145985401459854 0.2767086927670869 0.2581287325812873 0.01204819277108434 0.1355421686746988 0.1596385542168675 0.1746987951807229 0.2379518072289157 0.2801204819277109 0.08333333333333333 0.0119047619047619 0.08333333333333333 0.1547619047619047 0.1547619047619047 0.5119047619047619 0.02142857142857143 0.1071428571428571 0.15 0.1857142857142857 0.2571428571428571 0.2785714285714286 0.02209131075110456 0.1325478645066274 0.1399116347569956 0.1634756995581738 0.2702503681885125 0.2717231222385861 0.0205761316872428 0.1440329218106996 0.07818930041152264 0.1646090534979424 0.3209876543209877 0.271604938271605 0.02777777777777778 0.02777777777777778 0.02777777777777778 0.02777777777777778 0.5277777777777777 0.361111111111111 0.06185567010309279 0.1443298969072165 0.09278350515463918 0.1134020618556701 0.3711340206185567 0.2164948453608248</probabilities>
		</cpt>
		<cpt id="On_board_Service" target="true" diagtype="observation" ranked="true">
			<state id="State0" />
			<state id="State1" />
			<state id="State2" />
			<state id="State3" />
			<state id="State4" />
			<state id="State5" />
			<parents>Gender Customer_Type Class Departure_and_Arrival_Time_Convenience In_flight_Entertainment Discreted_departure_delay</parents>
			<probabilities>0.1666666666666667 0.1666666666666667 0.1666666666666667 0.1666666666666667 0.1666666666666667 0.1666666666666667 0.1666666666666667 0.1666666666666667 0.1666666666666667 0.1666666666666667 0.1666666666666667 0.1666666666666667 0.1666666666666667 0.1666666666666667 0.1666666666666667 0.1666666666666667 0.1666666666666667 0.1666666666666667 0.1666666666666667 0.1666666666666667 0.1666666666666667 0.1666666666666667 0.1666666666666667 0.1666666666666667 0.001488095238095238 0.02827380952380952 0.01934523809523809 0.3139880952380952 0.3139880952380952 0.3229166666666666 0.007246376811594202 0.007246376811594202 0.007246376811594202 0.3115942028985507 0.3550724637681159 0.3115942028985507 0.1666666666666667 0.1666666666666667 0.1666666666666667 0.1666666666666667 0.1666666666666667 0.1666666666666667 0.02777777777777778 0.02777777777777778 0.02777777777777778 0.5277777777777777 0.1944444444444444 0.1944444444444444 0.001282051282051282 0.008974358974358975 0.03974358974358975 0.3397435897435898 0.2705128205128205 0.3397435897435898 0.005208333333333333 0.06770833333333333 0.06770833333333333 0.2552083333333333 0.2552083333333333 0.3489583333333333 0.1666666666666667 0.1666666666666667 0.1666666666666667 0.1666666666666667 0.1666666666666667 0.1666666666666667 0.01515151515151515 0.01515151515151515 0.1060606060606061 0.4696969696969697 0.196969696969697 0.196969696969697 0.001173708920187793 0.008215962441314555 0.02934272300469484 0.3532863849765258 0.3110328638497653 0.2969483568075117 0.005952380952380952 0.005952380952380952 0.07738095238095237 0.3988095238095238 0.363095238095238 0.1488095238095238 0.1666666666666667 0.1666666666666667 0.1666666666666667 0.1666666666666667 0.1666666666666667 0.1666666666666667 0.01515151515151515 0.01515151515151515 0.196969696969697 0.196969696969697 0.2878787878787879 0.2878787878787879 0.0012531328320802 0.03132832080200501 0.008771929824561403 0.2568922305764411 0.3320802005012531 0.3696741854636591 0.007246376811594202 0.007246376811594202 0.007246376811594202 0.3550724637681159 0.3115942028985507 0.3115942028985507 0.08333333333333333 0.08333333333333333 0.08333333333333333 0.08333333333333333 0.5833333333333334 0.08333333333333333 0.01515151515151515 0.01515151515151515 0.196969696969697 0.2878787878787879 0.1060606060606061 0.3787878787878788 0.001333333333333333 0.001333333333333333 0.02533333333333333 0.3693333333333333 0.2893333333333333 0.3133333333333333 0.007246376811594202 0.007246376811594202 0.007246376811594202 0.4420289855072463 0.3115942028985507 0.2246376811594203 0.08333333333333333 0.08333333333333333 0.08333333333333333 0.5833333333333334 0.08333333333333333 0.08333333333333333 0.01851851851851852 0.01851851851851852 0.1296296296296296 0.5740740740740741 0.01851851851851852 0.2407407407407407 0.1666666666666667 0.1666666666666667 0.1666666666666667 0.1666666666666667 0.1666666666666667 0.1666666666666667 0.1666666666666667 0.1666666666666667 0.1666666666666667 0.1666666666666667 0.1666666666666667 0.1666666666666667 0.1666666666666667 0.1666666666666667 0.1666666666666667 0.1666666666666667 0.1666666666666667 0.1666666666666667 0.1666666666666667 0.1666666666666667 0.1666666666666667 0.1666666666666667 0.1666666666666667 0.1666666666666667 0.001893939393939394 0.1268939393939394 0.08143939393939394 0.1950757575757576 0.3768939393939393 0.2178030303030303 0.007936507936507934 0.1984126984126984 0.007936507936507934 0.3412698412698412 0.246031746031746 0.1984126984126984 0.08333333333333333 0.08333333333333333 0.08333333333333333 0.5833333333333334 0.08333333333333333 0.08333333333333333 0.03333333333333333 0.2333333333333333 0.03333333333333333 0.03333333333333333 0.6333333333333332 0.03333333333333333 0.002032520325203252 0.0508130081300813 0.07520325203252032 0.3313008130081301 0.306910569105691 0.233739837398374 0.01041666666666667 0.07291666666666667 0.1354166666666667 0.3229166666666667 0.1354166666666667 0.3229166666666667 0.1666666666666667 0.1666666666666667 0.1666666666666667 0.1666666666666667 0.1666666666666667 0.1666666666666667 0.02380952380952381 0.3095238095238095 0.1666666666666667 0.1666666666666667 0.1666666666666667 0.1666666666666667 0.00181159420289855 0.04528985507246376 0.07789855072463767 0.3278985507246376 0.2626811594202898 0.2844202898550725 0.007936507936507936 0.05555555555555556 0.1984126984126984 0.3412698412698413 0.1507936507936508 0.246031746031746 0.08333333333333333 0.08333333333333333 0.08333333333333333 0.08333333333333333 0.5833333333333334 0.08333333333333333 0.02777777777777778 0.02777777777777778 0.02777777777777778 0.361111111111111 0.361111111111111 0.1944444444444444 0.002164502164502164 0.08008658008658008 0.05411255411255411 0.3528138528138527 0.3268398268398268 0.1839826839826839 0.01041666666666667 0.1979166666666667 0.1354166666666667 0.1354166666666667 0.3229166666666667 0.1979166666666667 0.1666666666666667 0.1666666666666667 0.1666666666666667 0.1666666666666667 0.1666666666666667 0.1666666666666667 0.02083333333333333 0.02083333333333333 0.02083333333333333 0.1458333333333333 0.3958333333333333 0.3958333333333333 0.002604166666666667 0.03385416666666666 0.04947916666666666 0.2838541666666667 0.3619791666666667 0.2682291666666667 0.007246376811594201 0.09420289855072461 0.09420289855072461 0.3115942028985507 0.181159420289855 0.3115942028985507 0.1666666666666667 0.1666666666666667 0.1666666666666667 0.1666666666666667 0.1666666666666667 0.1666666666666667 0.02083333333333333 0.1458333333333333 0.1458333333333333 0.1458333333333333 0.1458333333333333 0.3958333333333333 0.1666666666666667 0.1666666666666667 0.1666666666666667 0.1666666666666667 0.1666666666666667 0.1666666666666667 0.1666666666666667 0.1666666666666667 0.1666666666666667 0.1666666666666667 0.1666666666666667 0.1666666666666667 0.1666666666666667 0.1666666666666667 0.1666666666666667 0.1666666666666667 0.1666666666666667 0.1666666666666667 0.1666666666666667 0.1666666666666667 0.1666666666666667 0.1666666666666667 0.1666666666666667 0.1666666666666667 0.001322751322751323 0.05687830687830688 0.05687830687830688 0.3108465608465608 0.4378306878306878 0.1362433862433862 0.007936507936507934 0.007936507936507934 0.2936507936507936 0.246031746031746 0.3412698412698412 0.1031746031746031 0.08333333333333331 0.5833333333333333 0.08333333333333331 0.08333333333333331 0.08333333333333331 0.08333333333333331 0.02777777777777777 0.02777777777777777 0.361111111111111 0.1944444444444444 0.361111111111111 0.02777777777777777 0.001089324618736383 0.04030501089324619 0.06644880174291939 0.3017429193899782 0.3082788671023965 0.2821350762527233 0.00505050505050505 0.09595959595959595 0.03535353535353536 0.4898989898989899 0.09595959595959595 0.2777777777777778 0.05555555555555555 0.05555555555555555 0.05555555555555555 0.3888888888888889 0.3888888888888889 0.05555555555555555 0.01282051282051282 0.1666666666666667 0.1666666666666667 0.2435897435897436 0.2435897435897436 0.1666666666666667 0.001111111111111111 0.05444444444444445 0.08111111111111112 0.2944444444444445 0.3144444444444445 0.2544444444444445 0.006172839506172839 0.08024691358024691 0.08024691358024691 0.228395061728395 0.4876543209876543 0.1172839506172839 0.05555555555555555 0.05555555555555555 0.05555555555555555 0.3888888888888889 0.05555555555555555 0.3888888888888889 0.01111111111111111 0.01111111111111111 0.07777777777777777 0.4777777777777777 0.3444444444444444 0.07777777777777777 0.001089324618736384 0.0860566448801743 0.0337690631808279 0.360566448801743 0.2821350762527233 0.2363834422657952 0.004629629629629629 0.08796296296296295 0.08796296296296295 0.2268518518518518 0.2824074074074074 0.3101851851851852 0.05555555555555555 0.05555555555555555 0.05555555555555555 0.05555555555555555 0.3888888888888889 0.3888888888888889 0.01388888888888889 0.01388888888888889 0.09722222222222222 0.5972222222222222 0.09722222222222222 0.1805555555555555 0.001199040767386091 0.05875299760191847 0.09472422062350121 0.3105515587529976 0.2601918465227818 0.2745803357314149 0.006410256410256409 0.1217948717948718 0.1987179487179487 0.2756410256410256 0.2371794871794872 0.1602564102564102 0.05555555555555555 0.05555555555555555 0.05555555555555555 0.05555555555555555 0.3888888888888889 0.3888888888888889 0.01111111111111111 0.07777777777777777 0.1444444444444444 0.411111111111111 0.2777777777777777 0.07777777777777777 0.1666666666666667 0.1666666666666667 0.1666666666666667 0.1666666666666667 0.1666666666666667 0.1666666666666667 0.1666666666666667 0.1666666666666667 0.1666666666666667 0.1666666666666667 0.1666666666666667 0.1666666666666667 0.1666666666666667 0.1666666666666667 0.1666666666666667 0.1666666666666667 0.1666666666666667 0.1666666666666667 0.1666666666666667 0.1666666666666667 0.1666666666666667 0.1666666666666667 0.1666666666666667 0.1666666666666667 0.001436781609195402 0.0617816091954023 0.0617816091954023 0.3376436781609195 0.3117816091954023 0.2255747126436782 0.005747126436781609 0.07471264367816091 0.04022988505747126 0.2126436781609196 0.2816091954022988 0.3850574712643678 0.08333333333333333 0.08333333333333333 0.08333333333333333 0.08333333333333333 0.5833333333333334 0.08333333333333333 0.01515151515151515 0.01515151515151515 0.2878787878787879 0.196969696969697 0.196969696969697 0.2878787878787879 0.001111111111111111 0.06111111111111112 0.03444444444444445 0.3344444444444445 0.3544444444444445 0.2144444444444445 0.004901960784313726 0.0931372549019608 0.06372549019607844 0.357843137254902 0.2696078431372549 0.2107843137254903 0.1666666666666667 0.1666666666666667 0.1666666666666667 0.1666666666666667 0.1666666666666667 0.1666666666666667 0.01282051282051282 0.08974358974358976 0.01282051282051282 0.1666666666666667 0.3205128205128205 0.3974358974358975 0.001111111111111111 0.05444444444444445 0.08111111111111112 0.3411111111111111 0.3011111111111112 0.2211111111111111 0.006172839506172839 0.08024691358024691 0.08024691358024691 0.228395061728395 0.4135802469135802 0.191358024691358 0.03333333333333333 0.2333333333333333 0.03333333333333333 0.2333333333333333 0.2333333333333333 0.2333333333333333 0.01666666666666667 0.1166666666666667 0.01666666666666667 0.5166666666666667 0.1166666666666667 0.2166666666666667 0.001149425287356322 0.03563218390804598 0.04942528735632184 0.3045977011494252 0.3528735632183908 0.2563218390804597 0.005376344086021505 0.1021505376344086 0.1021505376344086 0.2311827956989247 0.3279569892473118 0.2311827956989247 0.08333333333333333 0.08333333333333333 0.08333333333333333 0.08333333333333333 0.5833333333333334 0.08333333333333333 0.01388888888888889 0.09722222222222222 0.1805555555555555 0.4305555555555556 0.09722222222222222 0.1805555555555555 0.001111111111111111 0.1011111111111111 0.04777777777777779 0.2877777777777778 0.2877777777777778 0.2744444444444445 0.004761904761904761 0.0619047619047619 0.09047619047619047 0.2619047619047619 0.2904761904761904 0.2904761904761904 0.08333333333333333 0.08333333333333333 0.08333333333333333 0.08333333333333333 0.5833333333333334 0.08333333333333333 0.01388888888888889 0.09722222222222222 0.01388888888888889 0.1805555555555555 0.3472222222222222 0.3472222222222222 0.1666666666666667 0.1666666666666667 0.1666666666666667 0.1666666666666667 0.1666666666666667 0.1666666666666667 0.1666666666666667 0.1666666666666667 0.1666666666666667 0.1666666666666667 0.1666666666666667 0.1666666666666667 0.1666666666666667 0.1666666666666667 0.1666666666666667 0.1666666666666667 0.1666666666666667 0.1666666666666667 0.1666666666666667 0.1666666666666667 0.1666666666666667 0.1666666666666667 0.1666666666666667 0.1666666666666667 0.001111111111111111 0.01444444444444444 0.05444444444444444 0.3277777777777778 0.3544444444444445 0.2477777777777778 0.007575757575757576 0.007575757575757576 0.05303030303030303 0.2348484848484849 0.553030303030303 0.143939393939394 0.1666666666666667 0.1666666666666667 0.1666666666666667 0.1666666666666667 0.1666666666666667 0.1666666666666667 0.01282051282051282 0.08974358974358976 0.01282051282051282 0.1666666666666667 0.3974358974358975 0.3205128205128205 0.0010351966873706 0.05693581780538303 0.03209109730848862 0.3302277432712216 0.29296066252588 0.2867494824016564 0.009803921568627451 0.06862745098039216 0.1274509803921569 0.2450980392156863 0.4215686274509804 0.1274509803921569 0.08333333333333333 0.08333333333333333 0.08333333333333333 0.5833333333333334 0.08333333333333333 0.08333333333333333 0.01851851851851852 0.01851851851851852 0.1296296296296296 0.1296296296296296 0.462962962962963 0.2407407407407407 0.0009523809523809525 0.03523809523809524 0.05238095238095238 0.3095238095238095 0.2866666666666667 0.3152380952380953 0.005747126436781609 0.04022988505747126 0.04022988505747126 0.2816091954022988 0.2816091954022988 0.3505747126436781 0.05555555555555555 0.05555555555555555 0.3888888888888889 0.3888888888888889 0.05555555555555555 0.05555555555555555 0.01111111111111111 0.07777777777777777 0.1444444444444444 0.411111111111111 0.2777777777777777 0.07777777777777777 0.001048218029350105 0.03249475890985326 0.07023060796645703 0.3155136268343816 0.2903563941299791 0.2903563941299791 0.004065040650406504 0.07723577235772358 0.02845528455284553 0.2235772357723577 0.3699186991869919 0.2967479674796748 0.03333333333333333 0.03333333333333333 0.2333333333333334 0.03333333333333333 0.2333333333333334 0.4333333333333333 0.01388888888888889 0.09722222222222222 0.1805555555555555 0.3472222222222222 0.1805555555555555 0.1805555555555555 0.001103752759381898 0.04746136865342163 0.04083885209713024 0.2924944812362031 0.2726269315673289 0.3454746136865342 0.006172839506172839 0.04320987654320987 0.04320987654320987 0.2654320987654321 0.2654320987654321 0.3765432098765432 0.08333333333333333 0.08333333333333333 0.08333333333333333 0.08333333333333333 0.5833333333333334 0.08333333333333333 0.01041666666666667 0.01041666666666667 0.01041666666666667 0.1979166666666667 0.2604166666666667 0.5104166666666666 0.1666666666666667 0.1666666666666667 0.1666666666666667 0.1666666666666667 0.1666666666666667 0.1666666666666667 0.1666666666666667 0.1666666666666667 0.1666666666666667 0.1666666666666667 0.1666666666666667 0.1666666666666667 0.1666666666666667 0.1666666666666667 0.1666666666666667 0.1666666666666667 0.1666666666666667 0.1666666666666667 0.1666666666666667 0.1666666666666667 0.1666666666666667 0.1666666666666667 0.1666666666666667 0.1666666666666667 0.001984126984126984 0.0376984126984127 0.01388888888888889 0.2757936507936508 0.3353174603174603 0.3353174603174603 0.01282051282051282 0.08974358974358976 0.01282051282051282 0.2435897435897436 0.3205128205128205 0.3205128205128205 0.1666666666666667 0.1666666666666667 0.1666666666666667 0.1666666666666667 0.1666666666666667 0.1666666666666667 0.08333333333333333 0.08333333333333333 0.08333333333333333 0.08333333333333333 0.08333333333333333 0.5833333333333334 0.001602564102564103 0.01121794871794872 0.01121794871794872 0.2323717948717949 0.405448717948718 0.3381410256410257 0.008333333333333333 0.05833333333333334 0.008333333333333333 0.4083333333333333 0.2083333333333334 0.3083333333333333 0.1666666666666667 0.1666666666666667 0.1666666666666667 0.1666666666666667 0.1666666666666667 0.1666666666666667 0.05555555555555555 0.05555555555555555 0.05555555555555555 0.3888888888888889 0.3888888888888889 0.05555555555555555 0.001572327044025157 0.02987421383647798 0.02044025157232704 0.2468553459119497 0.3128930817610063 0.3883647798742138 0.006666666666666666 0.006666666666666666 0.04666666666666667 0.3266666666666667 0.3266666666666667 0.2866666666666667 0.05555555555555555 0.05555555555555555 0.05555555555555555 0.3888888888888889 0.05555555555555555 0.3888888888888889 0.02777777777777778 0.02777777777777778 0.02777777777777778 0.1944444444444444 0.1944444444444444 0.5277777777777777 0.001811594202898551 0.03442028985507246 0.001811594202898551 0.2626811594202899 0.447463768115942 0.2518115942028986 0.007246376811594202 0.007246376811594202 0.05072463768115942 0.5289855072463767 0.2681159420289855 0.1376811594202899 0.1666666666666667 0.1666666666666667 0.1666666666666667 0.1666666666666667 0.1666666666666667 0.1666666666666667 0.01851851851851852 0.01851851851851852 0.01851851851851852 0.3518518518518518 0.2407407407407407 0.3518518518518518 0.001449275362318841 0.01884057971014493 0.001449275362318841 0.3057971014492754 0.3318840579710145 0.3405797101449275 0.01041666666666667 0.01041666666666667 0.01041666666666667 0.4479166666666667 0.1354166666666667 0.3854166666666667 0.08333333333333333 0.08333333333333333 0.08333333333333333 0.08333333333333333 0.5833333333333334 0.08333333333333333 0.01666666666666667 0.01666666666666667 0.1166666666666667 0.1166666666666667 0.3166666666666667 0.4166666666666667 0.1666666666666667 0.1666666666666667 0.1666666666666667 0.1666666666666667 0.1666666666666667 0.1666666666666667 0.1666666666666667 0.1666666666666667 0.1666666666666667 0.1666666666666667 0.1666666666666667 0.1666666666666667 0.1666666666666667 0.1666666666666667 0.1666666666666667 0.1666666666666667 0.1666666666666667 0.1666666666666667 0.1666666666666667 0.1666666666666667 0.1666666666666667 0.1666666666666667 0.1666666666666667 0.1666666666666667 0.000900900900900901 0.1360360360360361 0.1144144144144144 0.2873873873873874 0.254954954954955 0.2063063063063063 0.005376344086021505 0.1344086021505377 0.2634408602150538 0.1666666666666667 0.2311827956989247 0.1989247311827957 0.08333333333333333 0.08333333333333333 0.08333333333333333 0.5833333333333334 0.08333333333333333 0.08333333333333333 0.01515151515151515 0.1060606060606061 0.1060606060606061 0.196969696969697 0.3787878787878789 0.196969696969697 0.0008169934640522877 0.1576797385620915 0.1478758169934641 0.2361111111111111 0.2361111111111111 0.22140522875817 0.007575757575757576 0.1893939393939394 0.09848484848484848 0.09848484848484848 0.2348484848484849 0.3712121212121212 0.1666666666666667 0.1666666666666667 0.1666666666666667 0.1666666666666667 0.1666666666666667 0.1666666666666667 0.02083333333333333 0.1458333333333333 0.02083333333333333 0.1458333333333333 0.5208333333333334 0.1458333333333333 0.0006535947712418301 0.2006535947712419 0.173202614379085 0.2359477124183007 0.2163398692810458 0.173202614379085 0.004901960784313726 0.1519607843137255 0.1225490196078432 0.2401960784313726 0.2696078431372549 0.2107843137254903 0.04166666666666666 0.2916666666666666 0.04166666666666666 0.04166666666666666 0.2916666666666666 0.2916666666666666 0.008771929824561401 0.1666666666666666 0.1666666666666666 0.2192982456140351 0.2719298245614035 0.1666666666666666 0.0006510416666666667 0.1608072916666667 0.1608072916666667 0.2350260416666667 0.2311197916666667 0.2115885416666667 0.006172839506172839 0.04320987654320987 0.154320987654321 0.2654320987654321 0.3024691358024691 0.228395061728395 0.05555555555555555 0.05555555555555555 0.05555555555555555 0.05555555555555555 0.3888888888888889 0.3888888888888889 0.01388888888888889 0.09722222222222224 0.1805555555555556 0.2638888888888889 0.3472222222222223 0.09722222222222224 0.0008250825082508252 0.1641914191419142 0.188943894389439 0.2087458745874588 0.2384488448844885 0.1988448844884489 0.004166666666666667 0.1791666666666667 0.1041666666666667 0.2791666666666667 0.2041666666666667 0.2291666666666667 0.1666666666666667 0.1666666666666667 0.1666666666666667 0.1666666666666667 0.1666666666666667 0.1666666666666667 0.008333333333333331 0.1583333333333333 0.1083333333333333 0.2583333333333333 0.3083333333333333 0.1583333333333333 0.1666666666666667 0.1666666666666667 0.1666666666666667 0.1666666666666667 0.1666666666666667 0.1666666666666667 0.1666666666666667 0.1666666666666667 0.1666666666666667 0.1666666666666667 0.1666666666666667 0.1666666666666667 0.1666666666666667 0.1666666666666667 0.1666666666666667 0.1666666666666667 0.1666666666666667 0.1666666666666667 0.1666666666666667 0.1666666666666667 0.1666666666666667 0.1666666666666667 0.1666666666666667 0.1666666666666667 0.001141552511415525 0.247716894977169 0.2271689497716895 0.2340182648401827 0.2340182648401827 0.05593607305936073 0.003472222222222222 0.2743055555555556 0.2118055555555556 0.3159722222222223 0.1909722222222222 0.003472222222222222 0.02777777777777778 0.361111111111111 0.02777777777777778 0.361111111111111 0.02777777777777778 0.1944444444444444 0.007575757575757576 0.2348484848484849 0.2803030303030303 0.4166666666666666 0.007575757575757576 0.05303030303030303 0.001082251082251082 0.1958874458874459 0.2088744588744589 0.2478354978354979 0.2997835497835498 0.04653679653679655 0.00326797385620915 0.2973856209150327 0.1013071895424837 0.3169934640522876 0.238562091503268 0.04248366013071895 0.1666666666666667 0.1666666666666667 0.1666666666666667 0.1666666666666667 0.1666666666666667 0.1666666666666667 0.01190476190476191 0.3690476190476191 0.1547619047619048 0.1547619047619048 0.2976190476190477 0.01190476190476191 0.001126126126126126 0.1970720720720721 0.2646396396396397 0.1768018018018018 0.2984234234234234 0.06193693693693694 0.002923976608187135 0.195906432748538 0.3011695906432749 0.2134502923976608 0.2485380116959064 0.03801169590643275 0.05555555555555555 0.3888888888888889 0.05555555555555555 0.3888888888888889 0.05555555555555555 0.05555555555555555 0.006172839506172839 0.1172839506172839 0.2654320987654321 0.154320987654321 0.3395061728395061 0.1172839506172839 0.001022494887525562 0.2464212678936606 0.2034764826175869 0.2770961145194274 0.1850715746421268 0.08691206543967281 0.003968253968253969 0.1230158730158731 0.3611111111111112 0.2420634920634921 0.2420634920634921 0.02777777777777779 0.04166666666666667 0.5416666666666667 0.04166666666666667 0.2916666666666667 0.04166666666666667 0.04166666666666667 0.01190476190476191 0.2261904761904762 0.2976190476190477 0.1547619047619048 0.2261904761904762 0.08333333333333336 0.001041666666666667 0.2010416666666667 0.2135416666666667 0.2697916666666667 0.2760416666666667 0.03854166666666668 0.003623188405797102 0.1557971014492754 0.3297101449275363 0.2210144927536232 0.2862318840579711 0.003623188405797102 0.1666666666666667 0.1666666666666667 0.1666666666666667 0.1666666666666667 0.1666666666666667 0.1666666666666667 0.0119047619047619 0.2261904761904762 0.2261904761904762 0.3690476190476191 0.1547619047619047 0.0119047619047619 0.1666666666666667 0.1666666666666667 0.1666666666666667 0.1666666666666667 0.1666666666666667 0.1666666666666667 0.1666666666666667 0.1666666666666667 0.1666666666666667 0.1666666666666667 0.1666666666666667 0.1666666666666667 0.1666666666666667 0.1666666666666667 0.1666666666666667 0.1666666666666667 0.1666666666666667 0.1666666666666667 0.1666666666666667 0.1666666666666667 0.1666666666666667 0.1666666666666667 0.1666666666666667 0.1666666666666667 0.0007751937984496125 0.1589147286821705 0.210077519379845 0.2937984496124031 0.2565891472868218 0.0798449612403101 0.002777777777777778 0.3694444444444445 0.2194444444444445 0.2027777777777778 0.1694444444444445 0.03611111111111111 0.03333333333333333 0.2333333333333334 0.2333333333333334 0.2333333333333334 0.03333333333333333 0.2333333333333334 0.005050505050505052 0.1262626262626263 0.09595959595959598 0.2777777777777778 0.3383838383838385 0.1565656565656566 0.0007936507936507937 0.2436507936507937 0.2103174603174603 0.2484126984126984 0.2246031746031746 0.07222222222222223 0.002564102564102564 0.2487179487179488 0.2333333333333333 0.2641025641025641 0.217948717948718 0.03333333333333333 0.03333333333333333 0.2333333333333333 0.2333333333333333 0.2333333333333333 0.2333333333333333 0.03333333333333333 0.005208333333333333 0.1614583333333333 0.3177083333333333 0.1927083333333333 0.1927083333333333 0.1302083333333333 0.0007473841554559043 0.2204783258594918 0.2159940209267563 0.2877428998505232 0.2115097159940209 0.06352765321375187 0.00228310502283105 0.2625570776255707 0.139269406392694 0.2214611872146119 0.3310502283105022 0.04337899543378994 0.04166666666666667 0.04166666666666667 0.2916666666666667 0.5416666666666667 0.04166666666666667 0.04166666666666667 0.004901960784313725 0.2107843137254902 0.3284313725490196 0.1519607843137255 0.2107843137254902 0.09313725490196077 0.0006720430107526882 0.2063172043010753 0.2426075268817205 0.2022849462365592 0.2627688172043011 0.08534946236559142 0.002777777777777778 0.2527777777777778 0.1861111111111111 0.2527777777777778 0.2361111111111112 0.06944444444444446 0.04166666666666666 0.2916666666666667 0.04166666666666666 0.5416666666666666 0.04166666666666666 0.04166666666666666 0.006172839506172839 0.2654320987654321 0.191358024691358 0.228395061728395 0.191358024691358 0.1172839506172839 0.0007680491551459294 0.2357910906298003 0.1943164362519202 0.2403993855606759 0.272657450076805 0.05606758832565285 0.002923976608187135 0.2134502923976608 0.2485380116959064 0.2660818713450293 0.1608187134502924 0.108187134502924 0.1666666666666667 0.1666666666666667 0.1666666666666667 0.1666666666666667 0.1666666666666667 0.1666666666666667 0.008771929824561403 0.2719298245614035 0.3245614035087719 0.1666666666666667 0.1666666666666667 0.06140350877192983 0.1666666666666667 0.1666666666666667 0.1666666666666667 0.1666666666666667 0.1666666666666667 0.1666666666666667 0.1666666666666667 0.1666666666666667 0.1666666666666667 0.1666666666666667 0.1666666666666667 0.1666666666666667 0.1666666666666667 0.1666666666666667 0.1666666666666667 0.1666666666666667 0.1666666666666667 0.1666666666666667 0.1666666666666667 0.1666666666666667 0.1666666666666667 0.1666666666666667 0.1666666666666667 0.1666666666666667 0.0008210180623973728 0.222495894909688 0.1929392446633826 0.3062397372742201 0.1929392446633826 0.08456486042692941 0.002873563218390805 0.2097701149425288 0.2270114942528736 0.2097701149425288 0.3304597701149426 0.02011494252873564 0.04166666666666666 0.2916666666666667 0.04166666666666666 0.04166666666666666 0.5416666666666666 0.04166666666666666 0.006944444444444442 0.298611111111111 0.1319444444444444 0.298611111111111 0.2152777777777777 0.0486111111111111 0.0007751937984496125 0.1728682170542636 0.1682170542635659 0.2798449612403101 0.2937984496124031 0.08449612403100777 0.002487562189054726 0.2263681592039801 0.2263681592039801 0.181592039800995 0.2114427860696517 0.1517412935323383 0.05555555555555556 0.388888888888889 0.388888888888889 0.05555555555555556 0.05555555555555556 0.05555555555555556 0.005952380952380952 0.1845238095238095 0.363095238095238 0.1488095238095238 0.1845238095238095 0.1130952380952381 0.0007246376811594204 0.1485507246376812 0.2615942028985508 0.2398550724637682 0.2528985507246377 0.09637681159420293 0.003703703703703704 0.2037037037037037 0.2259259259259259 0.425925925925926 0.137037037037037 0.003703703703703704 0.04166666666666666 0.04166666666666666 0.2916666666666667 0.04166666666666666 0.2916666666666667 0.2916666666666667 0.008771929824561401 0.1666666666666666 0.1140350877192982 0.3771929824561403 0.2192982456140351 0.1140350877192982 0.0007788161993769471 0.2110591900311527 0.1876947040498443 0.220404984423676 0.2484423676012461 0.1316199376947041 0.002487562189054726 0.1517412935323383 0.2860696517412936 0.1965174129353234 0.2860696517412936 0.07711442786069653 0.08333333333333333 0.08333333333333333 0.08333333333333333 0.08333333333333333 0.08333333333333333 0.5833333333333334 0.00505050505050505 0.2171717171717172 0.2474747474747475 0.1868686868686869 0.2171717171717172 0.1262626262626263 0.0006693440428380188 0.2376171352074967 0.1934404283801874 0.213520749665328 0.2576974564926373 0.09705488621151273 0.00238095238095238 0.1738095238095238 0.2738095238095238 0.2595238095238095 0.2166666666666666 0.0738095238095238 0.08333333333333333 0.08333333333333333 0.08333333333333333 0.5833333333333334 0.08333333333333333 0.08333333333333333 0.01282051282051282 0.01282051282051282 0.1666666666666667 0.5512820512820513 0.1666666666666667 0.08974358974358976 0.1666666666666667 0.1666666666666667 0.1666666666666667 0.1666666666666667 0.1666666666666667 0.1666666666666667 0.1666666666666667 0.1666666666666667 0.1666666666666667 0.1666666666666667 0.1666666666666667 0.1666666666666667 0.1666666666666667 0.1666666666666667 0.1666666666666667 0.1666666666666667 0.1666666666666667 0.1666666666666667 0.1666666666666667 0.1666666666666667 0.1666666666666667 0.1666666666666667 0.1666666666666667 0.1666666666666667 0.001089324618736384 0.1971677559912854 0.210239651416122 0.2625272331154684 0.1906318082788671 0.1383442265795207 0.004273504273504274 0.1324786324786325 0.1837606837606838 0.2094017094017094 0.3632478632478633 0.1068376068376069 0.05555555555555556 0.05555555555555556 0.7222222222222222 0.05555555555555556 0.05555555555555556 0.05555555555555556 0.01111111111111111 0.1444444444444445 0.4111111111111112 0.07777777777777779 0.1444444444444445 0.2111111111111111 0.0008591065292096221 0.1451890034364262 0.2173539518900344 0.2379725085910653 0.263745704467354 0.1348797250859107 0.002976190476190476 0.1101190476190476 0.3422619047619048 0.1815476190476191 0.2886904761904763 0.07440476190476192 0.02777777777777778 0.1944444444444444 0.02777777777777778 0.1944444444444444 0.1944444444444444 0.361111111111111 0.009803921568627451 0.1274509803921569 0.303921568627451 0.1862745098039215 0.1274509803921569 0.2450980392156863 0.0008912655971479501 0.2254901960784314 0.1827094474153298 0.2522281639928699 0.2308377896613191 0.107843137254902 0.004385964912280702 0.1359649122807018 0.1885964912280702 0.3201754385964913 0.2412280701754386 0.1096491228070176 0.04166666666666666 0.2916666666666666 0.04166666666666666 0.2916666666666666 0.2916666666666666 0.04166666666666666 0.006666666666666665 0.2466666666666666 0.08666666666666664 0.1666666666666667 0.2466666666666666 0.2466666666666666 0.0008333333333333335 0.1608333333333334 0.1458333333333334 0.3008333333333334 0.2658333333333334 0.1258333333333334 0.003030303030303031 0.2212121212121212 0.2212121212121212 0.2575757575757576 0.2030303030303031 0.09393939393939396 0.08333333333333333 0.08333333333333333 0.08333333333333333 0.08333333333333333 0.08333333333333333 0.5833333333333334 0.006944444444444442 0.2152777777777777 0.09027777777777775 0.298611111111111 0.298611111111111 0.09027777777777775 0.0008250825082508252 0.1691419141914192 0.1592409240924093 0.2186468646864687 0.2483498349834984 0.2037953795379538 0.003623188405797102 0.1557971014492754 0.1992753623188406 0.2210144927536232 0.2862318840579711 0.1340579710144928 0.1666666666666667 0.1666666666666667 0.1666666666666667 0.1666666666666667 0.1666666666666667 0.1666666666666667 0.007575757575757574 0.09848484848484847 0.1893939393939394 0.2348484848484848 0.1893939393939394 0.2803030303030303 0.1666666666666667 0.1666666666666667 0.1666666666666667 0.1666666666666667 0.1666666666666667 0.1666666666666667 0.1666666666666667 0.1666666666666667 0.1666666666666667 0.1666666666666667 0.1666666666666667 0.1666666666666667 0.1666666666666667 0.1666666666666667 0.1666666666666667 0.1666666666666667 0.1666666666666667 0.1666666666666667 0.1666666666666667 0.1666666666666667 0.1666666666666667 0.1666666666666667 0.1666666666666667 0.1666666666666667 0.002314814814814814 0.1134259259259259 0.08564814814814814 0.2523148148148148 0.2384259259259259 0.3078703703703703 0.01041666666666667 0.07291666666666667 0.07291666666666667 0.1979166666666667 0.3854166666666667 0.2604166666666667 0.1666666666666667 0.1666666666666667 0.1666666666666667 0.1666666666666667 0.1666666666666667 0.1666666666666667 0.02777777777777778 0.02777777777777778 0.02777777777777778 0.361111111111111 0.1944444444444444 0.361111111111111 0.001683501683501683 0.1026936026936027 0.1531986531986532 0.2643097643097643 0.2946127946127946 0.1835016835016835 0.01282051282051282 0.08974358974358976 0.1666666666666667 0.1666666666666667 0.3205128205128205 0.2435897435897436 0.1666666666666667 0.1666666666666667 0.1666666666666667 0.1666666666666667 0.1666666666666667 0.1666666666666667 0.08333333333333333 0.08333333333333333 0.08333333333333333 0.5833333333333334 0.08333333333333333 0.08333333333333333 0.001792114695340502 0.1308243727598566 0.1523297491039426 0.1738351254480287 0.2921146953405018 0.2491039426523297 0.008333333333333333 0.1583333333333333 0.2083333333333334 0.1583333333333333 0.3083333333333333 0.1583333333333333 0.04166666666666666 0.04166666666666666 0.04166666666666666 0.04166666666666666 0.5416666666666666 0.2916666666666667 0.02380952380952381 0.1666666666666667 0.02380952380952381 0.5952380952380952 0.1666666666666667 0.02380952380952381 0.001474926253687315 0.1342182890855457 0.1784660766961652 0.2138643067846607 0.2404129793510324 0.2315634218289085 0.008333333333333331 0.1083333333333333 0.05833333333333333 0.2583333333333333 0.2083333333333333 0.3583333333333333 0.08333333333333331 0.5833333333333333 0.08333333333333331 0.08333333333333331 0.08333333333333331 0.08333333333333331 0.04166666666666667 0.04166666666666667 0.04166666666666667 0.5416666666666667 0.2916666666666667 0.04166666666666667 0.001915708812260536 0.1053639846743295 0.09386973180076627 0.3812260536398467 0.2318007662835249 0.185823754789272 0.01111111111111111 0.2111111111111111 0.2111111111111111 0.1444444444444445 0.2111111111111111 0.2111111111111111 0.08333333333333331 0.5833333333333333 0.08333333333333331 0.08333333333333331 0.08333333333333331 0.08333333333333331 0.02380952380952381 0.1666666666666667 0.02380952380952381 0.1666666666666667 0.1666666666666667 0.4523809523809523 0.1666666666666667 0.1666666666666667 0.1666666666666667 0.1666666666666667 0.1666666666666667 0.1666666666666667 0.1666666666666667 0.1666666666666667 0.1666666666666667 0.1666666666666667 0.1666666666666667 0.1666666666666667 0.1666666666666667 0.1666666666666667 0.1666666666666667 0.1666666666666667 0.1666666666666667 0.1666666666666667 0.1666666666666667 0.1666666666666667 0.1666666666666667 0.1666666666666667 0.1666666666666667 0.1666666666666667 0.0119047619047619 0.3690476190476191 0.08333333333333333 0.3690476190476191 0.08333333333333333 0.08333333333333333 0.08333333333333331 0.5833333333333333 0.08333333333333331 0.08333333333333331 0.08333333333333331 0.08333333333333331 0.1666666666666667 0.1666666666666667 0.1666666666666667 0.1666666666666667 0.1666666666666667 0.1666666666666667 0.1666666666666667 0.1666666666666667 0.1666666666666667 0.1666666666666667 0.1666666666666667 0.1666666666666667 0.01041666666666667 0.07291666666666667 0.1354166666666667 0.2604166666666667 0.3229166666666667 0.1979166666666667 0.05555555555555555 0.05555555555555555 0.05555555555555555 0.3888888888888889 0.05555555555555555 0.3888888888888889 0.08333333333333331 0.5833333333333333 0.08333333333333331 0.08333333333333331 0.08333333333333331 0.08333333333333331 0.08333333333333333 0.08333333333333333 0.5833333333333334 0.08333333333333333 0.08333333333333333 0.08333333333333333 0.01388888888888889 0.2638888888888889 0.1805555555555556 0.1805555555555556 0.09722222222222224 0.2638888888888889 0.03333333333333333 0.03333333333333333 0.2333333333333333 0.2333333333333333 0.2333333333333333 0.2333333333333333 0.1666666666666667 0.1666666666666667 0.1666666666666667 0.1666666666666667 0.1666666666666667 0.1666666666666667 0.1666666666666667 0.1666666666666667 0.1666666666666667 0.1666666666666667 0.1666666666666667 0.1666666666666667 0.01666666666666667 0.01666666666666667 0.2166666666666667 0.01666666666666667 0.4166666666666667 0.3166666666666667 0.05555555555555556 0.388888888888889 0.388888888888889 0.05555555555555556 0.05555555555555556 0.05555555555555556 0.1666666666666667 0.1666666666666667 0.1666666666666667 0.1666666666666667 0.1666666666666667 0.1666666666666667 0.1666666666666667 0.1666666666666667 0.1666666666666667 0.1666666666666667 0.1666666666666667 0.1666666666666667 0.01388888888888889 0.1805555555555556 0.1805555555555556 0.2638888888888889 0.1805555555555556 0.1805555555555556 0.08333333333333333 0.08333333333333333 0.08333333333333333 0.5833333333333334 0.08333333333333333 0.08333333333333333 0.1666666666666667 0.1666666666666667 0.1666666666666667 0.1666666666666667 0.1666666666666667 0.1666666666666667 0.08333333333333333 0.08333333333333333 0.08333333333333333 0.08333333333333333 0.5833333333333334 0.08333333333333333 0.1666666666666667 0.1666666666666667 0.1666666666666667 0.1666666666666667 0.1666666666666667 0.1666666666666667 0.1666666666666667 0.1666666666666667 0.1666666666666667 0.1666666666666667 0.1666666666666667 0.1666666666666667 0.1666666666666667 0.1666666666666667 0.1666666666666667 0.1666666666666667 0.1666666666666667 0.1666666666666667 0.1666666666666667 0.1666666666666667 0.1666666666666667 0.1666666666666667 0.1666666666666667 0.1666666666666667 0.007936507936507936 0.1031746031746032 0.1507936507936508 0.4365079365079365 0.1507936507936508 0.1507936507936508 0.0238095238095238 0.7380952380952379 0.1666666666666666 0.0238095238095238 0.0238095238095238 0.0238095238095238 0.08333333333333333 0.08333333333333333 0.5833333333333334 0.08333333333333333 0.08333333333333333 0.08333333333333333 0.05555555555555556 0.388888888888889 0.388888888888889 0.05555555555555556 0.05555555555555556 0.05555555555555556 0.009259259259259259 0.1759259259259259 0.287037037037037 0.2314814814814815 0.1759259259259259 0.1203703703703703 0.02380952380952381 0.3095238095238095 0.02380952380952381 0.3095238095238095 0.1666666666666667 0.1666666666666667 0.1666666666666667 0.1666666666666667 0.1666666666666667 0.1666666666666667 0.1666666666666667 0.1666666666666667 0.04166666666666667 0.04166666666666667 0.5416666666666667 0.04166666666666667 0.2916666666666667 0.04166666666666667 0.01041666666666667 0.3229166666666667 0.1979166666666667 0.2604166666666667 0.1979166666666667 0.01041666666666667 0.02083333333333333 0.2708333333333333 0.1458333333333333 0.2708333333333333 0.1458333333333333 0.1458333333333333 0.1666666666666667 0.1666666666666667 0.1666666666666667 0.1666666666666667 0.1666666666666667 0.1666666666666667 0.05555555555555555 0.05555555555555555 0.3888888888888889 0.3888888888888889 0.05555555555555555 0.05555555555555555 0.006172839506172839 0.08024691358024691 0.3395061728395061 0.2654320987654321 0.191358024691358 0.1172839506172839 0.01515151515151515 0.196969696969697 0.196969696969697 0.1060606060606061 0.2878787878787879 0.196969696969697 0.1666666666666667 0.1666666666666667 0.1666666666666667 0.1666666666666667 0.1666666666666667 0.1666666666666667 0.04166666666666667 0.2916666666666667 0.2916666666666667 0.04166666666666667 0.2916666666666667 0.04166666666666667 0.0119047619047619 0.1547619047619047 0.2261904761904762 0.08333333333333333 0.5119047619047619 0.0119047619047619 0.08333333333333333 0.08333333333333333 0.08333333333333333 0.08333333333333333 0.5833333333333334 0.08333333333333333 0.1666666666666667 0.1666666666666667 0.1666666666666667 0.1666666666666667 0.1666666666666667 0.1666666666666667 0.05555555555555555 0.3888888888888889 0.05555555555555555 0.3888888888888889 0.05555555555555555 0.05555555555555555 0.1666666666666667 0.1666666666666667 0.1666666666666667 0.1666666666666667 0.1666666666666667 0.1666666666666667 0.1666666666666667 0.1666666666666667 0.1666666666666667 0.1666666666666667 0.1666666666666667 0.1666666666666667 0.1666666666666667 0.1666666666666667 0.1666666666666667 0.1666666666666667 0.1666666666666667 0.1666666666666667 0.1666666666666667 0.1666666666666667 0.1666666666666667 0.1666666666666667 0.1666666666666667 0.1666666666666667 0.005952380952380952 0.1845238095238095 0.1845238095238095 0.363095238095238 0.2202380952380952 0.04166666666666666 0.01515151515151515 0.3787878787878789 0.2878787878787879 0.1060606060606061 0.196969696969697 0.01515151515151515 0.1666666666666667 0.1666666666666667 0.1666666666666667 0.1666666666666667 0.1666666666666667 0.1666666666666667 0.04166666666666667 0.5416666666666667 0.2916666666666667 0.04166666666666667 0.04166666666666667 0.04166666666666667 0.00574712643678161 0.1781609195402299 0.2126436781609196 0.3160919540229886 0.2816091954022989 0.00574712643678161 0.03333333333333333 0.2333333333333333 0.4333333333333332 0.2333333333333333 0.03333333333333333 0.03333333333333333 0.05555555555555555 0.05555555555555555 0.3888888888888889 0.05555555555555555 0.05555555555555555 0.3888888888888889 0.05555555555555555 0.05555555555555555 0.3888888888888889 0.3888888888888889 0.05555555555555555 0.05555555555555555 0.005555555555555557 0.1388888888888889 0.1722222222222223 0.3055555555555556 0.2722222222222223 0.1055555555555556 0.01515151515151515 0.2878787878787879 0.2878787878787879 0.2878787878787879 0.1060606060606061 0.01515151515151515 0.1666666666666667 0.1666666666666667 0.1666666666666667 0.1666666666666667 0.1666666666666667 0.1666666666666667 0.03333333333333333 0.2333333333333333 0.2333333333333333 0.2333333333333333 0.2333333333333333 0.03333333333333333 0.005376344086021505 0.1344086021505377 0.2634408602150538 0.2634408602150538 0.2311827956989247 0.1021505376344086 0.0119047619047619 0.1547619047619047 0.08333333333333333 0.4404761904761905 0.2976190476190476 0.0119047619047619 0.08333333333333333 0.08333333333333333 0.08333333333333333 0.08333333333333333 0.5833333333333334 0.08333333333333333 0.03333333333333333 0.2333333333333334 0.4333333333333333 0.03333333333333333 0.2333333333333334 0.03333333333333333 0.00505050505050505 0.1262626262626263 0.3080808080808081 0.1565656565656566 0.2777777777777778 0.1262626262626263 0.01851851851851852 0.2407407407407407 0.1296296296296296 0.3518518518518518 0.01851851851851852 0.2407407407407407 0.1666666666666667 0.1666666666666667 0.1666666666666667 0.1666666666666667 0.1666666666666667 0.1666666666666667 0.08333333333333333 0.08333333333333333 0.5833333333333334 0.08333333333333333 0.08333333333333333 0.08333333333333333 0.1666666666666667 0.1666666666666667 0.1666666666666667 0.1666666666666667 0.1666666666666667 0.1666666666666667 0.1666666666666667 0.1666666666666667 0.1666666666666667 0.1666666666666667 0.1666666666666667 0.1666666666666667 0.1666666666666667 0.1666666666666667 0.1666666666666667 0.1666666666666667 0.1666666666666667 0.1666666666666667 0.1666666666666667 0.1666666666666667 0.1666666666666667 0.1666666666666667 0.1666666666666667 0.1666666666666667 0.008333333333333333 0.2083333333333334 0.3083333333333333 0.1583333333333333 0.3083333333333333 0.008333333333333333 0.01388888888888889 0.1805555555555556 0.1805555555555556 0.1805555555555556 0.4305555555555556 0.01388888888888889 0.1666666666666667 0.1666666666666667 0.1666666666666667 0.1666666666666667 0.1666666666666667 0.1666666666666667 0.08333333333333331 0.5833333333333333 0.08333333333333331 0.08333333333333331 0.08333333333333331 0.08333333333333331 0.007936507936507934 0.3888888888888888 0.3888888888888888 0.1031746031746031 0.1031746031746031 0.007936507936507934 0.02777777777777778 0.3611111111111111 0.02777777777777778 0.1944444444444445 0.3611111111111111 0.02777777777777778 0.1666666666666667 0.1666666666666667 0.1666666666666667 0.1666666666666667 0.1666666666666667 0.1666666666666667 0.04166666666666666 0.04166666666666666 0.04166666666666666 0.04166666666666666 0.5416666666666666 0.2916666666666667 0.005208333333333334 0.1614583333333334 0.1614583333333334 0.2552083333333334 0.3177083333333334 0.09895833333333336 0.02083333333333333 0.2708333333333333 0.1458333333333333 0.2708333333333333 0.1458333333333333 0.1458333333333333 0.1666666666666667 0.1666666666666667 0.1666666666666667 0.1666666666666667 0.1666666666666667 0.1666666666666667 0.02777777777777777 0.02777777777777777 0.1944444444444444 0.1944444444444444 0.361111111111111 0.1944444444444444 0.006944444444444442 0.1319444444444444 0.3819444444444443 0.1736111111111111 0.2569444444444444 0.0486111111111111 0.05555555555555556 0.388888888888889 0.388888888888889 0.05555555555555556 0.05555555555555556 0.05555555555555556 0.1666666666666667 0.1666666666666667 0.1666666666666667 0.1666666666666667 0.1666666666666667 0.1666666666666667 0.02083333333333333 0.02083333333333333 0.02083333333333333 0.2708333333333333 0.5208333333333334 0.1458333333333333 0.009259259259259259 0.287037037037037 0.4537037037037037 0.06481481481481481 0.1203703703703703 0.06481481481481481 0.01282051282051282 0.3205128205128205 0.2435897435897436 0.1666666666666667 0.2435897435897436 0.01282051282051282 0.1666666666666667 0.1666666666666667 0.1666666666666667 0.1666666666666667 0.1666666666666667 0.1666666666666667 0.04166666666666667 0.5416666666666667 0.04166666666666667 0.2916666666666667 0.04166666666666667 0.04166666666666667 0.1666666666666667 0.1666666666666667 0.1666666666666667 0.1666666666666667 0.1666666666666667 0.1666666666666667 0.1666666666666667 0.1666666666666667 0.1666666666666667 0.1666666666666667 0.1666666666666667 0.1666666666666667 0.1666666666666667 0.1666666666666667 0.1666666666666667 0.1666666666666667 0.1666666666666667 0.1666666666666667 0.1666666666666667 0.1666666666666667 0.1666666666666667 0.1666666666666667 0.1666666666666667 0.1666666666666667 0.01041666666666667 0.1354166666666667 0.3854166666666668 0.07291666666666669 0.2604166666666667 0.1354166666666667 0.1666666666666667 0.1666666666666667 0.1666666666666667 0.1666666666666667 0.1666666666666667 0.1666666666666667 0.1666666666666667 0.1666666666666667 0.1666666666666667 0.1666666666666667 0.1666666666666667 0.1666666666666667 0.04166666666666666 0.04166666666666666 0.2916666666666667 0.2916666666666667 0.04166666666666666 0.2916666666666667 0.01190476190476191 0.1547619047619048 0.2261904761904762 0.2261904761904762 0.2261904761904762 0.1547619047619048 0.04166666666666666 0.2916666666666667 0.04166666666666666 0.2916666666666667 0.04166666666666666 0.2916666666666667 0.1666666666666667 0.1666666666666667 0.1666666666666667 0.1666666666666667 0.1666666666666667 0.1666666666666667 0.05555555555555556 0.05555555555555556 0.05555555555555556 0.05555555555555556 0.7222222222222222 0.05555555555555556 0.0119047619047619 0.2976190476190476 0.08333333333333333 0.2261904761904762 0.1547619047619047 0.2261904761904762 0.02380952380952381 0.3095238095238095 0.02380952380952381 0.02380952380952381 0.1666666666666667 0.4523809523809523 0.1666666666666667 0.1666666666666667 0.1666666666666667 0.1666666666666667 0.1666666666666667 0.1666666666666667 0.1666666666666667 0.1666666666666667 0.1666666666666667 0.1666666666666667 0.1666666666666667 0.1666666666666667 0.007575757575757574 0.1893939393939394 0.1893939393939394 0.1893939393939394 0.2348484848484848 0.1893939393939394 0.01851851851851852 0.3518518518518518 0.3518518518518518 0.1296296296296296 0.1296296296296296 0.01851851851851852 0.1666666666666667 0.1666666666666667 0.1666666666666667 0.1666666666666667 0.1666666666666667 0.1666666666666667 0.04166666666666667 0.04166666666666667 0.04166666666666667 0.04166666666666667 0.7916666666666669 0.04166666666666667 0.007936507936507936 0.1031746031746032 0.4365079365079365 0.1507936507936508 0.1507936507936508 0.1507936507936508 0.04166666666666666 0.04166666666666666 0.2916666666666667 0.2916666666666667 0.04166666666666666 0.2916666666666667 0.1666666666666667 0.1666666666666667 0.1666666666666667 0.1666666666666667 0.1666666666666667 0.1666666666666667 0.08333333333333333 0.08333333333333333 0.08333333333333333 0.5833333333333334 0.08333333333333333 0.08333333333333333 0.1666666666666667 0.1666666666666667 0.1666666666666667 0.1666666666666667 0.1666666666666667 0.1666666666666667 0.1666666666666667 0.1666666666666667 0.1666666666666667 0.1666666666666667 0.1666666666666667 0.1666666666666667 0.1666666666666667 0.1666666666666667 0.1666666666666667 0.1666666666666667 0.1666666666666667 0.1666666666666667 0.1666666666666667 0.1666666666666667 0.1666666666666667 0.1666666666666667 0.1666666666666667 0.1666666666666667 0.02380952380952381 0.1666666666666667 0.1666666666666667 0.3095238095238095 0.3095238095238095 0.02380952380952381 0.1666666666666667 0.1666666666666667 0.1666666666666667 0.1666666666666667 0.1666666666666667 0.1666666666666667 0.1666666666666667 0.1666666666666667 0.1666666666666667 0.1666666666666667 0.1666666666666667 0.1666666666666667 0.1666666666666667 0.1666666666666667 0.1666666666666667 0.1666666666666667 0.1666666666666667 0.1666666666666667 0.04166666666666667 0.04166666666666667 0.04166666666666667 0.5416666666666667 0.2916666666666667 0.04166666666666667 0.08333333333333333 0.08333333333333333 0.5833333333333334 0.08333333333333333 0.08333333333333333 0.08333333333333333 0.08333333333333333 0.08333333333333333 0.08333333333333333 0.08333333333333333 0.5833333333333334 0.08333333333333333 0.08333333333333333 0.08333333333333333 0.08333333333333333 0.08333333333333333 0.08333333333333333 0.5833333333333334 0.03333333333333333 0.2333333333333333 0.03333333333333333 0.2333333333333333 0.2333333333333333 0.2333333333333333 0.1666666666666667 0.1666666666666667 0.1666666666666667 0.1666666666666667 0.1666666666666667 0.1666666666666667 0.1666666666666667 0.1666666666666667 0.1666666666666667 0.1666666666666667 0.1666666666666667 0.1666666666666667 0.1666666666666667 0.1666666666666667 0.1666666666666667 0.1666666666666667 0.1666666666666667 0.1666666666666667 0.02083333333333333 0.2708333333333333 0.2708333333333333 0.2708333333333333 0.02083333333333333 0.1458333333333333 0.08333333333333333 0.08333333333333333 0.08333333333333333 0.08333333333333333 0.5833333333333334 0.08333333333333333 0.1666666666666667 0.1666666666666667 0.1666666666666667 0.1666666666666667 0.1666666666666667 0.1666666666666667 0.1666666666666667 0.1666666666666667 0.1666666666666667 0.1666666666666667 0.1666666666666667 0.1666666666666667 0.02777777777777778 0.1944444444444444 0.1944444444444444 0.1944444444444444 0.02777777777777778 0.361111111111111 0.08333333333333333 0.08333333333333333 0.08333333333333333 0.5833333333333334 0.08333333333333333 0.08333333333333333 0.1666666666666667 0.1666666666666667 0.1666666666666667 0.1666666666666667 0.1666666666666667 0.1666666666666667 0.1666666666666667 0.1666666666666667 0.1666666666666667 0.1666666666666667 0.1666666666666667 0.1666666666666667 0.1666666666666667 0.1666666666666667 0.1666666666666667 0.1666666666666667 0.1666666666666667 0.1666666666666667 0.1666666666666667 0.1666666666666667 0.1666666666666667 0.1666666666666667 0.1666666666666667 0.1666666666666667 0.1666666666666667 0.1666666666666667 0.1666666666666667 0.1666666666666667 0.1666666666666667 0.1666666666666667 0.1666666666666667 0.1666666666666667 0.1666666666666667 0.1666666666666667 0.1666666666666667 0.1666666666666667 0.002057613168724279 0.9032921810699586 0.002057613168724279 0.02674897119341563 0.0390946502057613 0.02674897119341563 0.007575757575757573 0.9166666666666665 0.007575757575757573 0.007575757575757573 0.007575757575757573 0.05303030303030302 0.1666666666666667 0.1666666666666667 0.1666666666666667 0.1666666666666667 0.1666666666666667 0.1666666666666667 0.01851851851851851 0.4629629629629629 0.1296296296296296 0.1296296296296296 0.1296296296296296 0.1296296296296296 0.001831501831501831 0.01282051282051282 0.9249084249084248 0.0238095238095238 0.0238095238095238 0.01282051282051282 0.009803921568627447 0.009803921568627447 0.8921568627450978 0.06862745098039215 0.009803921568627447 0.009803921568627447 0.1666666666666667 0.1666666666666667 0.1666666666666667 0.1666666666666667 0.1666666666666667 0.1666666666666667 0.02777777777777777 0.02777777777777777 0.8611111111111109 0.02777777777777777 0.02777777777777777 0.02777777777777777 0.001557632398753894 0.02024922118380062 0.01090342679127726 0.8800623052959501 0.04828660436137071 0.03894080996884735 0.007936507936507934 0.007936507936507934 0.05555555555555555 0.7698412698412698 0.1031746031746031 0.05555555555555555 0.05555555555555555 0.05555555555555555 0.05555555555555555 0.3888888888888889 0.05555555555555555 0.3888888888888889 0.01515151515151515 0.01515151515151515 0.2878787878787879 0.5606060606060607 0.01515151515151515 0.1060606060606061 0.001633986928104575 0.02124183006535947 0.02124183006535947 0.03104575163398692 0.90359477124183 0.02124183006535947 0.005555555555555554 0.03888888888888888 0.005555555555555554 0.03888888888888888 0.8722222222222221 0.03888888888888888 0.04166666666666666 0.2916666666666666 0.04166666666666666 0.2916666666666666 0.2916666666666666 0.04166666666666666 0.01851851851851852 0.01851851851851852 0.01851851851851852 0.01851851851851852 0.5740740740740741 0.3518518518518518 0.001449275362318841 0.05362318840579711 0.01014492753623189 0.02753623188405797 0.01014492753623189 0.8971014492753624 0.007246376811594202 0.007246376811594202 0.007246376811594202 0.09420289855072463 0.007246376811594202 0.8768115942028986 0.08333333333333333 0.08333333333333333 0.08333333333333333 0.08333333333333333 0.5833333333333334 0.08333333333333333 0.009259259259259259 0.06481481481481481 0.009259259259259259 0.1759259259259259 0.06481481481481481 0.6759259259259258 0.1666666666666667 0.1666666666666667 0.1666666666666667 0.1666666666666667 0.1666666666666667 0.1666666666666667 0.1666666666666667 0.1666666666666667 0.1666666666666667 0.1666666666666667 0.1666666666666667 0.1666666666666667 0.1666666666666667 0.1666666666666667 0.1666666666666667 0.1666666666666667 0.1666666666666667 0.1666666666666667 0.1666666666666667 0.1666666666666667 0.1666666666666667 0.1666666666666667 0.1666666666666667 0.1666666666666667 0.0009861932938856016 0.7110453648915188 0.07790927021696253 0.101577909270217 0.101577909270217 0.006903353057199212 0.003205128205128206 0.7916666666666669 0.09935897435897439 0.04166666666666667 0.06089743589743591 0.003205128205128206 0.02777777777777778 0.1944444444444444 0.02777777777777778 0.02777777777777778 0.1944444444444444 0.5277777777777777 0.00595238095238095 0.6488095238095237 0.07738095238095236 0.07738095238095236 0.1130952380952381 0.07738095238095236 0.0003770739064856712 0.03205128205128205 0.7944947209653092 0.08182503770739064 0.05920060331825037 0.03205128205128205 0.001474926253687315 0.08112094395280234 0.7536873156342182 0.08112094395280234 0.05457227138643067 0.02802359882005899 0.03333333333333333 0.2333333333333334 0.03333333333333333 0.2333333333333334 0.03333333333333333 0.4333333333333333 0.004166666666666667 0.05416666666666668 0.6541666666666668 0.1041666666666667 0.1041666666666667 0.07916666666666668 0.0003174603174603175 0.04031746031746032 0.06698412698412698 0.7755555555555556 0.07841269841269841 0.03841269841269841 0.001207729468599034 0.07367149758454106 0.05193236714975846 0.7620772946859904 0.07367149758454106 0.03743961352657005 0.01851851851851852 0.1296296296296296 0.01851851851851852 0.1296296296296296 0.5740740740740741 0.1296296296296296 0.003205128205128205 0.08012820512820513 0.0608974358974359 0.6378205128205128 0.09935897435897437 0.1185897435897436 0.0001129177958446251 0.01434056007226739 0.02043812104787714 0.06176603432700993 0.8537714543812104 0.04957091237579042 0.0005847953216374269 0.02514619883040936 0.01461988304093567 0.05672514619883041 0.8672514619883041 0.03567251461988304 0.01515151515151515 0.1060606060606061 0.2878787878787879 0.3787878787878788 0.1060606060606061 0.1060606060606061 0.001388888888888889 0.02638888888888888 0.07638888888888887 0.1347222222222222 0.7097222222222221 0.05138888888888888 0.0001344086021505376 0.009005376344086021 0.02190860215053763 0.04045698924731182 0.04771505376344086 0.8807795698924732 0.0007092198581560283 0.009219858156028368 0.01347517730496454 0.06028368794326241 0.03049645390070922 0.8858156028368794 0.01666666666666667 0.01666666666666667 0.01666666666666667 0.2166666666666667 0.3166666666666667 0.4166666666666667 0.001937984496124031 0.0251937984496124 0.04844961240310078 0.09496124031007751 0.1298449612403101 0.6996124031007751 0.1666666666666667 0.1666666666666667 0.1666666666666667 0.1666666666666667 0.1666666666666667 0.1666666666666667 0.1666666666666667 0.1666666666666667 0.1666666666666667 0.1666666666666667 0.1666666666666667 0.1666666666666667 0.1666666666666667 0.1666666666666667 0.1666666666666667 0.1666666666666667 0.1666666666666667 0.1666666666666667 0.1666666666666667 0.1666666666666667 0.1666666666666667 0.1666666666666667 0.1666666666666667 0.1666666666666667 0.0009107468123861569 0.7823315118397087 0.07741347905282334 0.06102003642987251 0.07194899817850639 0.006375227686703099 0.003333333333333334 0.6633333333333336 0.1033333333333334 0.1433333333333334 0.08333333333333337 0.003333333333333334 0.03333333333333333 0.4333333333333332 0.4333333333333332 0.03333333333333333 0.03333333333333333 0.03333333333333333 0.005747126436781607 0.5229885057471263 0.0747126436781609 0.2126436781609195 0.0747126436781609 0.1091954022988506 0.0004084967320261437 0.04452614379084967 0.804330065359477 0.07148692810457516 0.06413398692810457 0.01511437908496732 0.001501501501501501 0.07357357357357355 0.7492492492492492 0.06456456456456455 0.07357357357357355 0.03753753753753753 0.04166666666666667 0.2916666666666667 0.5416666666666667 0.04166666666666667 0.04166666666666667 0.04166666666666667 0.003546099290780142 0.0673758865248227 0.5567375886524824 0.1312056737588653 0.1312056737588653 0.1099290780141844 0.0003115264797507788 0.04330218068535826 0.04143302180685358 0.8246105919003116 0.06386292834890965 0.0264797507788162 0.001302083333333333 0.07161458333333333 0.03255208333333334 0.7747395833333334 0.08723958333333333 0.03255208333333334 0.02083333333333333 0.1458333333333333 0.02083333333333333 0.2708333333333333 0.1458333333333333 0.3958333333333333 0.003205128205128205 0.2147435897435898 0.0608974358974359 0.6185897435897436 0.0608974358974359 0.04166666666666666 0.0001123090745732255 0.02369721473495058 0.0162848158131177 0.05738993710691823 0.8478212039532794 0.05469451931716082 0.0006195786864931845 0.01177199504337051 0.02292441140024783 0.06381660470879802 0.8444857496902106 0.05638166047087979 0.03333333333333333 0.03333333333333333 0.4333333333333333 0.2333333333333334 0.03333333333333333 0.2333333333333334 0.001557632398753894 0.02959501557632398 0.06697819314641744 0.1043613707165109 0.721183800623053 0.0763239875389408 0.0001323801959226899 0.01760656605771777 0.01998940958432618 0.06208631188774159 0.04778925072809107 0.8523960815462007 0.0007788161993769469 0.005451713395638629 0.03348909657320872 0.06152647975077881 0.05685358255451713 0.8419003115264796 0.03333333333333333 0.03333333333333333 0.03333333333333333 0.4333333333333333 0.2333333333333334 0.2333333333333334 0.001893939393939394 0.01325757575757576 0.08143939393939395 0.0928030303030303 0.08143939393939395 0.7291666666666667 0.5833333333333333 0.08333333333333331 0.08333333333333331 0.08333333333333331 0.08333333333333331 0.08333333333333331 0.08333333333333333 0.08333333333333333 0.5833333333333334 0.08333333333333333 0.08333333333333333 0.08333333333333333 0.1666666666666667 0.1666666666666667 0.1666666666666667 0.1666666666666667 0.1666666666666667 0.1666666666666667 0.1666666666666667 0.1666666666666667 0.1666666666666667 0.1666666666666667 0.1666666666666667 0.1666666666666667 0.0009310986964618253 0.7607076350093112 0.04562383612662944 0.07914338919925515 0.101489757914339 0.01210428305400373 0.002824858757062147 0.6468926553672317 0.172316384180791 0.1045197740112995 0.07062146892655369 0.002824858757062147 0.03333333333333333 0.03333333333333333 0.2333333333333333 0.2333333333333333 0.2333333333333333 0.2333333333333333 0.008333333333333331 0.4583333333333332 0.2583333333333333 0.1083333333333333 0.1583333333333333 0.008333333333333331 0.0003639010189228529 0.0549490538573508 0.7383551673944687 0.08333333333333333 0.07896652110625908 0.04403202328966521 0.001618122977346278 0.04045307443365696 0.7783171521035599 0.06957928802588996 0.08899676375404529 0.02103559870550161 0.04166666666666666 0.04166666666666666 0.2916666666666666 0.2916666666666666 0.2916666666666666 0.04166666666666666 0.004273504273504274 0.1324786324786325 0.6196581196581198 0.08119658119658121 0.1581196581196582 0.004273504273504274 0.0003138731952291274 0.07564344005021971 0.0549278091650973 0.7780916509730069 0.04927809165097301 0.04174513496547395 0.00121654501216545 0.05231143552311435 0.07420924574209245 0.767639902676399 0.08150851581508516 0.02311435523114355 0.01388888888888889 0.01388888888888889 0.1805555555555556 0.1805555555555556 0.4305555555555556 0.1805555555555556 0.002777777777777778 0.1194444444444445 0.06944444444444446 0.6027777777777779 0.1361111111111111 0.06944444444444446 0.0001154201292705448 0.01465835641735919 0.02158356417359187 0.05897968605724838 0.844298245614035 0.06036472760849491 0.0006060606060606061 0.01151515151515151 0.01878787878787879 0.05878787878787879 0.8696969696969696 0.0406060606060606 0.01388888888888889 0.09722222222222224 0.1805555555555556 0.1805555555555556 0.3472222222222223 0.1805555555555556 0.00175438596491228 0.0543859649122807 0.1385964912280701 0.04385964912280702 0.7280701754385964 0.03333333333333333 0.0001333333333333333 0.02093333333333334 0.01213333333333333 0.05293333333333334 0.05613333333333334 0.8577333333333335 0.0006858710562414267 0.01303155006858711 0.02949245541838135 0.03360768175582991 0.02949245541838135 0.8936899862825789 0.01282051282051282 0.01282051282051282 0.2435897435897436 0.4743589743589744 0.08974358974358976 0.1666666666666667 0.002415458937198068 0.04589371980676328 0.08937198067632851 0.0603864734299517 0.1038647342995169 0.6980676328502415 0.5833333333333333 0.08333333333333331 0.08333333333333331 0.08333333333333331 0.08333333333333331 0.08333333333333331 0.1666666666666667 0.1666666666666667 0.1666666666666667 0.1666666666666667 0.1666666666666667 0.1666666666666667 0.1666666666666667 0.1666666666666667 0.1666666666666667 0.1666666666666667 0.1666666666666667 0.1666666666666667 0.1666666666666667 0.1666666666666667 0.1666666666666667 0.1666666666666667 0.1666666666666667 0.1666666666666667 0.0007645259938837922 0.7668195718654436 0.05122324159021407 0.06498470948012233 0.09709480122324161 0.01911314984709481 0.002645502645502646 0.6693121693121694 0.1137566137566138 0.0343915343915344 0.1613756613756614 0.01851851851851852 0.01666666666666667 0.01666666666666667 0.3166666666666667 0.1166666666666667 0.2166666666666667 0.3166666666666667 0.005555555555555554 0.6055555555555555 0.1055555555555555 0.1388888888888889 0.0722222222222222 0.0722222222222222 0.0003320053120849933 0.03419654714475432 0.7672642762284196 0.09196547144754315 0.08399734395750331 0.02224435590969455 0.001149425287356322 0.06321839080459769 0.725287356321839 0.08390804597701149 0.1045977011494253 0.02183908045977011 0.02083333333333333 0.2708333333333333 0.02083333333333333 0.2708333333333333 0.1458333333333333 0.2708333333333333 0.004629629629629629 0.1157407407407407 0.6712962962962963 0.06018518518518517 0.1157407407407407 0.03240740740740741 0.0002810567734682405 0.04581225407532322 0.04412591343451377 0.801292861157954 0.06773468240584597 0.04075323215289488 0.001082251082251082 0.07251082251082251 0.05952380952380952 0.760822510822511 0.07251082251082251 0.03354978354978355 0.01388888888888889 0.01388888888888889 0.2638888888888888 0.09722222222222222 0.01388888888888889 0.5972222222222222 0.00308641975308642 0.1697530864197531 0.2623456790123457 0.3734567901234568 0.09567901234567901 0.09567901234567901 0.0001045587620242576 0.0226892513592639 0.02017984107068172 0.05468423253868674 0.8464031785863655 0.05593893768297784 0.0005065856129685916 0.02178318135764944 0.02178318135764944 0.0673758865248227 0.8302938196555217 0.05825734549138804 0.01111111111111111 0.1444444444444445 0.2111111111111111 0.2111111111111111 0.2777777777777778 0.1444444444444445 0.001872659176029962 0.05805243445692884 0.06928838951310862 0.06928838951310862 0.6535580524344569 0.147940074906367 0.0001263583522870862 0.01301491028556988 0.01604751074045994 0.05774576699519839 0.05319686631286329 0.8598685873136215 0.0007183908045977011 0.01795977011494253 0.005028735632183908 0.04813218390804597 0.05244252873563218 0.8757183908045977 0.01515151515151515 0.1060606060606061 0.196969696969697 0.196969696969697 0.3787878787878789 0.1060606060606061 0.001937984496124031 0.01356589147286822 0.07170542635658915 0.08333333333333333 0.1182170542635659 0.7112403100775193 0.5833333333333333 0.08333333333333331 0.08333333333333331 0.08333333333333331 0.08333333333333331 0.08333333333333331 0.08333333333333333 0.08333333333333333 0.5833333333333334 0.08333333333333333 0.08333333333333333 0.08333333333333333 0.1666666666666667 0.1666666666666667 0.1666666666666667 0.1666666666666667 0.1666666666666667 0.1666666666666667 0.1666666666666667 0.1666666666666667 0.1666666666666667 0.1666666666666667 0.1666666666666667 0.1666666666666667 0.0006640106241699868 0.7297476759628155 0.04847277556440904 0.100265604249668 0.08432934926958834 0.03652058432934927 0.002347417840375587 0.6784037558685446 0.01643192488262911 0.1291079812206573 0.1291079812206573 0.04460093896713615 0.05555555555555555 0.05555555555555555 0.05555555555555555 0.3888888888888889 0.3888888888888889 0.05555555555555555 0.007936507936507936 0.5793650793650793 0.007936507936507936 0.1984126984126984 0.1031746031746032 0.1031746031746032 0.0003654970760233918 0.05738304093567251 0.7591374269005848 0.08589181286549706 0.07711988304093566 0.02010233918128655 0.001207729468599034 0.04468599033816426 0.6896135265700484 0.07367149758454106 0.1171497584541063 0.07367149758454106 0.03333333333333333 0.2333333333333334 0.03333333333333333 0.03333333333333333 0.2333333333333334 0.4333333333333333 0.003703703703703704 0.1592592592592593 0.5814814814814816 0.09259259259259262 0.1148148148148148 0.04814814814814816 0.0002820078962210942 0.05104342921601805 0.05273547659334461 0.7718556119571348 0.07980823463056964 0.04427523970671179 0.001141552511415525 0.03538812785388128 0.09018264840182648 0.7751141552511416 0.07648401826484018 0.02168949771689498 0.01282051282051282 0.1666666666666667 0.4743589743589744 0.08974358974358976 0.1666666666666667 0.08974358974358976 0.002525252525252525 0.09343434343434344 0.09343434343434344 0.654040404040404 0.09343434343434344 0.06313131313131314 0.0001094331363536879 0.01980739768001751 0.01915079886189538 0.05789012913110089 0.847121908513898 0.05592033267673451 0.0005274261603375526 0.01951476793248945 0.02900843881856539 0.05116033755274261 0.8581223628691983 0.04166666666666666 0.01388888888888889 0.1805555555555555 0.09722222222222222 0.01388888888888889 0.2638888888888888 0.4305555555555556 0.001602564102564102 0.04006410256410256 0.1169871794871795 0.1073717948717949 0.6266025641025641 0.1073717948717949 0.0001306165099268547 0.01737199582027168 0.01893939393939394 0.05028735632183908 0.05420585161964472 0.8590647857889238 0.0006385696040868454 0.01596424010217114 0.01979565772669221 0.03895274584929757 0.05044699872286078 0.8742017879948913 0.02083333333333333 0.02083333333333333 0.02083333333333333 0.3958333333333333 0.3958333333333333 0.1458333333333333 0.001872659176029962 0.04681647940074907 0.08052434456928839 0.1029962546816479 0.08052434456928839 0.6872659176029962 0.1666666666666667 0.1666666666666667 0.1666666666666667 0.1666666666666667 0.1666666666666667 0.1666666666666667 0.1666666666666667 0.1666666666666667 0.1666666666666667 0.1666666666666667 0.1666666666666667 0.1666666666666667 0.1666666666666667 0.1666666666666667 0.1666666666666667 0.1666666666666667 0.1666666666666667 0.1666666666666667 0.1666666666666667 0.1666666666666667 0.1666666666666667 0.1666666666666667 0.1666666666666667 0.1666666666666667 0.002136752136752137 0.5149572649572649 0.01495726495726496 0.1688034188034188 0.1688034188034188 0.1303418803418803 0.009259259259259259 0.287037037037037 0.06481481481481481 0.1759259259259259 0.1203703703703703 0.3425925925925926 0.1666666666666667 0.1666666666666667 0.1666666666666667 0.1666666666666667 0.1666666666666667 0.1666666666666667 0.08333333333333333 0.08333333333333333 0.08333333333333333 0.08333333333333333 0.08333333333333333 0.5833333333333334 0.002314814814814815 0.03009259259259259 0.474537037037037 0.1828703703703703 0.1689814814814815 0.1412037037037037 0.008771929824561403 0.06140350877192983 0.4824561403508771 0.06140350877192983 0.1140350877192982 0.2719298245614035 0.1666666666666667 0.1666666666666667 0.1666666666666667 0.1666666666666667 0.1666666666666667 0.1666666666666667 0.03333333333333333 0.03333333333333333 0.4333333333333333 0.03333333333333333 0.2333333333333334 0.2333333333333334 0.002109704641350211 0.05274261603375528 0.07805907172995781 0.5210970464135021 0.2046413502109705 0.1413502109704641 0.01282051282051282 0.01282051282051282 0.01282051282051282 0.4743589743589744 0.08974358974358976 0.3974358974358975 0.1666666666666667 0.1666666666666667 0.1666666666666667 0.1666666666666667 0.1666666666666667 0.1666666666666667 0.01666666666666667 0.2166666666666667 0.2166666666666667 0.3166666666666667 0.1166666666666667 0.1166666666666667 0.001893939393939394 0.03598484848484849 0.04734848484848486 0.1496212121212121 0.615530303030303 0.1496212121212121 0.01041666666666667 0.01041666666666667 0.01041666666666667 0.07291666666666669 0.8229166666666669 0.07291666666666669 0.05555555555555555 0.05555555555555555 0.05555555555555555 0.05555555555555555 0.3888888888888889 0.3888888888888889 0.05555555555555555 0.05555555555555555 0.3888888888888889 0.05555555555555555 0.05555555555555555 0.3888888888888889 0.001754385964912281 0.04385964912280702 0.02280701754385965 0.2017543859649123 0.1070175438596491 0.6228070175438596 0.006944444444444444 0.09027777777777776 0.006944444444444444 0.09027777777777776 0.2569444444444444 0.548611111111111 0.1666666666666667 0.1666666666666667 0.1666666666666667 0.1666666666666667 0.1666666666666667 0.1666666666666667 0.02777777777777778 0.02777777777777778 0.02777777777777778 0.1944444444444444 0.1944444444444444 0.5277777777777777 0.1666666666666667 0.1666666666666667 0.1666666666666667 0.1666666666666667 0.1666666666666667 0.1666666666666667 0.1666666666666667 0.1666666666666667 0.1666666666666667 0.1666666666666667 0.1666666666666667 0.1666666666666667 0.1666666666666667 0.1666666666666667 0.1666666666666667 0.1666666666666667 0.1666666666666667 0.1666666666666667 0.1666666666666667 0.1666666666666667 0.1666666666666667 0.1666666666666667 0.1666666666666667 0.1666666666666667 0.0006337135614702154 0.6166032953105196 0.114702154626109 0.1299112801013942 0.1299112801013942 0.0082382762991128 0.002873563218390805 0.5201149425287358 0.1752873563218391 0.1235632183908046 0.1408045977011494 0.03735632183908046 0.02380952380952381 0.02380952380952381 0.4523809523809523 0.02380952380952381 0.02380952380952381 0.4523809523809523 0.004273504273504273 0.4145299145299146 0.235042735042735 0.1581196581196581 0.1581196581196581 0.02991452991452992 0.0004409171075837741 0.1168430335097001 0.5983245149911816 0.1459435626102292 0.1300705467372134 0.008377425044091709 0.00181159420289855 0.1105072463768116 0.664855072463768 0.09963768115942026 0.1213768115942029 0.00181159420289855 0.02777777777777778 0.5277777777777778 0.02777777777777778 0.02777777777777778 0.02777777777777778 0.3611111111111111 0.003875968992248062 0.1666666666666667 0.5852713178294575 0.189922480620155 0.05038759689922481 0.003875968992248062 0.0004262574595055413 0.1513213981244672 0.1001705029838022 0.6167945439045184 0.1155157715260017 0.01577152600170503 0.001515151515151515 0.1106060606060606 0.1106060606060606 0.6378787878787879 0.1287878787878788 0.01060606060606061 0.01666666666666667 0.2166666666666667 0.3166666666666667 0.01666666666666667 0.3166666666666667 0.1166666666666667 0.004504504504504504 0.08558558558558559 0.1666666666666667 0.5180180180180181 0.1936936936936937 0.03153153153153154 0.0003599712023038156 0.1105111591072714 0.1040316774658027 0.09107271418286535 0.6526277897768178 0.0413966882649388 0.00154320987654321 0.08487654320987653 0.1959876543209877 0.1496913580246914 0.5478395061728395 0.02006172839506173 0.04166666666666667 0.7916666666666669 0.04166666666666667 0.04166666666666667 0.04166666666666667 0.04166666666666667 0.004166666666666667 0.004166666666666667 0.02916666666666667 0.2041666666666667 0.7041666666666667 0.05416666666666667 0.0004492362982929021 0.1028751123090746 0.1298292902066487 0.1271338724168913 0.1082659478885894 0.5314465408805031 0.002192982456140351 0.09429824561403509 0.1864035087719298 0.08114035087719298 0.1074561403508772 0.5285087719298245 0.05555555555555555 0.05555555555555555 0.05555555555555555 0.05555555555555555 0.3888888888888889 0.3888888888888889 0.006172839506172839 0.154320987654321 0.04320987654320987 0.04320987654320987 0.08024691358024691 0.6728395061728395 0.1666666666666667 0.1666666666666667 0.1666666666666667 0.1666666666666667 0.1666666666666667 0.1666666666666667 0.1666666666666667 0.1666666666666667 0.1666666666666667 0.1666666666666667 0.1666666666666667 0.1666666666666667 0.1666666666666667 0.1666666666666667 0.1666666666666667 0.1666666666666667 0.1666666666666667 0.1666666666666667 0.1666666666666667 0.1666666666666667 0.1666666666666667 0.1666666666666667 0.1666666666666667 0.1666666666666667 0.00055005500550055 0.6408140814081408 0.1358635863586359 0.1391639163916392 0.07645764576457646 0.00715071507150715 0.002222222222222222 0.5622222222222222 0.1355555555555556 0.1755555555555555 0.1222222222222222 0.002222222222222222 0.02380952380952381 0.1666666666666667 0.1666666666666667 0.02380952380952381 0.3095238095238095 0.3095238095238095 0.006666666666666665 0.5266666666666666 0.1266666666666666 0.1266666666666666 0.08666666666666664 0.1266666666666666 0.0003875968992248061 0.1236434108527131 0.6259689922480619 0.1306201550387596 0.1143410852713178 0.00503875968992248 0.001587301587301587 0.1063492063492063 0.6492063492063492 0.09682539682539681 0.1253968253968254 0.02063492063492063 0.01515151515151515 0.1060606060606061 0.3787878787878788 0.1060606060606061 0.1060606060606061 0.2878787878787879 0.004065040650406504 0.1260162601626016 0.5162601626016261 0.1504065040650407 0.1260162601626016 0.07723577235772358 0.000395882818685669 0.1096595407759303 0.1405384006334125 0.5894695170229612 0.1429136975455265 0.01702296120348377 0.001811594202898551 0.1757246376811594 0.1322463768115942 0.556159420289855 0.1105072463768116 0.02355072463768116 0.05555555555555556 0.05555555555555556 0.05555555555555556 0.7222222222222222 0.05555555555555556 0.05555555555555556 0.003875968992248062 0.1434108527131783 0.2131782945736434 0.4922480620155039 0.07364341085271317 0.07364341085271317 0.0003333333333333333 0.1223333333333333 0.1143333333333333 0.1283333333333333 0.6123333333333333 0.02233333333333333 0.001618122977346278 0.1181229773462783 0.1084142394822006 0.1375404530744336 0.6035598705501617 0.03074433656957928 0.01666666666666667 0.1166666666666667 0.2166666666666667 0.4166666666666667 0.1166666666666667 0.1166666666666667 0.003623188405797101 0.06884057971014493 0.1557971014492754 0.1340579710144928 0.5253623188405797 0.1123188405797101 0.0003762227238525206 0.1200150489089541 0.1448457486832205 0.1380737396538751 0.1019563581640331 0.4947328818660646 0.002136752136752137 0.1175213675213675 0.1175213675213675 0.1944444444444444 0.1303418803418803 0.438034188034188 0.04166666666666667 0.2916666666666667 0.2916666666666667 0.04166666666666667 0.2916666666666667 0.04166666666666667 0.004166666666666667 0.1541666666666667 0.1291666666666667 0.1041666666666667 0.1291666666666667 0.4791666666666667 0.1666666666666667 0.1666666666666667 0.1666666666666667 0.1666666666666667 0.1666666666666667 0.1666666666666667 0.1666666666666667 0.1666666666666667 0.1666666666666667 0.1666666666666667 0.1666666666666667 0.1666666666666667 0.1666666666666667 0.1666666666666667 0.1666666666666667 0.1666666666666667 0.1666666666666667 0.1666666666666667 0.1666666666666667 0.1666666666666667 0.1666666666666667 0.1666666666666667 0.1666666666666667 0.1666666666666667 0.0004830917874396135 0.6207729468599033 0.1280193236714976 0.1164251207729468 0.08454106280193235 0.04975845410628019 0.001587301587301587 0.63015873015873 0.1444444444444444 0.07777777777777775 0.1158730158730158 0.03015873015873015 0.03333333333333333 0.2333333333333334 0.2333333333333334 0.03333333333333333 0.4333333333333333 0.03333333333333333 0.003968253968253968 0.3849206349206349 0.1944444444444444 0.07539682539682539 0.242063492063492 0.09920634920634921 0.0003422313483915126 0.1420260095824777 0.5917180013689254 0.09890485968514713 0.1091718001368925 0.05783709787816563 0.001436781609195402 0.1307471264367816 0.5876436781609194 0.1048850574712643 0.1479885057471264 0.02729885057471264 0.02083333333333333 0.3958333333333333 0.1458333333333333 0.2708333333333333 0.02083333333333333 0.1458333333333333 0.003472222222222222 0.1701388888888889 0.5034722222222223 0.08680555555555557 0.1076388888888889 0.1284722222222222 0.0003576537911301859 0.1033619456366237 0.1312589413447782 0.6162374821173103 0.1140915593705293 0.03469241773962804 0.001243781094527363 0.11318407960199 0.11318407960199 0.5907960199004976 0.1579601990049751 0.0236318407960199 0.03333333333333333 0.4333333333333333 0.03333333333333333 0.2333333333333334 0.2333333333333334 0.03333333333333333 0.003875968992248062 0.09689922480620156 0.1666666666666667 0.6085271317829457 0.07364341085271317 0.05038759689922481 0.0003080714725816389 0.118607516943931 0.09272951324707332 0.1056685150955022 0.6361675908810844 0.04651879235982748 0.001182033096926714 0.1146572104018913 0.1430260047281324 0.0933806146572104 0.6040189125295509 0.04373522458628842 0.01388888888888889 0.2638888888888889 0.09722222222222224 0.1805555555555556 0.2638888888888889 0.1805555555555556 0.003205128205128205 0.08012820512820513 0.2147435897435898 0.1378205128205128 0.483974358974359 0.08012820512820513 0.0003436426116838488 0.09725085910652921 0.08900343642611684 0.0993127147766323 0.1096219931271478 0.6044673539518901 0.001851851851851852 0.1685185185185185 0.09074074074074073 0.1574074074074074 0.1018518518518518 0.4796296296296296 0.08333333333333333 0.08333333333333333 0.5833333333333334 0.08333333333333333 0.08333333333333333 0.08333333333333333 0.004761904761904761 0.1476190476190476 0.1476190476190476 0.2047619047619048 0.0619047619047619 0.4333333333333333 0.1666666666666667 0.1666666666666667 0.1666666666666667 0.1666666666666667 0.1666666666666667 0.1666666666666667 0.1666666666666667 0.1666666666666667 0.1666666666666667 0.1666666666666667 0.1666666666666667 0.1666666666666667 0.1666666666666667 