<?xml version="1.0" encoding="UTF-8"?>
<!-- This network was created in GeNIe Academic, which can be used for academic teaching and research purposes only -->
<smile version="1.0" id="airline_passenger_satisfaction1" numsamples="10000" discsamples="10000">
	<nodes>
		<cpt id="Satisfaction" target="true" diagtype="target" ranked="true">
			<state id="SNeutral_or_Dissatisfied" fault="true" />
			<state id="Satisfied" fault="true" />
			<probabilities>0.5655374191561442 0.4344625808438559</probabilities>
		</cpt>
		<cpt id="Class" target="true" diagtype="observation" ranked="true">
			<state id="Business" />
			<state id="Economy" />
			<state id="SEconomy_Plus" />
			<parents>Satisfaction</parents>
			<probabilities>0.2585906442302456 0.6448565049283885 0.09655285084136579 0.7649748351882045 0.1939285461118594 0.04109661869993621</probabilities>
		</cpt>
		<cpt id="Check_in_Service" target="true" diagtype="observation" ranked="true">
			<state id="State0" />
			<state id="State1" />
			<state id="State2" />
			<state id="State3" />
			<state id="State4" />
			<state id="State5" />
			<parents>Class Satisfaction</parents>
			<probabilities>5.264820469621986e-05 0.1814257133831736 0.1810571759503001 0.2737180162156471 0.2652416552595557 0.09850479098662736 3.860974046532459e-06 0.04154021976664274 0.04476027212145081 0.299213905684126 0.3148740164168617 0.2996077250368723 3.518624077240836e-06 0.1591860718784527 0.1550481699636174 0.2634147542944807 0.269832724611368 0.1525147606280041 1.522904483430799e-05 0.1502345272904484 0.1548032407407408 0.2356694688109162 0.2394158138401559 0.2198617202729045 2.349734480003759e-05 0.1780863762394849 0.1803421213402885 0.2530899008412049 0.2537948211852061 0.1346632830490155 7.183908045977011e-05 0.1819683908045977 0.1785201149425287 0.2099856321839081 0.2164511494252874 0.2130028735632184</probabilities>
		</cpt>
		<cpt id="Seat_Comfort" target="true" diagtype="observation" ranked="true">
			<state id="State0" />
			<state id="State1" />
			<state id="State2" />
			<state id="State3" />
			<state id="State4" />
			<state id="State5" />
			<parents>Check_in_Service Satisfaction</parents>
			<probabilities>0.5833333333333333 0.08333333333333331 0.08333333333333331 0.08333333333333331 0.08333333333333331 0.08333333333333331 0.1666666666666667 0.1666666666666667 0.1666666666666667 0.1666666666666667 0.1666666666666667 0.1666666666666667 1.360544217687075e-05 0.1911156462585034 0.2010748299319728 0.2792789115646259 0.2207482993197279 0.1077687074829932 4.317789291882556e-05 0.1243955094991364 0.1355354058721934 0.171027633851468 0.2813903281519862 0.2876079447322971 1.381635303545276e-05 0.1406090248418028 0.2512780126557794 0.2846859542955042 0.2209373013899252 0.1024758904639532 4.124391652231296e-05 0.1089251835354285 0.1735131568093706 0.1715334488162996 0.2826445599274107 0.2633424069949682 8.55929882224048e-06 0.1531001780334155 0.1823729800054779 0.2701400301287318 0.2327530128731854 0.161625239660367 1.04277461469478e-05 0.05262883480364554 0.06157584099772675 0.08691526413480991 0.4069427933846378 0.391926838933033 8.494733265375465e-06 0.153372409106354 0.1859921848453958 0.2332398912674142 0.2664203194019708 0.1609667006455997 9.971083856815236e-06 0.05002492770964204 0.06055439226243893 0.07084455080267225 0.4380596270814638 0.3805065310599263 1.658209796703479e-05 0.1698504294763374 0.1638808742082048 0.163482903856996 0.2341226411965642 0.2686465691639306 1.052587259483811e-05 0.04908214390973011 0.06114479390341459 0.06746031746031746 0.3928992463475222 0.4294029725064208</probabilities>
		</cpt>
		<cpt id="Food_and_Drink" target="true" diagtype="observation" ranked="true">
			<state id="State0" />
			<state id="State1" />
			<state id="State2" />
			<state id="State3" />
			<state id="State4" />
			<state id="State5" />
			<parents>Seat_Comfort Satisfaction</parents>
			<probabilities>0.08333333333333331 0.5833333333333333 0.08333333333333331 0.08333333333333331 0.08333333333333331 0.08333333333333331 0.1666666666666667 0.1666666666666667 0.1666666666666667 0.1666666666666667 0.1666666666666667 0.1666666666666667 0.001193114027612067 0.7561786262144196 0.0700528379069371 0.06962672575421851 0.05582069200613601 0.04712800409067666 0.002963841138114997 0.508298755186722 0.1235921754593954 0.1108476585655009 0.1301126259632484 0.1241849436870184 0.001115682309462381 0.05648141691653302 0.7454152430095531 0.08005020570392581 0.06554633568091486 0.05139111637961091 0.003104106972301815 0.0830945558739255 0.6103151862464183 0.102196752626552 0.1000477554918816 0.1012416427889207 0.001199956365223083 0.08339696738300426 0.1088687684084215 0.6231591578488055 0.09550561797752809 0.08786953201701757 0.002402883460152183 0.07889467360833 0.08970764917901482 0.592110532639167 0.1293552262715258 0.1075290348418102 0.0009152794462559351 0.07156341170413592 0.1185858932555346 0.1261941536525371 0.5736513929409073 0.1090898690006293 0.0003591470258136925 0.01674523007856341 0.1617957351290684 0.1657912457912458 0.4804489337822671 0.1748597081930415 0.0007784793702966871 0.03321511979932532 0.09947236398235446 0.09964535939797595 0.09670443733241069 0.6701842401176369 0.0005556327267676066 0.01727091725702644 0.1679399916655091 0.1664120016668982 0.1789600407464 0.4688614159373987</probabilities>
		</cpt>
		<cpt id="Gender" target="true" diagtype="observation" ranked="true">
			<state id="Female" />
			<state id="Male" />
			<parents>Food_and_Drink Satisfaction</parents>
			<probabilities>0.5324675324675325 0.4675324675324676 0.5272727272727272 0.4727272727272727 0.4929950186799502 0.5070049813200498 0.5532313456134874 0.4467686543865126 0.5063654294423525 0.4936345705576475 0.519057453999249 0.480942546000751 0.5086577501791258 0.4913422498208742 0.5162954915806627 0.4837045084193373 0.5178719293403257 0.4821280706596743 0.4808039325493124 0.5191960674506876 0.5383083784644791 0.4616916215355208 0.4875657424842543 0.5124342575157457</probabilities>
		</cpt>
		<cpt id="Customer_Type" target="true" diagtype="observation" ranked="true">
			<state id="SFirst_time" />
			<state id="Returning" />
			<parents>Satisfaction</parents>
			<probabilities>0.2461471437129009 0.753852856287099 0.1010136811512015 0.8989863188487985</probabilities>
		</cpt>
		<cpt id="In_flight_Service" target="true" diagtype="observation" ranked="true">
			<state id="State0" />
			<state id="State1" />
			<state id="State2" />
			<state id="State3" />
			<state id="State4" />
			<state id="State5" />
			<parents>Satisfaction</parents>
			<probabilities>6.807166584980667e-05 0.08541632630833741 0.1361841746991232 0.2618444698578664 0.3361515002995153 0.1803354571693079 2.95356406575815e-06 0.04586589637715831 0.07629351338259878 0.1078021348361067 0.4010733251814965 0.3689621766585739</probabilities>
		</cpt>
		<cpt id="On_board_Service" target="true" diagtype="observation" ranked="true">
			<state id="State0" />
			<state id="State1" />
			<state id="State2" />
			<state id="State3" />
			<state id="State4" />
			<state id="State5" />
			<parents>In_flight_Service Satisfaction</parents>
			<probabilities>0.8611111111111109 0.02777777777777777 0.02777777777777777 0.02777777777777777 0.02777777777777777 0.02777777777777777 0.1666666666666667 0.1666666666666667 0.1666666666666667 0.1666666666666667 0.1666666666666667 0.1666666666666667 2.656042496679947e-05 0.6304648074369189 0.0988313413014608 0.09341301460823372 0.099468791500664 0.07779548472775563 6.437491953135058e-05 0.3546414316982103 0.1619029226213467 0.1657654177932278 0.166537916827604 0.1510879361400798 1.666000266560043e-05 0.110072637611622 0.6112721578035454 0.1119718779155005 0.1176695988271358 0.04899706783953086 3.870568199411673e-05 0.1033828766062858 0.5831785106053569 0.1112788357330856 0.1017572379625329 0.1003638334107447 8.665210911233578e-06 0.1781307407022287 0.1826019895324252 0.4257651381234619 0.1828619458597622 0.0306315205712107 2.739425816348893e-05 0.09009971509971509 0.1006191102344949 0.617548761779531 0.1034133245671707 0.08829169406092482 6.749824504562881e-06 0.120815108807171 0.118992656190939 0.2437699119822885 0.3712605972244721 0.1451549759706247 7.363878702190016e-06 0.02461744650142122 0.02642896066215997 0.09928717654162798 0.7524484896684781 0.0972105627476104 1.258146498578294e-05 0.03118945169975592 0.03609622304421127 0.2679222968722478 0.2663370322840392 0.3984424146347601 8.004738805372779e-06 0.02114051518498951 0.02632758593087107 0.1040856186862622 0.1038454765221011 0.7445927989369706</probabilities>
		</cpt>
		<cpt id="In_flight_Entertainment" target="true" diagtype="observation" ranked="true">
			<state id="State0" />
			<state id="State1" />
			<state id="State2" />
			<state id="State3" />
			<state id="State4" />
			<state id="State5" />
			<parents>On_board_Service Food_and_Drink In_flight_Service Satisfaction</parents>
			<probabilities>0.1666666666666667 0.1666666666666667 0.1666666666666667 0.1666666666666667 0.1666666666666667 0.1666666666666667 0.1666666666666667 0.1666666666666667 0.1666666666666667 0.1666666666666667 0.1666666666666667 0.1666666666666667 0.1666666666666667 0.1666666666666667 0.1666666666666667 0.1666666666666667 0.1666666666666667 0.1666666666666667 0.1666666666666667 0.1666666666666667 0.1666666666666667 0.1666666666666667 0.1666666666666667 0.1666666666666667 0.1666666666666667 0.1666666666666667 0.1666666666666667 0.1666666666666667 0.1666666666666667 0.1666666666666667 0.1666666666666667 0.1666666666666667 0.1666666666666667 0.1666666666666667 0.1666666666666667 0.1666666666666667 0.1666666666666667 0.1666666666666667 0.1666666666666667 0.1666666666666667 0.1666666666666667 0.1666666666666667 0.1666666666666667 0.1666666666666667 0.1666666666666667 0.1666666666666667 0.1666666666666667 0.1666666666666667 0.1666666666666667 0.1666666666666667 0.1666666666666667 0.1666666666666667 0.1666666666666667 0.1666666666666667 0.1666666666666667 0.1666666666666667 0.1666666666666667 0.1666666666666667 0.1666666666666667 0.1666666666666667 0.1666666666666667 0.1666666666666667 0.1666666666666667 0.1666666666666667 0.1666666666666667 0.1666666666666667 0.1666666666666667 0.1666666666666667 0.1666666666666667 0.1666666666666667 0.1666666666666667 0.1666666666666667 0.7222222222222223 0.05555555555555557 0.05555555555555557 0.05555555555555557 0.05555555555555557 0.05555555555555557 0.1666666666666667 0.1666666666666667 0.1666666666666667 0.1666666666666667 0.1666666666666667 0.1666666666666667 0.1666666666666667 0.1666666666666667 0.1666666666666667 0.1666666666666667 0.1666666666666667 0.1666666666666667 0.1666666666666667 0.1666666666666667 0.1666666666666667 0.1666666666666667 0.1666666666666667 0.1666666666666667 0.1666666666666667 0.1666666666666667 0.1666666666666667 0.1666666666666667 0.1666666666666667 0.1666666666666667 0.1666666666666667 0.1666666666666667 0.1666666666666667 0.1666666666666667 0.1666666666666667 0.1666666666666667 0.1666666666666667 0.1666666666666667 0.1666666666666667 0.1666666666666667 0.1666666666666667 0.1666666666666667 0.1666666666666667 0.1666666666666667 0.1666666666666667 0.1666666666666667 0.1666666666666667 0.1666666666666667 0.1666666666666667 0.1666666666666667 0.1666666666666667 0.1666666666666667 0.1666666666666667 0.1666666666666667 0.1666666666666667 0.1666666666666667 0.1666666666666667 0.1666666666666667 0.1666666666666667 0.1666666666666667 0.1666666666666667 0.1666666666666667 0.1666666666666667 0.1666666666666667 0.1666666666666667 0.1666666666666667 0.1666666666666667 0.1666666666666667 0.1666666666666667 0.1666666666666667 0.1666666666666667 0.1666666666666667 0.5833333333333333 0.08333333333333331 0.08333333333333331 0.08333333333333331 0.08333333333333331 0.08333333333333331 0.1666666666666667 0.1666666666666667 0.1666666666666667 0.1666666666666667 0.1666666666666667 0.1666666666666667 0.1666666666666667 0.1666666666666667 0.1666666666666667 0.1666666666666667 0.1666666666666667 0.1666666666666667 0.1666666666666667 0.1666666666666667 0.1666666666666667 0.1666666666666667 0.1666666666666667 0.1666666666666667 0.1666666666666667 0.1666666666666667 0.1666666666666667 0.1666666666666667 0.1666666666666667 0.1666666666666667 0.1666666666666667 0.1666666666666667 0.1666666666666667 0.1666666666666667 0.1666666666666667 0.1666666666666667 0.1666666666666667 0.1666666666666667 0.1666666666666667 0.1666666666666667 0.1666666666666667 0.1666666666666667 0.1666666666666667 0.1666666666666667 0.1666666666666667 0.1666666666666667 0.1666666666666667 0.1666666666666667 0.1666666666666667 0.1666666666666667 0.1666666666666667 0.1666666666666667 0.1666666666666667 0.1666666666666667 0.1666666666666667 0.1666666666666667 0.1666666666666667 0.1666666666666667 0.1666666666666667 0.1666666666666667 0.1666666666666667 0.1666666666666667 0.1666666666666667 0.1666666666666667 0.1666666666666667 0.1666666666666667 0.1666666666666667 0.1666666666666667 0.1666666666666667 0.1666666666666667 0.1666666666666667 0.1666666666666667 0.1666666666666667 0.1666666666666667 0.1666666666666667 0.1666666666666667 0.1666666666666667 0.1666666666666667 0.1666666666666667 0.1666666666666667 0.1666666666666667 0.1666666666666667 0.1666666666666667 0.1666666666666667 0.1666666666666667 0.1666666666666667 0.1666666666666667 0.1666666666666667 0.1666666666666667 0.1666666666666667 0.1666666666666667 0.1666666666666667 0.1666666666666667 0.1666666666666667 0.1666666666666667 0.1666666666666667 0.1666666666666667 0.1666666666666667 0.1666666666666667 0.1666666666666667 0.1666666666666667 0.1666666666666667 0.1666666666666667 0.1666666666666667 0.1666666666666667 0.1666666666666667 0.1666666666666667 0.1666666666666667 0.1666666666666667 0.1666666666666667 0.1666666666666667 0.1666666666666667 0.1666666666666667 0.1666666666666667 0.1666666666666667 0.1666666666666667 0.1666666666666667 0.1666666666666667 0.1666666666666667 0.1666666666666667 0.1666666666666667 0.1666666666666667 0.1666666666666667 0.1666666666666667 0.1666666666666667 0.1666666666666667 0.1666666666666667 0.1666666666666667 0.1666666666666667 0.1666666666666667 0.1666666666666667 0.1666666666666667 0.1666666666666667 0.1666666666666667 0.1666666666666667 0.1666666666666667 0.1666666666666667 0.1666666666666667 0.1666666666666667 0.1666666666666667 0.1666666666666667 0.1666666666666667 0.1666666666666667 0.1666666666666667 0.7222222222222223 0.05555555555555557 0.05555555555555557 0.05555555555555557 0.05555555555555557 0.05555555555555557 0.1666666666666667 0.1666666666666667 0.1666666666666667 0.1666666666666667 0.1666666666666667 0.1666666666666667 0.1666666666666667 0.1666666666666667 0.1666666666666667 0.1666666666666667 0.1666666666666667 0.1666666666666667 0.1666666666666667 0.1666666666666667 0.1666666666666667 0.1666666666666667 0.1666666666666667 0.1666666666666667 0.1666666666666667 0.1666666666666667 0.1666666666666667 0.1666666666666667 0.1666666666666667 0.1666666666666667 0.1666666666666667 0.1666666666666667 0.1666666666666667 0.1666666666666667 0.1666666666666667 0.1666666666666667 0.1666666666666667 0.1666666666666667 0.1666666666666667 0.1666666666666667 0.1666666666666667 0.1666666666666667 0.1666666666666667 0.1666666666666667 0.1666666666666667 0.1666666666666667 0.1666666666666667 0.1666666666666667 0.1666666666666667 0.1666666666666667 0.1666666666666667 0.1666666666666667 0.1666666666666667 0.1666666666666667 0.1666666666666667 0.1666666666666667 0.1666666666666667 0.1666666666666667 0.1666666666666667 0.1666666666666667 0.1666666666666667 0.1666666666666667 0.1666666666666667 0.1666666666666667 0.1666666666666667 0.1666666666666667 0.1666666666666667 0.1666666666666667 0.1666666666666667 0.1666666666666667 0.1666666666666667 0.1666666666666667 0.1666666666666667 0.1666666666666667 0.1666666666666667 0.1666666666666667 0.1666666666666667 0.1666666666666667 0.1666666666666667 0.1666666666666667 0.1666666666666667 0.1666666666666667 0.1666666666666667 0.1666666666666667 0.1666666666666667 0.1666666666666667 0.1666666666666667 0.1666666666666667 0.1666666666666667 0.1666666666666667 0.1666666666666667 0.1666666666666667 0.1666666666666667 0.1666666666666667 0.1666666666666667 0.1666666666666667 0.1666666666666667 0.1666666666666667 0.1666666666666667 0.1666666666666667 0.1666666666666667 0.1666666666666667 0.1666666666666667 0.1666666666666667 0.1666666666666667 0.1666666666666667 0.1666666666666667 0.1666666666666667 0.1666666666666667 0.1666666666666667 0.1666666666666667 0.1666666666666667 0.1666666666666667 0.1666666666666667 0.1666666666666667 0.1666666666666667 0.1666666666666667 0.1666666666666667 0.1666666666666667 0.1666666666666667 0.1666666666666667 0.1666666666666667 0.1666666666666667 0.1666666666666667 0.1666666666666667 0.1666666666666667 0.1666666666666667 0.1666666666666667 0.1666666666666667 0.1666666666666667 0.1666666666666667 0.1666666666666667 0.1666666666666667 0.1666666666666667 0.1666666666666667 0.1666666666666667 0.1666666666666667 0.1666666666666667 0.1666666666666667 0.1666666666666667 0.1666666666666667 0.1666666666666667 0.1666666666666667 0.1666666666666667 0.1666666666666667 0.1666666666666667 0.1666666666666667 0.1666666666666667 0.1666666666666667 0.1666666666666667 0.1666666666666667 0.1666666666666667 0.1666666666666667 0.1666666666666667 0.1666666666666667 0.1666666666666667 0.08333333333333333 0.08333333333333333 0.5833333333333334 0.08333333333333333 0.08333333333333333 0.08333333333333333 0.1666666666666667 0.1666666666666667 0.1666666666666667 0.1666666666666667 0.1666666666666667 0.1666666666666667 0.1666666666666667 0.1666666666666667 0.1666666666666667 0.1666666666666667 0.1666666666666667 0.1666666666666667 0.1666666666666667 0.1666666666666667 0.1666666666666667 0.1666666666666667 0.1666666666666667 0.1666666666666667 0.2916666666666667 0.2916666666666667 0.04166666666666667 0.04166666666666667 0.2916666666666667 0.04166666666666667 0.04166666666666666 0.2916666666666667 0.2916666666666667 0.2916666666666667 0.04166666666666666 0.04166666666666666 0.03333333333333333 0.6333333333333333 0.03333333333333333 0.03333333333333333 0.2333333333333334 0.03333333333333333 0.08333333333333331 0.5833333333333333 0.08333333333333331 0.08333333333333331 0.08333333333333331 0.08333333333333331 0.05555555555555555 0.05555555555555555 0.05555555555555555 0.3888888888888889 0.05555555555555555 0.3888888888888889 0.1666666666666667 0.1666666666666667 0.1666666666666667 0.1666666666666667 0.1666666666666667 0.1666666666666667 0.1666666666666667 0.1666666666666667 0.1666666666666667 0.1666666666666667 0.1666666666666667 0.1666666666666667 0.1666666666666667 0.1666666666666667 0.1666666666666667 0.1666666666666667 0.1666666666666667 0.1666666666666667 0.0002777777777777778 0.965277777777778 0.008611111111111115 0.01527777777777778 0.008611111111111115 0.001944444444444445 0.003623188405797102 0.9601449275362322 0.003623188405797102 0.02536231884057972 0.003623188405797102 0.003623188405797102 0.0008250825082508253 0.9216171617161719 0.04042904290429044 0.02062706270627064 0.01567656765676568 0.0008250825082508253 0.006666666666666664 0.9266666666666664 0.006666666666666664 0.04666666666666665 0.006666666666666664 0.006666666666666664 0.0002718868950516586 0.9709081022294728 0.01169113648722132 0.01005981511691137 0.006797172376291466 0.0002718868950516586 0.004629629629629631 0.9768518518518522 0.004629629629629631 0.004629629629629631 0.004629629629629631 0.004629629629629631 0.0002824858757062148 0.9545197740112997 0.01384180790960452 0.02401129943502826 0.001977401129943504 0.005367231638418081 0.004065040650406505 0.9796747967479678 0.004065040650406505 0.004065040650406505 0.004065040650406505 0.004065040650406505 0.00219298245614035 0.9495614035087717 0.01535087719298245 0.00219298245614035 0.02850877192982455 0.00219298245614035 0.0072463768115942 0.9637681159420287 0.0072463768115942 0.0072463768115942 0.0072463768115942 0.0072463768115942 0.1666666666666667 0.1666666666666667 0.1666666666666667 0.1666666666666667 0.1666666666666667 0.1666666666666667 0.1666666666666667 0.1666666666666667 0.1666666666666667 0.1666666666666667 0.1666666666666667 0.1666666666666667 0.0001896094046264695 0.8454683352294277 0.1344330678801669 0.01270383010997346 0.005877891543420556 0.001327265832385287 0.001126126126126126 0.7849099099099101 0.2105855855855856 0.001126126126126126 0.001126126126126126 0.001126126126126126 0.0006459948320413436 0.03940568475452196 0.8959948320413437 0.02777777777777778 0.02777777777777778 0.008397932816537466 0.005208333333333333 0.005208333333333333 0.9739583333333334 0.005208333333333333 0.005208333333333333 0.005208333333333333 0.0001883239171374765 0.01148775894538606 0.9674199623352165 0.01261770244821092 0.008097928436911489 0.0001883239171374765 0.00238095238095238 0.00238095238095238 0.988095238095238 0.00238095238095238 0.00238095238095238 0.00238095238095238 0.0002279981760145919 0.008435932512539901 0.9728682170542636 0.009803921568627453 0.00706794345645235 0.001595987232102144 0.003205128205128205 0.003205128205128205 0.9647435897435898 0.02243589743589744 0.003205128205128205 0.003205128205128205 0.002057613168724279 0.002057613168724279 0.9156378600823044 0.05144032921810699 0.01440329218106996 0.01440329218106996 0.004065040650406504 0.004065040650406504 0.9065040650406505 0.004065040650406504 0.02845528455284553 0.05284552845528456 0.1666666666666667 0.1666666666666667 0.1666666666666667 0.1666666666666667 0.1666666666666667 0.1666666666666667 0.1666666666666667 0.1666666666666667 0.1666666666666667 0.1666666666666667 0.1666666666666667 0.1666666666666667 0.0001858045336306206 0.8519137866963955 0.01133407655146786 0.1250464511334077 0.00910442214790041 0.002415458937198068 0.0008771929824561406 0.7271929824561405 0.0008771929824561406 0.2640350877192983 0.0008771929824561406 0.006140350877192985 0.000591016548463357 0.03605200945626477 0.03959810874704491 0.8800236406619385 0.04314420803782506 0.000591016548463357 0.00210970464135021 0.00210970464135021 0.00210970464135021 0.9767932489451476 0.00210970464135021 0.01476793248945148 0.0002035002035002035 0.01119251119251119 0.008750508750508753 0.970899470899471 0.00630850630850631 0.002645502645502646 0.00210970464135021 0.01476793248945148 0.00210970464135021 0.9514767932489451 0.02742616033755274 0.00210970464135021 0.0002279981760145919 0.01527587779297766 0.005699954400364799 0.9715002279981761 0.005699954400364799 0.001595987232102144 0.002564102564102564 0.002564102564102564 0.002564102564102564 0.9871794871794871 0.002564102564102564 0.002564102564102564 0.001587301587301587 0.01111111111111111 0.01111111111111111 0.9444444444444444 0.01111111111111111 0.02063492063492063 0.003546099290780142 0.003546099290780142 0.003546099290780142 0.9822695035460994 0.003546099290780142 0.003546099290780142 0.1666666666666667 0.1666666666666667 0.1666666666666667 0.1666666666666667 0.1666666666666667 0.1666666666666667 0.1666666666666667 0.1666666666666667 0.1666666666666667 0.1666666666666667 0.1666666666666667 0.1666666666666667 0.0002070393374741201 0.872256728778468 0.007660455486542445 0.002691511387163561 0.1157349896480332 0.001449275362318841 0.0005688282138794085 0.4681456200227532 0.01080773606370876 0.00739476678043231 0.5056882821387941 0.00739476678043231 0.0007824726134585291 0.02895148669796558 0.01017214397496088 0.01017214397496088 0.9444444444444446 0.005477308294209705 0.001089324618736384 0.01416122004357299 0.02723311546840959 0.02069716775599129 0.9161220043572985 0.02069716775599129 0.0002583979328165375 0.001808785529715763 0.001808785529715763 0.006459948320413438 0.9894056847545221 0.0002583979328165375 0.0008912655971479501 0.02228163992869876 0.02228163992869876 0.01158645276292335 0.9313725490196079 0.01158645276292335 0.0003030303030303031 0.00393939393939394 0.005757575757575759 0.002121212121212122 0.9875757575757578 0.0003030303030303031 0.0008012820512820513 0.02003205128205128 0.02483974358974359 0.00560897435897436 0.9286858974358975 0.02003205128205128 0.00219298245614035 0.00219298245614035 0.00219298245614035 0.02850877192982455 0.9627192982456139 0.00219298245614035 0.0010351966873706 0.01345755693581781 0.01345755693581781 0.01966873706004141 0.9327122153209111 0.01966873706004141 0.1666666666666667 0.1666666666666667 0.1666666666666667 0.1666666666666667 0.1666666666666667 0.1666666666666667 0.1666666666666667 0.1666666666666667 0.1666666666666667 0.1666666666666667 0.1666666666666667 0.1666666666666667 0.0002139495079161318 0.8885323063756955 0.0002139495079161318 0.0002139495079161318 0.0002139495079161318 0.1106118955926402 0.0006775067750677506 0.4844173441734417 0.004742547425474255 0.01287262872628726 0.004742547425474255 0.4925474254742547 0.001103752759381898 0.001103752759381898 0.001103752759381898 0.001103752759381898 0.001103752759381898 0.9944812362030905 0.0010351966873706 0.03209109730848862 0.0134575569358178 0.0134575569358178 0.0134575569358178 0.9265010351966873 0.000357653791130186 0.000357653791130186 0.000357653791130186 0.000357653791130186 0.000357653791130186 0.9982117310443491 0.0009363295880149812 0.006554307116104869 0.006554307116104869 0.01217228464419476 0.01217228464419476 0.9616104868913857 0.0004363001745200698 0.0004363001745200698 0.0004363001745200698 0.0004363001745200698 0.0004363001745200698 0.9978184991273997 0.0008547008547008547 0.01111111111111111 0.0008547008547008547 0.01623931623931624 0.005982905982905983 0.9649572649572649 0.002136752136752137 0.002136752136752137 0.002136752136752137 0.002136752136752137 0.002136752136752137 0.9893162393162394 0.0009633911368015413 0.01252408477842004 0.00674373795761079 0.01830443159922928 0.01252408477842004 0.9489402697495182 0.1666666666666667 0.1666666666666667 0.1666666666666667 0.1666666666666667 0.1666666666666667 0.1666666666666667 0.1666666666666667 0.1666666666666667 0.1666666666666667 0.1666666666666667 0.1666666666666667 0.1666666666666667 0.02777777777777778 0.1944444444444444 0.361111111111111 0.361111111111111 0.02777777777777778 0.02777777777777778 0.1666666666666667 0.1666666666666667 0.1666666666666667 0.1666666666666667 0.1666666666666667 0.1666666666666667 0.02777777777777778 0.361111111111111 0.02777777777777778 0.5277777777777777 0.02777777777777778 0.02777777777777778 0.05555555555555557 0.7222222222222223 0.05555555555555557 0.05555555555555557 0.05555555555555557 0.05555555555555557 0.7222222222222223 0.05555555555555557 0.05555555555555557 0.05555555555555557 0.05555555555555557 0.05555555555555557 0.01666666666666667 0.1166666666666667 0.1166666666666667 0.3166666666666667 0.01666666666666667 0.4166666666666667 0.2407407407407408 0.01851851851851852 0.01851851851851852 0.2407407407407408 0.4629629629629631 0.01851851851851852 0.04166666666666666 0.04166666666666666 0.04166666666666666 0.04166666666666666 0.5416666666666666 0.2916666666666667 0.05555555555555555 0.05555555555555555 0.05555555555555555 0.05555555555555555 0.3888888888888889 0.3888888888888889 0.05555555555555555 0.3888888888888889 0.05555555555555555 0.3888888888888889 0.05555555555555555 0.05555555555555555 0.1666666666666667 0.1666666666666667 0.1666666666666667 0.1666666666666667 0.1666666666666667 0.1666666666666667 0.1666666666666667 0.1666666666666667 0.1666666666666667 0.1666666666666667 0.1666666666666667 0.1666666666666667 0.001572327044025157 0.8128930817610062 0.04874213836477986 0.0581761006289308 0.06761006289308175 0.0110062893081761 0.01111111111111111 0.9444444444444446 0.01111111111111111 0.01111111111111111 0.01111111111111111 0.01111111111111111 0.0001685203909673071 0.1892483990562858 0.796932928884395 0.006235254465790361 0.007246376811594204 0.0001685203909673071 0.001572327044025157 0.2185534591194968 0.7657232704402515 0.001572327044025157 0.001572327044025157 0.0110062893081761 0.000259201658890617 0.9551581130119237 0.01114567133229653 0.01736651114567134 0.008035251425609128 0.008035251425609128 0.004385964912280703 0.9780701754385968 0.004385964912280703 0.004385964912280703 0.004385964912280703 0.004385964912280703 0.0003024803387779796 0.9422262552934063 0.005747126436781612 0.02752571082879614 0.01300665456745312 0.01119177253478524 0.005555555555555554 0.9722222222222221 0.005555555555555554 0.005555555555555554 0.005555555555555554 0.005555555555555554 0.001666666666666666 0.8516666666666665 0.01166666666666666 0.06166666666666665 0.05166666666666665 0.02166666666666666 0.01041666666666667 0.8854166666666669 0.01041666666666667 0.07291666666666669 0.01041666666666667 0.01041666666666667 0.1666666666666667 0.1666666666666667 0.1666666666666667 0.1666666666666667 0.1666666666666667 0.1666666666666667 0.1666666666666667 0.1666666666666667 0.1666666666666667 0.1666666666666667 0.1666666666666667 0.1666666666666667 0.001126126126126126 0.1092342342342343 0.7781531531531534 0.05518018018018019 0.04166666666666668 0.01463963963963964 0.003546099290780142 0.003546099290780142 0.9609929078014185 0.024822695035461 0.003546099290780142 0.003546099290780142 0.0001261670451678021 0.006939187484229118 0.9774160989149633 0.003911178400201867 0.009210194297249556 0.002397173858188241 0.0003180661577608143 0.0003180661577608143 0.9926844783715014 0.0003180661577608143 0.004134860050890586 0.0022264631043257 0.0001984126984126984 0.0121031746031746 0.9406746031746032 0.01329365079365079 0.02162698412698413 0.0121031746031746 0.00308641975308642 0.02160493827160494 0.8364197530864198 0.04012345679012346 0.05864197530864198 0.04012345679012346 0.0002344116268166901 0.01851851851851852 0.9270979840600094 0.02273792780121895 0.01570557899671824 0.01570557899671824 0.003144654088050315 0.003144654088050315 0.8710691823899371 0.05974842767295598 0.04088050314465409 0.02201257861635221 0.001501501501501501 0.02852852852852852 0.7762762762762762 0.07357357357357355 0.04654654654654654 0.07357357357357355 0.004273504273504274 0.004273504273504274 0.8504273504273505 0.02991452991452992 0.05555555555555557 0.05555555555555557 0.1666666666666667 0.1666666666666667 0.1666666666666667 0.1666666666666667 0.1666666666666667 0.1666666666666667 0.1666666666666667 0.1666666666666667 0.1666666666666667 0.1666666666666667 0.1666666666666667 0.1666666666666667 0.0009980039920159682 0.1027944111776447 0.02495009980039921 0.7974051896207586 0.06686626746506986 0.006986027944111778 0.003623188405797102 0.003623188405797102 0.04710144927536232 0.9384057971014493 0.003623188405797102 0.003623188405797102 0.0001202501202501202 0.009499759499759498 0.7843915343915343 0.1963684463684464 0.008778258778258776 0.0008417508417508417 0.00029708853238265 0.00029708853238265 0.8915626856803329 0.1036838978015449 0.002079619726678551 0.002079619726678551 0.0001887504718761797 0.01151377878444696 0.01377878444696112 0.9514911287278218 0.01604379010947527 0.006983767459418649 0.002645502645502646 0.002645502645502646 0.002645502645502646 0.9232804232804234 0.0343915343915344 0.0343915343915344 0.0002331002331002331 0.01841491841491842 0.01002331002331002 0.9484848484848486 0.01841491841491842 0.004428904428904429 0.002976190476190476 0.002976190476190476 0.02083333333333334 0.9315476190476192 0.002976190476190476 0.03869047619047619 0.001529051987767584 0.001529051987767584 0.01987767584097859 0.8730886850152905 0.04740061162079511 0.05657492354740061 0.002923976608187135 0.002923976608187135 0.002923976608187135 0.9678362573099416 0.002923976608187135 0.02046783625730995 0.1666666666666667 0.1666666666666667 0.1666666666666667 0.1666666666666667 0.1666666666666667 0.1666666666666667 0.1666666666666667 0.1666666666666667 0.1666666666666667 0.1666666666666667 0.1666666666666667 0.1666666666666667 0.00165016501650165 0.03135313531353134 0.03135313531353134 0.05115511551155115 0.8828382838283827 0.00165016501650165 0.001022494887525562 0.007157464212678938 0.007157464212678938 0.02556237218813907 0.9335378323108385 0.02556237218813907 0.0001366120218579235 0.001775956284153005 0.8222677595628415 0.003415300546448088 0.1722677595628415 0.0001366120218579235 0.0002483854942871336 0.006209637357178342 0.761798310978639 0.006209637357178342 0.2252856433184302 0.0002483854942871336 0.0002525252525252525 0.004797979797979799 0.001767676767676768 0.00782828282828283 0.9820707070707072 0.003282828282828283 0.000700280112044818 0.01750700280112045 0.009103641456582634 0.08893557422969189 0.8242296918767508 0.05952380952380953 0.0003013863773357445 0.007534659433393613 0.005726341169379145 0.01476793248945148 0.9677516576250754 0.003918022905364678 0.0006973500697350071 0.01324965132496513 0.009065550906555092 0.05927475592747559 0.8668061366806137 0.05090655509065551 0.00196078431372549 0.00196078431372549 0.00196078431372549 0.01372549019607843 0.9431372549019607 0.03725490196078431 0.0007751937984496125 0.01937984496124031 0.01007751937984496 0.08914728682170545 0.782170542635659 0.09844961240310079 0.1666666666666667 0.1666666666666667 0.1666666666666667 0.1666666666666667 0.1666666666666667 0.1666666666666667 0.1666666666666667 0.1666666666666667 0.1666666666666667 0.1666666666666667 0.1666666666666667 0.1666666666666667 0.001700680272108843 0.0119047619047619 0.0119047619047619 0.001700680272108843 0.001700680272108843 0.9710884353741497 0.001089324618736383 0.001089324618736383 0.02723311546840959 0.007625272331154685 0.001089324618736383 0.9618736383442266 0.0001390047261606894 0.0001390047261606894 0.8625243258270781 0.0001390047261606894 0.0001390047261606894 0.1369196552682791 0.0002556237218813906 0.0002556237218813906 0.7839979550102251 0.006390593047034767 0.001789366053169735 0.2073108384458078 0.0003408316291751875 0.002385821404226313 0.0003408316291751875 0.0003408316291751875 0.0003408316291751875 0.996250852079073 0.0007751937984496124 0.01007751937984496 0.02403100775193798 0.08449612403100776 0.0565891472868217 0.8240310077519379 0.000411522633744856 0.000411522633744856 0.000411522633744856 0.000411522633744856 0.002880658436213992 0.9954732510288066 0.0007507507507507507 0.01876876876876877 0.009759759759759758 0.08633633633633635 0.0593093093093093 0.825075075075075 0.002192982456140351 0.002192982456140351 0.002192982456140351 0.002192982456140351 0.002192982456140351 0.9890350877192983 0.000744047619047619 0.01413690476190476 0.01413690476190476 0.09895833333333333 0.0900297619047619 0.7819940476190476 0.1666666666666667 0.1666666666666667 0.1666666666666667 0.1666666666666667 0.1666666666666667 0.1666666666666667 0.1666666666666667 0.1666666666666667 0.1666666666666667 0.1666666666666667 0.1666666666666667 0.1666666666666667 0.04166666666666666 0.04166666666666666 0.04166666666666666 0.04166666666666666 0.2916666666666667 0.5416666666666666 0.08333333333333333 0.08333333333333333 0.08333333333333333 0.08333333333333333 0.5833333333333334 0.08333333333333333 0.08333333333333333 0.08333333333333333 0.08333333333333333 0.08333333333333333 0.5833333333333334 0.08333333333333333 0.08333333333333333 0.08333333333333333 0.08333333333333333 0.08333333333333333 0.5833333333333334 0.08333333333333333 0.5416666666666667 0.04166666666666667 0.04166666666666667 0.2916666666666667 0.04166666666666667 0.04166666666666667 0.05555555555555555 0.05555555555555555 0.05555555555555555 0.3888888888888889 0.05555555555555555 0.3888888888888889 0.1666666666666667 0.02380952380952381 0.02380952380952381 0.3095238095238095 0.1666666666666667 0.3095238095238095 0.04166666666666666 0.04166666666666666 0.04166666666666666 0.2916666666666667 0.04166666666666666 0.5416666666666666 0.04166666666666667 0.04166666666666667 0.2916666666666667 0.04166666666666667 0.5416666666666667 0.04166666666666667 0.04166666666666666 0.04166666666666666 0.2916666666666666 0.2916666666666666 0.2916666666666666 0.04166666666666666 0.1666666666666667 0.1666666666666667 0.1666666666666667 0.1666666666666667 0.1666666666666667 0.1666666666666667 0.1666666666666667 0.1666666666666667 0.1666666666666667 0.1666666666666667 0.1666666666666667 0.1666666666666667 0.001633986928104575 0.8643790849673202 0.01143790849673203 0.03104575163398692 0.08986928104575161 0.001633986928104575 0.006944444444444442 0.9652777777777776 0.006944444444444442 0.006944444444444442 0.006944444444444442 0.006944444444444442 0.0008291873963515757 0.9411276948590384 0.0207296849087894 0.0306799336650083 0.00580431177446103 0.0008291873963515757 0.007936507936507933 0.96031746031746 0.007936507936507933 0.007936507936507933 0.007936507936507933 0.007936507936507933 0.0001173708920187793 0.4289906103286385 0.00363849765258216 0.5613849765258216 0.00363849765258216 0.002230046948356807 0.0008375209380234507 0.1968174204355109 0.0008375209380234507 0.7998324958123955 0.0008375209380234507 0.0008375209380234507 0.0001534683855125843 0.968845917740945 0.003836709637814609 0.008440761203192138 0.01396562308164517 0.004757519950890115 0.0009009009009009012 0.9900900900900904 0.0009009009009009012 0.006306306306306309 0.0009009009009009012 0.0009009009009009012 0.0002666666666666667 0.9794666666666669 0.0002666666666666667 0.01306666666666667 0.0002666666666666667 0.00666666666666667 0.0009107468123861569 0.9845173041894356 0.0009107468123861569 0.0009107468123861569 0.006375227686703099 0.006375227686703099 0.1666666666666667 0.1666666666666667 0.1666666666666667 0.1666666666666667 0.1666666666666667 0.1666666666666667 0.1666666666666667 0.1666666666666667 0.1666666666666667 0.1666666666666667 0.1666666666666667 0.1666666666666667 0.001149425287356322 0.1045977011494253 0.7873563218390807 0.04942528735632185 0.05632183908045978 0.001149425287356322 0.00462962962962963 0.00462962962962963 0.976851851851852 0.00462962962962963 0.00462962962962963 0.00462962962962963 0.0006195786864931845 0.03407682775712514 0.8816604708798016 0.04522924411400247 0.03035935563816604 0.008054522924411398 0.003787878787878788 0.003787878787878788 0.9583333333333335 0.003787878787878788 0.003787878787878788 0.02651515151515152 8.926977325477593e-05 0.007052312087127298 0.4467952151401535 0.5319585788252098 0.009730405284770578 0.00437421888948402 0.000205761316872428 0.000205761316872428 0.07674897119341564 0.9174897119341565 0.001440329218106996 0.003909465020576132 0.0001182033096926714 0.0107565011820331 0.9511820330969267 0.01359338061465721 0.01855791962174941 0.005791962174940897 0.0005464480874316939 0.003825136612021857 0.9808743169398907 0.003825136612021857 0.007103825136612021 0.003825136612021857 0.0002234137622877569 0.0002234137622877569 0.9506255585344059 0.01630920464700626 0.01630920464700626 0.01630920464700626 0.000608272506082725 0.000608272506082725 0.9787104622871046 0.007907542579075425 0.004257907542579075 0.007907542579075425 0.1666666666666667 0.1666666666666667 0.1666666666666667 0.1666666666666667 0.1666666666666667 0.1666666666666667 0.1666666666666667 0.1666666666666667 0.1666666666666667 0.1666666666666667 0.1666666666666667 0.1666666666666667 0.001388888888888889 0.06805555555555554 0.02638888888888888 0.834722222222222 0.05138888888888888 0.01805555555555555 0.003787878787878788 0.003787878787878788 0.02651515151515152 0.9583333333333335 0.003787878787878788 0.003787878787878788 0.0006510416666666667 0.02408854166666667 0.02799479166666667 0.9069010416666669 0.03580729166666667 0.004557291666666668 0.002688172043010753 0.002688172043010753 0.002688172043010753 0.9381720430107529 0.01881720430107527 0.03494623655913979 8.790436005625878e-05 0.003779887482419128 0.003779887482419128 0.9742440225035162 0.01274613220815752 0.005362165963431785 0.000208073241781107 0.000208073241781107 0.000208073241781107 0.9952143154390347 0.001456512692467749 0.002704952143154391 0.0001255965837729213 0.009922130118060786 0.003139914594323034 0.9714895754835468 0.01218286862597337 0.003139914594323034 0.0004708097928436911 0.0004708097928436911 0.0004708097928436911 0.9778719397363465 0.01459510357815442 0.006120527306967984 0.0002308402585410896 0.001615881809787627 0.004385964912280702 0.9753000923361035 0.015466297322253 0.003000923361034165 0.0005324813631522895 0.0005324813631522895 0.0005324813631522895 0.9749733759318423 0.006922257720979764 0.01650692225772098 0.1666666666666667 0.1666666666666667 0.1666666666666667 0.1666666666666667 0.1666666666666667 0.1666666666666667 0.1666666666666667 0.1666666666666667 0.1666666666666667 0.1666666666666667 0.1666666666666667 0.1666666666666667 0.00165016501650165 0.05115511551155115 0.04125412541254125 0.04125412541254125 0.8531353135313531 0.01155115511551155 0.0009416195856873824 0.0009416195856873824 0.03483992467043315 0.0009416195856873824 0.9387947269303203 0.02354048964218456 0.0007062146892655368 0.004943502824858758 0.02189265536723164 0.009180790960451978 0.9625706214689267 0.0007062146892655368 0.000900900900900901 0.006306306306306308 0.02252252252252253 0.000900900900900901 0.9576576576576579 0.01171171171171171 0.0001012555690562981 0.002531389226407452 0.001923855812069664 0.6228230052652896 0.3682665046577561 0.004353989469420818 0.0001778726431874778 0.002312344361437211 0.002312344361437211 0.7813945215225898 0.1837424404126645 0.03006047669868375 0.000142571998859424 0.005275163957798688 0.006130595950955231 0.008696891930424862 0.9761904761904761 0.0035642999714856 0.0002190100744634253 0.001533070521243978 0.001533070521243978 0.00941743320192729 0.948970652650022 0.03832676303109944 0.0002261420171867933 0.0002261420171867933 0.001582994120307553 0.004296698326549073 0.9839439167797377 0.009724106739032113 0.0002305209774089443 0.007146150299677272 0.002996772706316275 0.02374366067312126 0.9393729829414478 0.02650991240202859 0.1666666666666667 0.1666666666666667 0.1666666666666667 0.1666666666666667 0.1666666666666667 0.1666666666666667 0.1666666666666667 0.1666666666666667 0.1666666666666667 0.1666666666666667 0.1666666666666667 0.1666666666666667 0.001388888888888889 0.009722222222222222 0.001388888888888889 0.001388888888888889 0.001388888888888889 0.9847222222222223 0.001096491228070175 0.02741228070175439 0.01425438596491228 0.007675438596491229 0.001096491228070175 0.9484649122807016 0.00102880658436214 0.00720164609053498 0.00102880658436214 0.00102880658436214 0.00720164609053498 0.9825102880658435 0.0009746588693957114 0.01267056530214425 0.01267056530214425 0.01851851851851852 0.01267056530214425 0.9424951267056529 0.0001223690651003426 0.0001223690651003426 0.0008565834557023984 0.6932207537934409 0.0001223690651003426 0.3055555555555556 0.0001645278051990787 0.005100361961171439 0.003126028298782495 0.7711418229680816 0.02089503126028299 0.1995722277064824 0.0001624431448992852 0.0001624431448992852 0.0001624431448992852 0.0001624431448992852 0.0001624431448992852 0.9991877842755036 0.0002587991718426501 0.004917184265010351 0.003364389233954451 0.01889233954451346 0.02355072463768116 0.9490165631469978 0.0002311604253351826 0.0002311604253351826 0.0002311604253351826 0.001618122977346278 0.0002311604253351826 0.9974572353213129 0.0002465483234714004 0.001725838264299803 0.001725838264299803 0.01651873767258382 0.02687376725838264 0.9529092702169625 0.1666666666666667 0.1666666666666667 0.1666666666666667 0.1666666666666667 0.1666666666666667 0.1666666666666667 0.1666666666666667 0.1666666666666667 0.1666666666666667 0.1666666666666667 0.1666666666666667 0.1666666666666667 0.05555555555555556 0.388888888888889 0.388888888888889 0.05555555555555556 0.05555555555555556 0.05555555555555556 0.08333333333333333 0.08333333333333333 0.08333333333333333 0.08333333333333333 0.5833333333333334 0.08333333333333333 0.05555555555555554 0.3888888888888888 0.05555555555555554 0.05555555555555554 0.3888888888888888 0.05555555555555554 0.1666666666666667 0.1666666666666667 0.1666666666666667 0.1666666666666667 0.1666666666666667 0.1666666666666667 0.4523809523809524 0.02380952380952381 0.02380952380952381 0.02380952380952381 0.3095238095238095 0.1666666666666667 0.04166666666666667 0.04166666666666667 0.04166666666666667 0.5416666666666667 0.2916666666666667 0.04166666666666667 0.361111111111111 0.02777777777777778 0.02777777777777778 0.361111111111111 0.1944444444444444 0.02777777777777778 0.04166666666666666 0.2916666666666667 0.04166666666666666 0.04166666666666666 0.5416666666666666 0.04166666666666666 0.05555555555555555 0.05555555555555555 0.05555555555555555 0.3888888888888889 0.05555555555555555 0.3888888888888889 0.08333333333333333 0.08333333333333333 0.08333333333333333 0.5833333333333334 0.08333333333333333 0.08333333333333333 0.1666666666666667 0.1666666666666667 0.1666666666666667 0.1666666666666667 0.1666666666666667 0.1666666666666667 0.1666666666666667 0.1666666666666667 0.1666666666666667 0.1666666666666667 0.1666666666666667 0.1666666666666667 0.001225490196078431 0.8688725490196079 0.03799019607843138 0.03063725490196079 0.05269607843137255 0.00857843137254902 0.01111111111111111 0.9444444444444446 0.01111111111111111 0.01111111111111111 0.01111111111111111 0.01111111111111111 0.0008169934640522878 0.8978758169934643 0.02532679738562093 0.03022875816993465 0.04493464052287583 0.0008169934640522878 0.0087719298245614 0.9561403508771927 0.0087719298245614 0.0087719298245614 0.0087719298245614 0.0087719298245614 0.0002575991756826379 0.955435342606904 0.003348789283874293 0.01880473982483257 0.01571354971664091 0.006439979392065948 0.004629629629629631 0.8935185185185188 0.004629629629629631 0.004629629629629631 0.03240740740740743 0.06018518518518521 0.0001056189269117025 0.6876848331220954 0.002640473172792564 0.008977608787494717 0.2960498521335023 0.00454161385720321 0.000186219739292365 0.2169459962756052 0.000186219739292365 0.000186219739292365 0.7823091247672254 0.000186219739292365 0.0002532928064842959 0.9774569402228979 0.0002532928064842959 0.01089159067882473 0.007852077001013175 0.003292806484295847 0.0009861932938856018 0.9950690335305722 0.0009861932938856018 0.0009861932938856018 0.0009861932938856018 0.0009861932938856018 0.1666666666666667 0.1666666666666667 0.1666666666666667 0.1666666666666667 0.1666666666666667 0.1666666666666667 0.1666666666666667 0.1666666666666667 0.1666666666666667 0.1666666666666667 0.1666666666666667 0.1666666666666667 0.001243781094527363 0.06840796019900497 0.8445273631840796 0.01616915422885572 0.06094527363184079 0.008706467661691543 0.007575757575757574 0.007575757575757574 0.8257575757575757 0.007575757575757574 0.05303030303030302 0.09848484848484847 0.0005464480874316939 0.03005464480874316 0.9153005464480873 0.03333333333333333 0.02021857923497268 0.0005464480874316939 0.003787878787878788 0.003787878787878788 0.9583333333333335 0.003787878787878788 0.003787878787878788 0.02651515151515152 0.0001958480219349785 0.007246376811594205 0.9355660007833921 0.0236976106541324 0.02487269878574227 0.008421464943204076 0.002450980392156863 0.002450980392156863 0.8995098039215685 0.03186274509803921 0.01715686274509804 0.04656862745098039 8.055421298533912e-05 0.005397132270017722 0.6317866924440149 0.008297083937489931 0.3514580312550346 0.002980505880457548 4.213009774182676e-05 4.213009774182676e-05 0.07562352544657905 0.00130603302999663 0.9224384900572969 0.0005476912706437479 0.0002255299954894001 0.001578709968425801 0.965042850699143 0.01646368967072621 0.005638249887235003 0.0110509697789806 0.0005973715651135005 0.004181600955794503 0.9540023894862603 0.01135005973715651 0.02210274790919952 0.007765830346475505 0.1666666666666667 0.1666666666666667 0.1666666666666667 0.1666666666666667 0.1666666666666667 0.1666666666666667 0.1666666666666667 0.1666666666666667 0.1666666666666667 0.1666666666666667 0.1666666666666667 0.1666666666666667 0.001089324618736383 0.05991285403050109 0.1122004357298475 0.7657952069716776 0.04030501089324619 0.02069716775599129 0.003875968992248062 0.02713178294573644 0.02713178294573644 0.9341085271317831 0.003875968992248062 0.003875968992248062 0.0005952380952380952 0.04702380952380952 0.03988095238095238 0.8827380952380952 0.02559523809523809 0.004166666666666667 0.003205128205128205 0.02243589743589744 0.04166666666666666 0.9262820512820513 0.003205128205128205 0.003205128205128205 0.000183553597650514 0.01560205580029369 0.01229809104258443 0.9363069016152717 0.01780469897209986 0.01780469897209986 0.00228310502283105 0.00228310502283105 0.01598173515981735 0.9337899543378995 0.02968036529680364 0.01598173515981735 8.296001327360211e-05 0.002074000331840053 0.003567280570764891 0.6416957026713125 0.3480172556827609 0.004562800730048116 4.38365772400491e-05 0.0003068560406803437 4.38365772400491e-05 0.07973873399964933 0.9192968613010697 0.0005698755041206383 0.0002334267040149393 0.001633986928104575 0.001633986928104575 0.9778244631185808 0.008636788048552757 0.01003734827264239 0.000529100529100529 0.000529100529100529 0.000529100529100529 0.9814814814814814 0.006878306878306877 0.01005291005291005 0.1666666666666667 0.1666666666666667 0.1666666666666667 0.1666666666666667 0.1666666666666667 0.1666666666666667 0.1666666666666667 0.1666666666666667 0.1666666666666667 0.1666666666666667 0.1666666666666667 0.1666666666666667 0.001488095238095238 0.02827380952380952 0.03720238095238095 0.01041666666666667 0.9032738095238095 0.01934523809523809 0.0008635578583765114 0.02158894645941279 0.02158894645941279 0.01640759930915371 0.9335060449050088 0.00604490500863558 0.0007374631268436579 0.01843657817109145 0.02728613569321535 0.009587020648967553 0.9387905604719765 0.005162241887905606 0.001016260162601626 0.001016260162601626 0.007113821138211384 0.01321138211382114 0.970528455284553 0.007113821138211384 0.0002608242044861764 0.009650495565988525 0.00652060511215441 0.00652060511215441 0.9720918101199792 0.004955659885237351 0.0007440476190476191 0.009672619047619048 0.0230654761904762 0.08110119047619049 0.7953869047619049 0.09002976190476192 8.841732979664013e-05 0.001149425287356322 0.001679929266136163 0.003801945181255526 0.9921308576480989 0.001149425287356322 3.976775630318936e-05 0.00123280044539887 0.0005169808319414617 0.003380259285771096 0.9878708343275271 0.006959357353058139 0.0002340823970037453 0.0002340823970037453 0.001638576779026218 0.005852059925093634 0.9875936329588015 0.004447565543071162 0.0002201673271686482 0.001541171290180538 0.001541171290180538 0.02664024658740644 0.9407749889916338 0.02928225451343021 0.1666666666666667 0.1666666666666667 0.1666666666666667 0.1666666666666667 0.1666666666666667 0.1666666666666667 0.1666666666666667 0.1666666666666667 0.1666666666666667 0.1666666666666667 0.1666666666666667 0.1666666666666667 0.001811594202898551 0.001811594202898551 0.001811594202898551 0.01268115942028986 0.01268115942028986 0.9692028985507246 0.00102880658436214 0.00720164609053498 0.01337448559670782 0.00720164609053498 0.00720164609053498 0.963991769547325 0.00101010101010101 0.00101010101010101 0.007070707070707071 0.00101010101010101 0.00101010101010101 0.9888888888888888 0.001016260162601626 0.007113821138211383 0.04979674796747968 0.02540650406504065 0.02540650406504065 0.891260162601626 0.0003538570417551309 0.0003538570417551309 0.0003538570417551309 0.0003538570417551309 0.0003538570417551309 0.9982307147912244 0.0007246376811594203 0.01376811594202899 0.005072463768115943 0.05289855072463768 0.07898550724637682 0.8485507246376811 0.0001025010250102501 0.0001025010250102501 0.0001025010250102501 0.0001025010250102501 0.4010865108651087 0.5985034850348503 3.979624323463864e-05 0.0007561286214581343 0.0007561286214581343 0.004337790512575613 0.8398201209805793 0.154290035020694 0.0002354048964218456 0.0002354048964218456 0.0002354048964218456 0.0002354048964218456 0.0002354048964218456 0.9988229755178907 0.0002579979360165118 0.001805985552115583 0.001805985552115583 0.02657378740970073 0.02657378740970073 0.9429824561403509 0.1666666666666667 0.1666666666666667 0.1666666666666667 0.1666666666666667 0.1666666666666667 0.1666666666666667 0.1666666666666667 0.1666666666666667 0.1666666666666667 0.1666666666666667 0.1666666666666667 0.1666666666666667 0.1666666666666667 0.1666666666666667 0.1666666666666667 0.1666666666666667 0.1666666666666667 0.1666666666666667 0.08333333333333333 0.08333333333333333 0.08333333333333333 0.08333333333333333 0.5833333333333334 0.08333333333333333 0.04166666666666666 0.2916666666666667 0.04166666666666666 0.5416666666666666 0.04166666666666666 0.04166666666666666 0.08333333333333333 0.08333333333333333 0.5833333333333334 0.08333333333333333 0.08333333333333333 0.08333333333333333 0.02777777777777778 0.02777777777777778 0.02777777777777778 0.02777777777777778 0.5277777777777777 0.361111111111111 0.02777777777777778 0.02777777777777778 0.1944444444444444 0.1944444444444444 0.1944444444444444 0.361111111111111 0.04166666666666667 0.04166666666666667 0.2916666666666667 0.04166666666666667 0.5416666666666667 0.04166666666666667 0.02083333333333333 0.02083333333333333 0.1458333333333333 0.2708333333333333 0.3958333333333333 0.1458333333333333 0.08333333333333333 0.08333333333333333 0.08333333333333333 0.08333333333333333 0.08333333333333333 0.5833333333333334 0.04166666666666666 0.04166666666666666 0.04166666666666666 0.2916666666666667 0.04166666666666666 0.5416666666666666 0.1666666666666667 0.1666666666666667 0.1666666666666667 0.1666666666666667 0.1666666666666667 0.1666666666666667 0.1666666666666667 0.1666666666666667 0.1666666666666667 0.1666666666666667 0.1666666666666667 0.1666666666666667 0.001893939393939393 0.7973484848484846 0.08143939393939392 0.04734848484848484 0.0587121212121212 0.01325757575757575 0.01282051282051282 0.9358974358974361 0.01282051282051282 0.01282051282051282 0.01282051282051282 0.01282051282051282 0.001718213058419243 0.7852233676975943 0.07388316151202746 0.04295532646048109 0.08419243986254292 0.01202749140893471 0.007575757575757573 0.9621212121212119 0.007575757575757573 0.007575757575757573 0.007575757575757573 0.007575757575757573 0.001474926253687315 0.7182890855457226 0.04572271386430678 0.08112094395280234 0.1165191740412979 0.03687315634218288 0.006666666666666664 0.9266666666666664 0.006666666666666664 0.006666666666666664 0.006666666666666664 0.04666666666666665 0.0002604166666666667 0.9502604166666669 0.008072916666666669 0.01432291666666667 0.01588541666666667 0.01119791666666667 0.0008680555555555557 0.9904513888888891 0.0008680555555555557 0.006076388888888891 0.0008680555555555557 0.0008680555555555557 0.000206782464846981 0.7148469809760134 0.002688172043010753 0.008891645988420186 0.001447477253928867 0.2719189412737801 0.000195160031225605 0.2191647150663544 0.000195160031225605 0.001366120218579235 0.000195160031225605 0.7788836846213897 0.1666666666666667 0.1666666666666667 0.1666666666666667 0.1666666666666667 0.1666666666666667 0.1666666666666667 0.1666666666666667 0.1666666666666667 0.1666666666666667 0.1666666666666667 0.1666666666666667 0.1666666666666667 0.001344086021505376 0.04166666666666667 0.7594086021505376 0.08198924731182795 0.0900537634408602 0.02553763440860215 0.004385964912280702 0.004385964912280702 0.9780701754385966 0.004385964912280702 0.004385964912280702 0.004385964912280702 0.001355013550135501 0.02574525745257452 0.7899728997289972 0.05826558265582656 0.1070460704607046 0.01761517615176151 0.003623188405797102 0.003623188405797102 0.9384057971014493 0.003623188405797102 0.04710144927536232 0.003623188405797102 0.001225490196078431 0.04534313725490196 0.5968137254901961 0.08946078431372548 0.1997549019607843 0.06740196078431372 0.003333333333333334 0.02333333333333334 0.8233333333333335 0.02333333333333334 0.06333333333333334 0.06333333333333334 0.0002240143369175627 0.006944444444444446 0.9504928315412187 0.02038530465949821 0.01366487455197133 0.008288530465949823 0.0006485084306095979 0.0006485084306095979 0.9617380025940337 0.004539559014267186 0.01621271076523995 0.01621271076523995 0.0001477541371158392 0.0001477541371158392 0.5976654846335697 0.008126477541371158 0.009013002364066193 0.3848995271867612 4.919323101141283e-05 4.919323101141283e-05 0.07620031483667848 0.0006395120031483667 0.0006395120031483667 0.9224222746950019 0.1666666666666667 0.1666666666666667 0.1666666666666667 0.1666666666666667 0.1666666666666667 0.1666666666666667 0.1666666666666667 0.1666666666666667 0.1666666666666667 0.1666666666666667 0.1666666666666667 0.1666666666666667 0.001529051987767584 0.07492354740061161 0.08409785932721711 0.6620795107033639 0.1666666666666667 0.01070336391437309 0.003787878787878788 0.02651515151515152 0.003787878787878788 0.9583333333333335 0.003787878787878788 0.003787878787878788 0.001461988304093567 0.097953216374269 0.06286549707602339 0.7558479532163742 0.07163742690058479 0.01023391812865497 0.003267973856209151 0.003267973856209151 0.02287581699346406 0.9640522875816995 0.003267973856209151 0.003267973856209151 0.001133786848072562 0.03514739229024944 0.0691609977324263 0.6950113378684807 0.1303854875283447 0.0691609977324263 0.003267973856209151 0.02287581699346406 0.02287581699346406 0.866013071895425 0.04248366013071896 0.04248366013071896 0.000209643605870021 0.009014675052410904 0.02033542976939204 0.9373165618448638 0.02033542976939204 0.01278825995807128 0.0005257623554153521 0.003680336487907465 0.0005257623554153521 0.9847528916929547 0.009989484752891692 0.0005257623554153521 0.0001476232654266312 0.001033362857986419 0.001919102450546206 0.6139651609093593 0.00723354000590493 0.3757012105107765 4.753755466818786e-05 4.753755466818786e-05 4.753755466818786e-05 0.08447423464536984 0.0003327628826773151 0.9150503898079482 0.1666666666666667 0.1666666666666667 0.1666666666666667 0.1666666666666667 0.1666666666666667 0.1666666666666667 0.1666666666666667 0.1666666666666667 0.1666666666666667 0.1666666666666667 0.1666666666666667 0.1666666666666667 0.001666666666666666 0.02166666666666666 0.02166666666666666 0.08166666666666665 0.8716666666666666 0.001666666666666666 0.0009980039920159682 0.0009980039920159682 0.01297405189620759 0.02495009980039921 0.941117764471058 0.01896207584830339 0.00196078431372549 0.03725490196078431 0.01372549019607843 0.02549019607843137 0.9078431372549018 0.01372549019607843 0.001054852320675106 0.00738396624472574 0.01371308016877637 0.001054852320675106 0.969409282700422 0.00738396624472574 0.001388888888888889 0.04305555555555555 0.05138888888888888 0.07638888888888887 0.8180555555555554 0.009722222222222221 0.0007751937984496125 0.01007751937984496 0.01937984496124031 0.07519379844961242 0.8054263565891474 0.08914728682170545 0.0002334267040149393 0.004435107376283848 0.01143790849673203 0.01143790849673203 0.9694211017740431 0.003034547152194212 0.0002204585537918871 0.004188712522045856 0.00154320987654321 0.01741622574955909 0.9618606701940036 0.01477072310405644 0.0001481481481481481 0.0001481481481481481 0.0001481481481481481 0.001037037037037037 0.6410370370370371 0.3574814814814815 4.208754208754208e-05 0.0007996632996632996 0.001557239057239057 0.006102693602693603 0.1702441077441077 0.8212542087542087 0.1666666666666667 0.1666666666666667 0.1666666666666667 0.1666666666666667 0.1666666666666667 0.1666666666666667 0.1666666666666667 0.1666666666666667 0.1666666666666667 0.1666666666666667 0.1666666666666667 0.1666666666666667 0.002314814814814815 0.002314814814814815 0.002314814814814815 0.002314814814814815 0.002314814814814815 0.9884259259259259 0.0012531328320802 0.01629072681704261 0.03132832080200501 0.03884711779448621 0.01629072681704261 0.8959899749373433 0.00228310502283105 0.00228310502283105 0.00228310502283105 0.00228310502283105 0.00228310502283105 0.9885844748858448 0.001048218029350105 0.01991614255765199 0.007337526205450735 0.007337526205450735 0.01362683438155136 0.950733752620545 0.00228310502283105 0.00228310502283105 0.00228310502283105 0.00228310502283105 0.01598173515981735 0.9748858447488584 0.0008503401360544216 0.005952380952380952 0.02636054421768707 0.1130952380952381 0.1079931972789116 0.7457482993197277 0.0002405002405002405 0.0002405002405002405 0.0002405002405002405 0.0002405002405002405 0.003126503126503126 0.9959114959114959 0.0002465483234714004 0.003205128205128205 0.004684418145956607 0.03279092702169625 0.01503944773175542 0.944033530571992 0.0001523461304082876 0.0001523461304082876 0.0001523461304082876 0.0001523461304082876 0.0001523461304082876 0.9992382693479587 4.389430251953297e-05 0.0008339917478711263 0.0008339917478711263 0.002414186638574313 0.004521113159511896 0.991352822403652</probabilities>
		</cpt>
		<cpt id="Type_of_Travel" target="true" diagtype="observation" ranked="true">
			<state id="Business" />
			<state id="Personal" />
			<parents>Customer_Type Food_and_Drink In_flight_Entertainment Satisfaction</parents>
			<probabilities>0.5 0.5 0.5 0.5 0.5 0.5 0.8333333333333333 0.1666666666666667 0.8333333333333333 0.1666666666666667 0.75 0.25 0.875 0.125 0.9375 0.0625 0.75 0.25 0.9444444444444444 0.05555555555555555 0.75 0.25 0.9375 0.0625 0.5 0.5 0.5 0.5 0.9902392947103275 0.009760705289672544 0.9966254218222723 0.003374578177727784 0.9791666666666666 0.02083333333333333 0.5 0.5 0.9888888888888889 0.01111111111111111 0.75 0.25 0.9888888888888889 0.01111111111111111 0.5 0.5 0.9705882352941176 0.02941176470588235 0.75 0.25 0.5 0.5 0.5 0.5 0.9912280701754386 0.008771929824561403 0.5 0.5 0.9894496720844027 0.01055032791559738 0.9923404255319149 0.007659574468085106 0.984375 0.015625 0.5 0.5 0.9909090909090909 0.00909090909090909 0.5 0.5 0.9814814814814814 0.01851851851851852 0.5 0.5 0.5 0.5 0.5 0.5 0.9913793103448276 0.008620689655172414 0.8333333333333333 0.1666666666666667 0.9878048780487805 0.01219512195121951 0.8333333333333333 0.1666666666666667 0.9931205283434232 0.006879471656576775 0.9937777777777779 0.006222222222222223 0.9696969696969697 0.0303030303030303 0.75 0.25 0.9807692307692308 0.01923076923076923 0.8333333333333333 0.1666666666666667 0.5 0.5 0.5 0.5 0.96875 0.03125 0.8333333333333333 0.1666666666666667 0.96875 0.03125 0.9 0.1 0.9848484848484849 0.01515151515151515 0.9750000000000001 0.025 0.9904865452568633 0.009513454743136722 0.9916736053288926 0.00832639467110741 0.9615384615384616 0.03846153846153846 0.9833333333333333 0.01666666666666667 0.5 0.5 0.5 0.5 0.875 0.125 0.9285714285714285 0.07142857142857142 0.875 0.125 0.9 0.1 0.5 0.5 0.98 0.02 0.875 0.125 0.9807692307692308 0.01923076923076923 0.9890773210692727 0.01092267893072722 0.9974204643164231 0.002579535683576956 0.9642857142857142 0.03571428571428571 0.5 0.5 0.2 0.8 0.6000000000000001 0.4 0.25 0.75 0.4 0.6000000000000001 0.3076923076923077 0.6923076923076923 0.25 0.75 0.2 0.8 0.5 0.5 0.04545454545454546 0.9545454545454546 0.3333333333333333 0.6666666666666666 0.8333333333333333 0.1666666666666667 0.5 0.5 0.3133853714946517 0.6866146285053484 0.1954022988505747 0.8045977011494253 0.7621247113163973 0.2378752886836028 0.7654320987654321 0.2345679012345679 0.6974248927038627 0.3025751072961373 0.8658536585365854 0.1341463414634146 0.5555555555555556 0.4444444444444444 0.972934472934473 0.02706552706552707 0.09615384615384616 0.9038461538461539 0.9745889387144993 0.02541106128550075 0.75 0.25 0.5 0.5 0.5097588978185993 0.4902411021814007 0.7166666666666667 0.2833333333333333 0.3897058823529412 0.6102941176470589 0.6297142857142858 0.3702857142857143 0.5368331922099915 0.4631668077900085 0.94140625 0.05859375 0.4281115879828326 0.5718884120171673 0.986420423682781 0.0135795763172189 0.05394990366088632 0.9460500963391136 0.987012987012987 0.01298701298701299 0.5 0.5 0.5 0.5 0.5105672969966629 0.489432703003337 0.6713286713286714 0.3286713286713286 0.5991803278688524 0.4008196721311476 0.8996062992125984 0.1003937007874016 0.3782779488268393 0.6217220511731606 0.741640127388535 0.258359872611465 0.3941441441441441 0.6058558558558559 0.9869243888573053 0.01307561114269471 0.038 0.962 0.9885555211877514 0.01144447881224869 0.8333333333333333 0.1666666666666667 0.5 0.5 0.5039893617021276 0.4960106382978723 0.7202072538860104 0.2797927461139896 0.6064030131826742 0.3935969868173258 0.9113043478260869 0.08869565217391305 0.5906593406593407 0.4093406593406593 0.935064935064935 0.06493506493506493 0.2137064071370641 0.786293592862936 0.9306520161708304 0.06934798382916969 0.04618937644341801 0.953810623556582 0.9864825999424791 0.01351740005752085 0.5 0.5 0.5 0.5 0.5223665223665224 0.4776334776334776 0.7425149700598803 0.2574850299401198 0.6092843326885881 0.390715667311412 0.911816578483245 0.08818342151675485 0.5940803382663848 0.4059196617336153 0.9434156378600824 0.0565843621399177 0.4045801526717557 0.5954198473282443 0.984569572279372 0.01543042772062805 0.02682926829268293 0.973170731707317 0.9258457683107415 0.07415423168925846</probabilities>
		</cpt>
		<cpt id="Discreted_Arrival_delay" target="true" diagtype="observation" ranked="true">
			<state id="S_0_15_" />
			<state id="S_15_60_" />
			<state id="S_200__" />
			<state id="S_60_200_" />
			<parents>Class Satisfaction</parents>
			<probabilities>0.7330736021901654 0.1827419185005791 0.009266084026534695 0.07491839528272086 0.7929388870870593 0.1469906871148589 0.00616225733215957 0.05390816846592225 0.75045391208884 0.1717476671029853 0.008297090740193388 0.06950133006798125 0.8382527643242255 0.1081970209266198 0.00639678333181029 0.04715343141734442 0.7357586012408348 0.1816130851663847 0.007473209249858997 0.07515510434292161 0.8413109098749462 0.1073738680465718 0.00474342388960759 0.04657179818887452</probabilities>
		</cpt>
		<cpt id="Ease_of_Online_Booking" target="true" diagtype="observation" ranked="true">
			<state id="State0" />
			<state id="State1" />
			<state id="State2" />
			<state id="State3" />
			<state id="State4" />
			<state id="State5" />
			<parents>Customer_Type Class Satisfaction Discreted_Arrival_delay</parents>
			<probabilities>0.01244526388568795 0.199815625720212 0.3182761004839825 0.3263424752247062 0.1350541599446877 0.008066374740723669 0.01974448315911731 0.1823461091753775 0.3333333333333333 0.3170731707317073 0.1428571428571428 0.004645760743321719 0.004901960784313726 0.1225490196078432 0.2401960784313726 0.3872549019607844 0.2107843137254903 0.03431372549019609 0.01785714285714286 0.1845238095238095 0.3541666666666666 0.2946428571428572 0.1369047619047619 0.0119047619047619 0.1517455928102316 0.01106118216384376 0.01935706878672658 0.0473556861389561 0.3771171793985482 0.3933632907016937 0.1335807050092764 0.005565862708719851 0.01669758812615955 0.06307977736549165 0.3858998144712431 0.3951762523191095 0.06989247311827956 0.005376344086021505 0.005376344086021505 0.03763440860215054 0.521505376344086 0.3602150537634408 0.105 0.01 0.015 0.04 0.4 0.43 0.01353070429050538 0.1983346825488609 0.3204579622990633 0.3201110211634093 0.1386608072163756 0.00890482248178559 0.01713166911404797 0.1972589329417523 0.315712187958884 0.306412139011258 0.1546744982868331 0.00881057268722467 0.02061855670103093 0.1649484536082474 0.3505154639175257 0.288659793814433 0.1649484536082474 0.01030927835051546 0.01360544217687075 0.2086167800453515 0.336734693877551 0.3287981859410431 0.1077097505668934 0.00453514739229025 0.1511985248924401 0.01475107559926244 0.01659496004917025 0.04732636754763368 0.3847572218807621 0.3853718500307314 0.1271186440677966 0.00423728813559322 0.008474576271186441 0.04661016949152542 0.461864406779661 0.3516949152542373 0.01666666666666667 0.01666666666666667 0.01666666666666667 0.1166666666666667 0.2166666666666667 0.6166666666666667 0.1719858156028369 0.0124113475177305 0.001773049645390071 0.02304964539007092 0.4273049645390071 0.3634751773049645 0.02236421725239617 0.1980830670926517 0.3242811501597444 0.3019169329073482 0.1501597444089457 0.003194888178913738 0.0273972602739726 0.1780821917808219 0.3561643835616438 0.2945205479452054 0.1301369863013699 0.0136986301369863 0.02777777777777777 0.1944444444444444 0.361111111111111 0.1944444444444444 0.1944444444444444 0.02777777777777777 0.002525252525252525 0.2146464646464646 0.3661616161616161 0.3510101010101009 0.06313131313131312 0.002525252525252525 0.2412935323383084 0.002487562189054725 0.01741293532338308 0.04726368159203979 0.2412935323383084 0.4502487562189054 0.2916666666666666 0.04166666666666666 0.04166666666666666 0.04166666666666666 0.2916666666666666 0.2916666666666666 0.08333333333333333 0.08333333333333333 0.08333333333333333 0.08333333333333333 0.08333333333333333 0.5833333333333334 0.04166666666666666 0.2916666666666666 0.04166666666666666 0.04166666666666666 0.2916666666666666 0.2916666666666666 0.01554512258737611 0.1719353155972874 0.223056859676578 0.2269170579029734 0.1963484611371935 0.1661971830985915 0.01417624521072797 0.1804597701149425 0.2080459770114943 0.2252873563218391 0.2 0.1720306513409962 0.02797202797202797 0.1328671328671329 0.2097902097902098 0.1958041958041958 0.1958041958041958 0.2377622377622378 0.015639374425023 0.1655933762649494 0.2327506899724011 0.2115915363385465 0.1858325666973321 0.1885924563017479 0.04697622466890059 0.1738630923887027 0.1903622147758098 0.1932344024254029 0.2033189723950854 0.1922450933460986 0.04030313468825353 0.1760248019290389 0.1956596624181881 0.1942817774715811 0.1951429555632105 0.1985876679297279 0.05932203389830509 0.1525423728813559 0.1652542372881356 0.2161016949152542 0.2330508474576271 0.173728813559322 0.04137282557592854 0.1645510108133521 0.1965209214856606 0.1951104842501175 0.1984015044663846 0.2040432534085566 0.03505706531841332 0.1821257295810253 0.2950295550020447 0.2929105171195955 0.1487415889066508 0.04613554407227034 0.03282994090610637 0.1843401181877873 0.2838148391332895 0.2936638214051214 0.1529875246224557 0.05236375574523965 0.04054054054054054 0.1790540540540541 0.3310810810810811 0.2736486486486487 0.125 0.05067567567567568 0.03817427385892116 0.195850622406639 0.2817427385892116 0.2900414937759336 0.1443983402489626 0.04979253112033195 0.105883912006361 0.1135701033660217 0.1207262125629472 0.1292075271667108 0.2617280678505168 0.2688841770474423 0.06540084388185653 0.129746835443038 0.1518987341772152 0.1445147679324894 0.2732067510548523 0.2352320675105485 0.01639344262295082 0.1967213114754098 0.2459016393442623 0.1639344262295082 0.1639344262295082 0.2131147540983607 0.0851063829787234 0.1418439716312057 0.1513002364066194 0.1465721040189125 0.2198581560283688 0.2553191489361702 0.03027003484320558 0.1783536585365854 0.2767857142857143 0.2767857142857143 0.1611498257839721 0.07665505226480836 0.02276707530647986 0.191768826619965 0.2688266199649738 0.276707530647986 0.1549912434325744 0.08493870402802102 0.003401360544217687 0.227891156462585 0.2482993197278912 0.3095238095238095 0.1054421768707483 0.1054421768707483 0.04273504273504274 0.2008547008547009 0.2393162393162394 0.2735042735042735 0.1474358974358974 0.09615384615384616 0.109814323607427 0.1448275862068965 0.1427055702917772 0.1374005305039788 0.2159151193633952 0.2493368700265252 0.05691056910569106 0.1585365853658537 0.1788617886178862 0.1626016260162602 0.2276422764227642 0.2154471544715447 0.1 0.2 0.1 0.1 0.4 0.1 0.1047619047619048 0.180952380952381 0.1523809523809524 0.1714285714285714 0.1904761904761905 0.2</probabilities>
		</cpt>
		<cpt id="Gate_Location" target="true" diagtype="observation" ranked="true">
			<state id="State0" />
			<state id="State1" />
			<state id="State2" />
			<state id="State3" />
			<state id="State4" />
			<state id="State5" />
			<parents>Ease_of_Online_Booking On_board_Service Satisfaction</parents>
			<probabilities>0.1666666666666667 0.1666666666666667 0.1666666666666667 0.1666666666666667 0.1666666666666667 0.1666666666666667 0.1666666666666667 0.1666666666666667 0.1666666666666667 0.1666666666666667 0.1666666666666667 0.1666666666666667 0.0005889281507656064 0.09952885747938749 0.1313309776207302 0.3998822143698468 0.3398115429917549 0.02885747938751471 0.00033003300330033 0.1825082508250825 0.1805280528052805 0.2775577557755776 0.2953795379537953 0.06369636963696369 0.0005910165484633569 0.07860520094562647 0.16725768321513 0.4119385342789598 0.3126477541371158 0.02895981087470448 0.0002873563218390805 0.1795977011494253 0.2037356321839081 0.3261494252873564 0.217528735632184 0.07270114942528737 0.0003561253561253561 0.1371082621082621 0.1691595441595442 0.3486467236467237 0.2888176638176638 0.05591168091168092 0.0001855976243504083 0.2106533036377135 0.2084261321455086 0.2674461766889384 0.2284706755753527 0.08481811432813662 0.0003367003367003368 0.1316498316498317 0.1821548821548822 0.3478114478114478 0.2811447811447812 0.05690235690235692 0.0001823486506199854 0.1927425237053246 0.1850838803792852 0.2923048869438366 0.2452589350838804 0.08442742523705325 0.0004420866489832006 0.2073386383731211 0.2099911582670203 0.3346595932802829 0.1834659593280283 0.0641025641025641 0.0001872659176029963 0.2147940074906367 0.1900749063670412 0.2541198501872659 0.2271535580524345 0.1136704119850187 0.1666666666666667 0.1666666666666667 0.1666666666666667 0.1666666666666667 0.1666666666666667 0.1666666666666667 0.1666666666666667 0.1666666666666667 0.1666666666666667 0.1666666666666667 0.1666666666666667 0.1666666666666667 7.548309178743962e-05 0.3809631642512078 0.1087711352657005 0.2695501207729469 0.2097675120772947 0.03087258454106281 0.0005005005005005003 0.8413413413413412 0.03653653653653652 0.03353353353353352 0.07257257257257256 0.01551551551551551 6.444960041247745e-05 0.4084171178138696 0.1002191286414024 0.2460041247744264 0.204240783707141 0.04105439546274813 0.0002556237218813907 0.8514826175869122 0.04166666666666668 0.04166666666666668 0.0355316973415133 0.02939672801635993 4.668534080298786e-05 0.3451447245564893 0.134780578898226 0.257749766573296 0.2039682539682539 0.05830999066293183 0.0001506931886678722 0.8798975286317058 0.02998794454490657 0.04083785412899336 0.0336045810729355 0.01552139843279084 5.050505050505051e-05 0.2945959595959596 0.1391414141414142 0.2830808080808081 0.227020202020202 0.05611111111111112 5.099959200326399e-05 0.9094757241942066 0.02085883312933497 0.02361281109751123 0.02575479396164831 0.0202468380252958 8.671522719389525e-05 0.2123655913978495 0.1941553936871315 0.2852063822407215 0.2113250086715228 0.096860908775581 5.647803004631201e-05 0.919744719304191 0.02140517338755225 0.01971083248616289 0.02004970066644076 0.01903309612560715 0.1666666666666667 0.1666666666666667 0.1666666666666667 0.1666666666666667 0.1666666666666667 0.1666666666666667 0.1666666666666667 0.1666666666666667 0.1666666666666667 0.1666666666666667 0.1666666666666667 0.1666666666666667 5.158361704322708e-05 0.07897451769318066 0.3330754152481173 0.3011967399154029 0.2411534096770866 0.04554833384916951 0.0005020080321285139 0.03363453815261043 0.8559236947791163 0.04568273092369476 0.01857429718875502 0.04568273092369476 4.612971676353908e-05 0.07726727557892796 0.3803395147153797 0.2795922133038103 0.2206384352800074 0.04211643140511118 0.0002401536983669549 0.02905859750240155 0.8446205571565804 0.04058597502401538 0.0463496637848223 0.03914505283381365 2.969826562128771e-05 0.1208422428130197 0.3086540746020432 0.2947552862912806 0.2120753148016156 0.06364338322641958 0.0001313370107696348 0.03007617546624638 0.8496191226687679 0.04741266088783818 0.04347255056474914 0.02928815340162857 3.179448047818897e-05 0.1225041332824621 0.2728284369833396 0.320329390817754 0.2203675441943278 0.06393870024163804 4.71342383107089e-05 0.03737745098039216 0.8603412518853696 0.03313536953242836 0.03681184012066365 0.0322869532428356 5.147210212065061e-05 0.1893658637018736 0.2106753139798229 0.2897364628371423 0.2153078031706815 0.09486308420835908 5.059704513256426e-05 0.03556972272819268 0.8597955879376644 0.04194495041489577 0.03223031774944344 0.03040882412467112 0.05555555555555556 0.05555555555555556 0.05555555555555556 0.7222222222222222 0.05555555555555556 0.05555555555555556 0.1666666666666667 0.1666666666666667 0.1666666666666667 0.1666666666666667 0.1666666666666667 0.1666666666666667 5.112474437627812e-05 0.07275051124744376 0.11140081799591 0.5227505112474439 0.25219836400818 0.04084867075664621 0.0004295532646048109 0.04424398625429553 0.04424398625429553 0.8200171821305841 0.05970790378006872 0.0313573883161512 4.587576841912102e-05 0.07491512982842463 0.1173043398476925 0.5478025506927241 0.2216258372327737 0.03830626662996605 0.0002347417840375587 0.04530516431924883 0.03262910798122066 0.8424882629107983 0.03544600938967137 0.04389671361502349 3.024254521260509e-05 0.1185205346881994 0.1439242726667876 0.4607451763140386 0.215962015363213 0.06081775842254884 0.0001305142260506395 0.04320020882276168 0.06825894022448448 0.7910467240929261 0.04320020882276168 0.05416340381101541 3.136959658698789e-05 0.1349833741138089 0.1534286969069578 0.4191919191919192 0.2236338540686367 0.06873078612209048 4.591368227731865e-05 0.03888888888888889 0.04274563820018366 0.8399908172635446 0.04164370982552801 0.0366850321395776 5.121901249743904e-05 0.1730690432288465 0.1896640032780168 0.3218090555214095 0.2216246670764187 0.09378201188281089 4.8661800486618e-05 0.04004866180048662 0.04442822384428224 0.8438442822384429 0.03771289537712896 0.03391727493917275 0.08333333333333333 0.08333333333333333 0.08333333333333333 0.08333333333333333 0.5833333333333334 0.08333333333333333 0.1666666666666667 0.1666666666666667 0.1666666666666667 0.1666666666666667 0.1666666666666667 0.1666666666666667 8.473140145738009e-05 0.0671920013557024 0.08752753770547363 0.2283511269276393 0.5740552448737501 0.04278935773597695 0.0002612330198537095 0.07236154649947753 0.1021421107628004 0.172675026123302 0.5943051201671892 0.05825496342737722 7.274843590862796e-05 0.0585624909064455 0.0816964935253892 0.2218099810854067 0.6046122508366071 0.03324603521024298 0.0001599488163787588 0.06158029430582214 0.08365323096609086 0.1316378758797185 0.6729046705054382 0.0500639795265515 5.471656817684395e-05 0.1051105274677172 0.1113482162398775 0.2423396804552418 0.4721492667979865 0.06899759247100022 7.400828892835997e-05 0.1004292480757845 0.09954114860864417 0.1563795145056247 0.5888839550029604 0.05469212551805803 6.159152500615915e-05 0.09725301798472533 0.1305124414880513 0.2605937423010594 0.4486942596698695 0.0628849470312885 3.481651695564375e-05 0.06980711649606573 0.06750922637699325 0.09320381589025833 0.7125896525311607 0.05685537218856626 0.0001155001155001155 0.1678216678216678 0.1948486948486948 0.2994917994917994 0.2405867405867406 0.09713559713559712 3.893171377404033e-05 0.07081678735497937 0.07759090555166238 0.08553297516156662 0.7122557034960678 0.0537646967219497 0.05555555555555555 0.05555555555555555 0.05555555555555555 0.05555555555555555 0.05555555555555555 0.7222222222222221 0.1666666666666667 0.1666666666666667 0.1666666666666667 0.1666666666666667 0.1666666666666667 0.1666666666666667 0.0001780626780626781 0.04291310541310542 0.05252849002849003 0.07816951566951569 0.06855413105413107 0.7576566951566952 0.001394700139470014 0.06834030683403068 0.09344490934449093 0.1882845188284519 0.1603905160390516 0.4881450488145049 0.0001318565400843882 0.04522679324894514 0.03731540084388185 0.07212552742616034 0.05551160337552743 0.7896888185654009 0.0001640419947506562 0.08087270341207349 0.08579396325459318 0.1369750656167979 0.09563648293963255 0.6005577427821522 0.0001320655044902272 0.05322239830956155 0.05005282620179609 0.08174854727945062 0.05559957739038564 0.7592445853143159 7.30033581544751e-05 0.130603007738356 0.106949919696306 0.1511899547379179 0.1196525040151847 0.4915316104540809 0.0001730702665282104 0.06663205261336103 0.06663205261336103 0.0925925925925926 0.06247836621668397 0.7114918656974731 3.654169407293722e-05 0.06953884382079954 0.0710735949718629 0.1015493678286925 0.07918585105605497 0.6786158006285171 0.0008291873963515754 0.1301824212271973 0.1053067993366501 0.2346600331674958 0.1998341625207297 0.3291873963515755 3.941974140649637e-05 0.07241406496373384 0.0761983601387575 0.09464679911699779 0.08187480290129297 0.6748265531378114</probabilities>
		</cpt>
		<cpt id="Cleanliness" target="true" diagtype="observation" ranked="true">
			<state id="State0" />
			<state id="State1" />
			<state id="State2" />
			<state id="State3" />
			<state id="State4" />
			<state id="State5" />
			<parents>In_flight_Service In_flight_Entertainment Satisfaction</parents>
			<probabilities>0.02777777777777778 0.1944444444444444 0.1944444444444444 0.361111111111111 0.1944444444444444 0.02777777777777778 0.1666666666666667 0.1666666666666667 0.1666666666666667 0.1666666666666667 0.1666666666666667 0.1666666666666667 0.1666666666666667 0.1666666666666667 0.1666666666666667 0.1666666666666667 0.1666666666666667 0.1666666666666667 0.1666666666666667 0.1666666666666667 0.1666666666666667 0.1666666666666667 0.1666666666666667 0.1666666666666667 0.1666666666666667 0.1666666666666667 0.1666666666666667 0.1666666666666667 0.1666666666666667 0.1666666666666667 0.1666666666666667 0.1666666666666667 0.1666666666666667 0.1666666666666667 0.1666666666666667 0.1666666666666667 0.1666666666666667 0.1666666666666667 0.1666666666666667 0.1666666666666667 0.1666666666666667 0.1666666666666667 0.1666666666666667 0.1666666666666667 0.1666666666666667 0.1666666666666667 0.1666666666666667 0.1666666666666667 0.1666666666666667 0.1666666666666667 0.1666666666666667 0.1666666666666667 0.1666666666666667 0.1666666666666667 0.1666666666666667 0.1666666666666667 0.1666666666666667 0.1666666666666667 0.1666666666666667 0.1666666666666667 0.1666666666666667 0.1666666666666667 0.1666666666666667 0.1666666666666667 0.1666666666666667 0.1666666666666667 0.1666666666666667 0.1666666666666667 0.1666666666666667 0.1666666666666667 0.1666666666666667 0.1666666666666667 0.1666666666666667 0.1666666666666667 0.1666666666666667 0.1666666666666667 0.1666666666666667 0.1666666666666667 0.1666666666666667 0.1666666666666667 0.1666666666666667 0.1666666666666667 0.1666666666666667 0.1666666666666667 4.222616333079976e-05 0.2764546913267461 0.1667511189933283 0.2351575035892239 0.2326239337893759 0.08897052613799511 0.0002637130801687764 0.1853902953586498 0.06197257383966245 0.2455168776371308 0.2708333333333334 0.2360232067510549 0.0002583979328165375 0.04056847545219639 0.8328165374677003 0.04987080103359173 0.04987080103359173 0.02661498708010336 0.0008333333333333335 0.0008333333333333335 0.8408333333333334 0.02083333333333334 0.07583333333333335 0.06083333333333334 0.0002679528403001072 0.03081457663451233 0.04528403001071812 0.8475348338692391 0.04849946409431941 0.02759914255091105 0.0006830601092896175 0.004781420765027323 0.01707650273224044 0.898224043715847 0.03756830601092896 0.04166666666666666 0.001730103806228374 0.04671280276816609 0.06228373702422146 0.05882352941176471 0.8131487889273357 0.01730103806228374 0.0002052545155993432 0.0002052545155993432 0.0002052545155993432 0.002668308702791462 0.9891215106732349 0.0075944170771757 0.0003429355281207133 0.008573388203017835 0.01680384087791495 0.008573388203017835 0.01268861454046639 0.9530178326474624 0.0002364066193853428 0.003073286052009456 0.0016548463356974 0.004491725768321513 0.01583924349881797 0.9747044917257683 0.1666666666666667 0.1666666666666667 0.1666666666666667 0.1666666666666667 0.1666666666666667 0.1666666666666667 0.1666666666666667 0.1666666666666667 0.1666666666666667 0.1666666666666667 0.1666666666666667 0.1666666666666667 0.0001780626780626781 0.877314814814815 0.03116096866096867 0.04398148148148149 0.02795584045584047 0.01940883190883192 0.001302083333333333 0.8216145833333331 0.02473958333333333 0.01692708333333333 0.06380208333333331 0.07161458333333331 2.721977244270237e-05 0.1639991289672818 0.3372802003375251 0.2169143665958952 0.2198541020197071 0.0619249823071479 7.215007215007215e-05 0.05288600288600289 0.1342712842712843 0.2515873015873016 0.2918470418470419 0.2693362193362193 0.0001424501424501424 0.02321937321937322 0.02663817663817663 0.9206552706552705 0.02065527065527065 0.008689458689458687 0.000529100529100529 0.003703703703703703 0.000529100529100529 0.9275132275132274 0.02592592592592592 0.04179894179894179 0.0001582779360557138 0.03244697689142133 0.03054764165875277 0.04479265590376701 0.8776511554289332 0.01440329218106996 0.0002085940759282437 0.0002085940759282437 0.005214851898206092 0.005214851898206092 0.9751773049645391 0.01397580308719233 0.0002295684113865932 0.001606978879706153 0.005739210284664831 0.009871441689623509 0.00436179981634527 0.9781910009182736 0.0002198768689533861 0.001539138082673703 0.006816182937554969 0.004177660510114336 0.005496921723834653 0.9817502198768688 0.9074074074074078 0.01851851851851852 0.01851851851851852 0.01851851851851852 0.01851851851851852 0.01851851851851852 0.1666666666666667 0.1666666666666667 0.1666666666666667 0.1666666666666667 0.1666666666666667 0.1666666666666667 6.339546088500065e-05 0.9559401546849248 0.01413718777735514 0.01489793330797515 0.008811969063015091 0.006149359705845064 0.0008375209380234508 0.8350083752093805 0.01088777219430486 0.02596314907872698 0.08123953098827474 0.0460636515912898 4.835122328594914e-05 0.007010927376462627 0.9701672952325695 0.01194275215162944 0.006140605357315542 0.004690068658737068 0.0005274261603375526 0.003691983122362869 0.8866033755274261 0.01318565400843882 0.04483122362869198 0.05116033755274261 2.005857102740001e-05 0.1168812933766598 0.1185662133429614 0.5552011874674049 0.1608095639266659 0.04852168331528062 4.652894100130281e-05 0.05448538991252559 0.04555183324027545 0.3534803647868975 0.273357528382654 0.2730783547366462 5.899705014749264e-05 0.01386430678466077 0.02377581120943953 0.02271386430678467 0.9289085545722715 0.01067846607669617 0.0001686909581646424 0.007253711201079623 0.01838731443994602 0.01535087719298246 0.8878205128205128 0.07101889338731444 8.250825082508251e-05 0.01047854785478548 0.01047854785478548 0.009983498349834984 0.01443894389438944 0.9545379537953795 0.0001661681621801263 0.01113326686606846 0.01412429378531073 0.02708541043536059 0.06596876038551014 0.8815221003655699 0.8611111111111109 0.02777777777777777 0.02777777777777777 0.02777777777777777 0.02777777777777777 0.02777777777777777 0.1666666666666667 0.1666666666666667 0.1666666666666667 0.1666666666666667 0.1666666666666667 0.1666666666666667 4.223686433519176e-05 0.9714056428450754 0.009672241932758913 0.008911978374725462 0.005617502956580505 0.004350397026524752 0.0002480158730158731 0.9466765873015877 0.006200396825396829 0.007688492063492067 0.02405753968253969 0.01512896825396826 3.462843687235957e-05 0.005644435210194611 0.9782187132072857 0.007929912043770342 0.006267747073897083 0.001904564027979777 0.0001727115716753023 0.001208981001727116 0.9753022452504319 0.004317789291882557 0.01157167530224525 0.007426597582037998 3.410408566946319e-05 0.009242207216424526 0.008628333674374189 0.9640201896187163 0.008832958188390968 0.009242207216424526 0.0001369487811558477 0.004245412215831279 0.01410572445905231 0.8924952067926595 0.03711311969323472 0.05190358805806627 2.230251126276819e-05 0.08218475400330076 0.08151567866541772 0.1161737811677595 0.6658860787724697 0.05421740487978947 9.571393020540209e-06 0.04020942207928942 0.03997970864679645 0.2615383142862612 0.4032715021344206 0.2549914814602117 4.665920119447555e-05 0.007605449794699515 0.004525942515864129 0.005925718551698395 0.006205673758865249 0.9756905561776782 7.032348804500703e-05 0.001336146272855134 0.00639943741209564 0.007243319268635725 0.03340365682137834 0.9515471167369901 0.1666666666666667 0.1666666666666667 0.1666666666666667 0.1666666666666667 0.1666666666666667 0.1666666666666667 0.1666666666666667 0.1666666666666667 0.1666666666666667 0.1666666666666667 0.1666666666666667 0.1666666666666667 8.345852111500582e-05 0.9940744450008343 0.002086463027875146 0.002086463027875146 0.001084960774495076 0.0005842096478050408 0.0002782415136338343 0.955203116304953 0.00194769059543684 0.00194769059543684 0.02198107957707291 0.0186421814134669 7.332453438920664e-05 0.004912743804076845 0.990394485995014 0.001393166153394926 0.0009532189470596862 0.002273060566065406 0.0001881113619262604 0.0001881113619262604 0.97535741158766 0.001316779533483823 0.01486079759217457 0.008088788562829196 7.011639321273314e-05 0.0114289720936755 0.009746178656569909 0.9596830739026785 0.005959893423082317 0.0131117655307811 0.0001423284941645317 0.007828067179049245 0.0120979220039852 0.872046683746086 0.05992029604326787 0.04796470253344719 6.996921354603976e-05 0.007626644276518334 0.008466274839070812 0.008466274839070812 0.9677441925552759 0.007626644276518334 6.728569506123e-05 0.00289328488763289 0.00652671242093931 0.00450814156910241 0.9600995828286908 0.02590499259857355 3.947576188220432e-05 0.05309489973156482 0.05735828201484289 0.1385993999684194 0.1319674719722091 0.6189404705510816 1.062112328999915e-05 0.04034964737870677 0.04449188546180644 0.2540891324666497 0.2614177075367491 0.3996410060327981</probabilities>
		</cpt>
		<cpt id="Departure_and_Arrival_Time_Convenience" target="true" diagtype="observation" ranked="true">
			<state id="State0" />
			<state id="State1" />
			<state id="State2" />
			<state id="State3" />
			<state id="State4" />
			<state id="State5" />
			<parents>Ease_of_Online_Booking Gate_Location Cleanliness Satisfaction</parents>
