<?xml version="1.0" encoding="UTF-8"?>
<!-- This network was created in GeNIe Academic, which can be used for academic teaching and research purposes only -->
<smile version="1.0" id="airline_passenger_satisfaction1" numsamples="10000" discsamples="10000">
	<nodes>
		<cpt id="Gender" target="true" diagtype="observation" ranked="true">
			<state id="Female" />
			<state id="Male" />
			<probabilities>0.5073837388358485 0.4926162611641516</probabilities>
		</cpt>
		<cpt id="Customer_Type" target="true" diagtype="observation" ranked="true">
			<state id="SFirst_time" />
			<state id="Returning" />
			<probabilities>0.1830920850015399 0.8169079149984602</probabilities>
		</cpt>
		<cpt id="Type_of_Travel" target="true" diagtype="observation" ranked="true">
			<state id="Business" />
			<state id="Personal" />
			<probabilities>0.690583615645211 0.3094163843547891</probabilities>
		</cpt>
		<cpt id="Gate_Location" target="true" diagtype="observation" ranked="true">
			<state id="State0" />
			<state id="State1" />
			<state id="State2" />
			<state id="State3" />
			<state id="State4" />
			<state id="State5" />
			<probabilities>7.699414844471821e-06 0.1693178318447798 0.1870649830612874 0.275 0.2345703726516785 0.1340391130274099</probabilities>
		</cpt>
		<cpt id="Online_Boarding" target="true" diagtype="observation" ranked="true">
			<state id="State0" />
			<state id="State1" />
			<state id="State2" />
			<state id="State3" />
			<state id="State4" />
			<state id="State5" />
			<probabilities>0.02371419772097321 0.1021019402525408 0.1688789651986449 0.2087850323375424 0.296181090237142 0.2003387742531568</probabilities>
		</cpt>
		<cpt id="Leg_Room_Service" target="true" diagtype="observation" ranked="true">
			<state id="State0" />
			<state id="State1" />
			<state id="State2" />
			<state id="State3" />
			<state id="State4" />
			<state id="State5" />
			<probabilities>0.004604250076994149 0.09928395441946412 0.1889436402833385 0.1929165383430859 0.2763012011087158 0.2379504157684016</probabilities>
		</cpt>
		<cpt id="In_flight_Service" target="true" diagtype="observation" ranked="true">
			<state id="State0" />
			<state id="State1" />
			<state id="State2" />
			<state id="State3" />
			<state id="State4" />
			<state id="State5" />
			<parents>Online_Boarding Leg_Room_Service</parents>
			<probabilities>0.1666666666666667 0.1666666666666667 0.1666666666666667 0.1666666666666667 0.1666666666666667 0.1666666666666667 0.0004830917874396135 0.1222222222222222 0.1570048309178744 0.2990338164251207 0.3135265700483091 0.1077294685990338 0.0002311604253351826 0.04738788719371243 0.06541840036985667 0.1472491909385113 0.4093851132686084 0.330328247803976 0.000242600679281902 0.04827753517709849 0.09485686559922368 0.1501698204754973 0.403444929645803 0.3030082484230956 0.0002532928064842958 0.07016210739614995 0.07624113475177305 0.1461499493414387 0.3817122593718338 0.3254812563323202 0.0002472799208704253 0.05514342235410485 0.08778437190900099 0.1545499505440159 0.3652324431256182 0.3370425321463897 0.007936507936507936 0.2936507936507937 0.1984126984126984 0.1507936507936508 0.1984126984126984 0.1507936507936508 0.0001071122536418166 0.1235004284490146 0.1305698371893745 0.3484361610968295 0.3362253641816623 0.06116109682947729 6.327512022272843e-05 0.06156669197671476 0.14888635788408 0.2130473297899266 0.3671855226524931 0.2092508225765629 6.04960677555959e-05 0.05559588626739263 0.1002419842710224 0.2915305505142166 0.3590441621294617 0.1935269207501513 5.064316823660489e-05 0.04198318646814545 0.07328066443836727 0.2009014483946116 0.5056720348424998 0.1781120226881394 5.537098560354375e-05 0.03394241417497232 0.05719822812846068 0.2000553709856036 0.3372646733111849 0.371483942414175 0.003030303030303031 0.2393939393939394 0.07575757575757577 0.2030303030303031 0.2393939393939394 0.2393939393939394 0.0003766478342749529 0.1664783427495292 0.1265536723163842 0.343879472693032 0.3032015065913371 0.05951035781544256 3.560492772199671e-05 0.05173395998006122 0.1931567328918322 0.2230648721783094 0.3332977284056113 0.1987111016164637 3.404139433551197e-05 0.05150462962962962 0.09337554466230935 0.3133510348583877 0.3478690087145969 0.1938657407407407 3.253937264089548e-05 0.0461082910321489 0.07734608876740857 0.2132305089157881 0.4584472211375765 0.2048353507744371 3.679175864606328e-05 0.03601913171449595 0.07200147167034585 0.2048933038999264 0.3547829286239882 0.3322663723325975 0.00101010101010101 0.1767676767676768 0.201010101010101 0.1767676767676768 0.2191919191919192 0.2252525252525252 0.0005709391949757351 0.2769055095632315 0.1307450756494433 0.297459320582358 0.2318013131601485 0.06251784184984299 2.710027100271002e-05 0.06506775067750677 0.2987262872628726 0.1881571815718157 0.2715718157181571 0.176449864498645 2.714440825190011e-05 0.05312160694896852 0.09514115092290988 0.3876492942453855 0.2982356134636265 0.1658251900108578 2.714882988543194e-05 0.0435195743063474 0.0725145246239887 0.1881685399359288 0.5071129934299831 0.1886572188738666 3.316749585406301e-05 0.04023217247097844 0.06470978441127695 0.1876948590381426 0.33893864013267 0.3683913764510779 0.0007507507507507509 0.225975975975976 0.2034534534534535 0.180930930930931 0.1854354354354354 0.2034534534534535 0.0006073489219556636 0.3170361372608564 0.155177649559672 0.2089280291527483 0.2007288187063468 0.1175220163984209 2.451340883463254e-05 0.08650781977741824 0.3430161298230132 0.1375447369711232 0.2384419277344708 0.19446487228514 2.439500390320062e-05 0.07203844652615145 0.1016051912568306 0.3662421935987509 0.2651005074160812 0.1949892661982826 1.439138819330513e-05 0.03515816135624442 0.03887113951011715 0.115462107474887 0.6634286043231731 0.1470655959473851 1.71010329023873e-05 0.029362473493399 0.03418496477187222 0.07430398796087283 0.209641562350366 0.6524899103905876 0.00119047619047619 0.2154761904761905 0.2369047619047619 0.1583333333333333 0.1583333333333333 0.2297619047619048 0.0001078050884001725 0.2277921517895645 0.1922164726175075 0.2174428633031479 0.181867184131091 0.1805735230702889 4.680333239726669e-05 0.1031077412711785 0.2864831976036694 0.1224843208836469 0.246045118412431 0.241832818496677 4.442075337597726e-05 0.08533226723525231 0.1154495380241649 0.3062810945273632 0.263637171286425 0.2292555081734186 1.83130058967879e-05 0.02836684613412446 0.02957550452331246 0.09890854484855144 0.7040068856902172 0.1391239057978977 2.102784086130036e-05 0.02285726301623349 0.02815627891328118 0.04228698797207503 0.1700942047270586 0.7365842375304904</probabilities>
		</cpt>
		<cpt id="Baggage_Handling" target="true" diagtype="observation" ranked="true">
			<state id="State1" />
			<state id="State2" />
			<state id="State3" />
			<state id="State4" />
			<state id="State5" />
			<parents>In_flight_Service</parents>
			<probabilities>0.03333333333333333 0.6999999999999998 0.2 0.03333333333333333 0.03333333333333333 0.515572105619499 0.1299932295192959 0.1268336718573685 0.1311216429699842 0.0964793500338524 0.1009924517752306 0.5908582611126643 0.1566256639642158 0.08687447581772435 0.06464914733016494 0.04554431979775636 0.09863327539895718 0.5462948333069996 0.2533575604360879 0.05617001106019908 0.01986349132557108 0.02905563890708535 0.1458698730004438 0.6216850157428735 0.1835259810240264 0.02703575412434685 0.02583220806669406 0.05142957787823636 0.2501614513004168 0.6455410086303058</probabilities>
		</cpt>
		<cpt id="Seat_Comfort" target="true" diagtype="observation" ranked="true">
			<state id="State0" />
			<state id="State1" />
			<state id="State2" />
			<state id="State3" />
			<state id="State4" />
			<state id="State5" />
			<parents>Online_Boarding Baggage_Handling</parents>
			<probabilities>0.0007440476190476191 0.1614583333333333 0.2507440476190476 0.2328869047619048 0.1882440476190476 0.1659226190476191 0.0005482456140350877 0.1617324561403509 0.1617324561403509 0.2538377192982456 0.1847587719298245 0.237390350877193 0.0003168567807351077 0.1714195183776933 0.2284537389100127 0.2151457541191382 0.2151457541191382 0.1695183776932827 0.0001494768310911809 0.1920777279521674 0.198355754857997 0.2046337817638266 0.2037369207772795 0.2010463378176383 0.0001819505094614265 0.177037845705968 0.1988719068413392 0.2272561863173217 0.2086972343522562 0.1879548762736536 0.0002216312056737589 0.3047429078014185 0.2329343971631206 0.1504875886524823 0.1491578014184397 0.1624556737588653 0.0001245640259093174 0.3461634280019931 0.2064025909317389 0.1518435475834579 0.1682859990034878 0.1271798704534131 4.988526389304599e-05 0.3918487478798763 0.1700588646113938 0.1470118726928066 0.1449166916092986 0.1461139379427317 3.37108953613808e-05 0.3224447141316074 0.1788362998921251 0.17236380798274 0.1721615426105717 0.1541599244875944 5.765017871555403e-05 0.2300818632537761 0.2020638763980169 0.1923786463738038 0.1882278335062839 0.1871901302894039 0.0001196458482890644 0.1523091648719789 0.3554678152668102 0.2291217994735583 0.1530270399617133 0.1099545345776501 6.736728644570198e-05 0.1423470762597683 0.3933575855564538 0.2328887092427917 0.126583131231474 0.1047561304230666 2.904612524689206e-05 0.1530440339258743 0.413064947136052 0.1774427791332636 0.1345706982688509 0.1218484954107122 2.109170674090947e-05 0.1760524761663714 0.3376571332152197 0.1808613853032987 0.1536530836075255 0.1517548300008437 3.760529482551143e-05 0.1897939229843562 0.2572578219013237 0.1976910348977136 0.1807686522262335 0.1744509626955475 7.648768548263732e-05 0.07488144408750193 0.1304115037478966 0.4131099892917241 0.2919534954872266 0.08956707970016829 4.45990545000446e-05 0.07791454821157792 0.1378556774596378 0.4279279279279279 0.2778075104807778 0.07844973686557845 2.442718256876252e-05 0.1046704773071474 0.1568469392740242 0.4124529776735551 0.2140065464849284 0.1119986320777761 1.838776110620771e-05 0.1327412474257135 0.1567924389526331 0.3492019711679906 0.2076529861724037 0.153592968520153 3.133421069123268e-05 0.1624678824340414 0.1709281193206743 0.2544024566021182 0.2175534248292285 0.1946167826032462 5.815305885089555e-05 0.04437078390323331 0.03739241684112584 0.2212723889276576 0.5314608048383345 0.1654454524307979 3.815628815628816e-05 0.03941544566544566 0.04468101343101343 0.2081425518925519 0.5261370573870574 0.1815857753357753 0.000157952930026852 0.06049597220028431 0.07392197125256673 0.1917548570525983 0.4711735902700995 0.2024956562944243 1.208254796771543e-05 0.06540283214924364 0.06591029916388769 0.1020129524914214 0.4702890145473878 0.2963728191000918 1.499745043342632e-05 0.06156453402921503 0.0629143045682234 0.08532049551576232 0.4671255886499295 0.3230600797864363 0.000102880658436214 0.03034979423868312 0.0389917695473251 0.05936213991769548 0.2463991769547325 0.6247942386831276 7.762769756249029e-05 0.0447911814935569 0.03314702685918336 0.04385964912280702 0.332168917869896 0.5459555969569944 5.381552039608222e-05 0.04622753202023463 0.05074803573350554 0.06140350877192982 0.322624044774513 0.518943063179421 1.675378635571639e-05 0.04484988607425278 0.04826765849081893 0.04645824956440155 0.3581791984988607 0.5022282535853103 1.809037953616267e-05 0.04191540938528891 0.04560584681066609 0.0469083541372698 0.3548427946018307 0.5107095046854083</probabilities>
		</cpt>
		<cpt id="Departure_and_Arrival_Time_Convenience" target="true" diagtype="observation" ranked="true">
			<state id="State0" />
			<state id="State1" />
			<state id="State2" />
			<state id="State3" />
			<state id="State4" />
			<state id="State5" />
			<parents>Customer_Type Type_of_Travel Gate_Location Seat_Comfort</parents>
			<probabilities>0.1666666666666667 0.1666666666666667 0.1666666666666667 0.1666666666666667 0.1666666666666667 0.1666666666666667 0.1666666666666667 0.1666666666666667 0.1666666666666667 0.1666666666666667 0.1666666666666667 0.1666666666666667 0.1666666666666667 0.1666666666666667 0.1666666666666667 0.1666666666666667 0.1666666666666667 0.1666666666666667 0.1666666666666667 0.1666666666666667 0.1666666666666667 0.1666666666666667 0.1666666666666667 0.1666666666666667 0.1666666666666667 0.1666666666666667 0.1666666666666667 0.1666666666666667 0.1666666666666667 0.1666666666666667 0.1666666666666667 0.1666666666666667 0.1666666666666667 0.1666666666666667 0.1666666666666667 0.1666666666666667 0.1666666666666667 0.1666666666666667 0.1666666666666667 0.1666666666666667 0.1666666666666667 0.1666666666666667 0.2423756019261637 0.08828250401284109 0.1701444622792938 0.158908507223114 0.2022471910112359 0.1380417335473515 0.2605421686746988 0.09939759036144578 0.141566265060241 0.1671686746987952 0.2078313253012048 0.1234939759036145 0.2456692913385827 0.09448818897637795 0.168503937007874 0.1811023622047244 0.1748031496062992 0.1354330708661417 0.2428355957767722 0.1025641025641026 0.1568627450980392 0.1794871794871795 0.1704374057315234 0.1478129713423831 0.2464678178963893 0.1004709576138148 0.1569858712715856 0.1585557299843014 0.185243328100471 0.152276295133438 0.1666666666666667 0.1666666666666667 0.1666666666666667 0.1666666666666667 0.1666666666666667 0.1666666666666667 0.2002781641168289 0.1460361613351878 0.2044506258692629 0.191933240611961 0.1571627260083449 0.1001390820584145 0.225 0.1026315789473684 0.1868421052631579 0.1776315789473684 0.1723684210526316 0.1355263157894737 0.2280254777070063 0.1414012738853503 0.1694267515923567 0.1681528662420382 0.175796178343949 0.1171974522292994 0.2053571428571428 0.1466836734693877 0.1479591836734694 0.2040816326530612 0.1721938775510204 0.1237244897959184 0.2271505376344086 0.1223118279569893 0.1908602150537635 0.2043010752688172 0.1505376344086022 0.1048387096774194 0.1666666666666667 0.1666666666666667 0.1666666666666667 0.1666666666666667 0.1666666666666667 0.1666666666666667 0.125609756097561 0.1628048780487805 0.2310975609756098 0.2213414634146341 0.1878048780487805 0.07134146341463414 0.1446983011130639 0.1347393087287639 0.2243702401874634 0.2190978324545987 0.200937316930287 0.07615700058582309 0.128463476070529 0.1505037783375315 0.223551637279597 0.2172544080604534 0.2052896725440806 0.07493702770780857 0.138755980861244 0.1447368421052632 0.2547846889952153 0.2165071770334928 0.1722488038277512 0.07296650717703348 0.1311274509803922 0.1495098039215686 0.2322303921568628 0.2389705882352941 0.1770833333333333 0.07107843137254902 0.1666666666666667 0.1666666666666667 0.1666666666666667 0.1666666666666667 0.1666666666666667 0.1666666666666667 0.150381679389313 0.149618320610687 0.2297709923664122 0.2290076335877863 0.1656488549618321 0.07557251908396946 0.1218583396801219 0.1523229246001523 0.2292460015232292 0.2307692307692308 0.1774562071591775 0.08834729626808835 0.144 0.1447272727272727 0.2327272727272727 0.2116363636363636 0.1861818181818182 0.08072727272727272 0.1645474943904263 0.1346297681376215 0.2101720269259536 0.2049364248317128 0.2079281974569933 0.07778608825729244 0.1372549019607843 0.1500754147812971 0.2277526395173454 0.2096530920060332 0.1930618401206637 0.08220211161387632 0.1666666666666667 0.1666666666666667 0.1666666666666667 0.1666666666666667 0.1666666666666667 0.1666666666666667 0.2990654205607476 0.09968847352024922 0.102803738317757 0.1806853582554517 0.1962616822429906 0.1214953271028037 0.2352941176470588 0.07352941176470588 0.1735294117647059 0.1558823529411765 0.2147058823529412 0.1470588235294118 0.2879256965944272 0.06811145510835914 0.1424148606811146 0.1393188854489164 0.195046439628483 0.1671826625386997 0.2434017595307918 0.08797653958944282 0.1290322580645161 0.1700879765395894 0.2316715542521994 0.1378299120234604 0.2794117647058824 0.09117647058823529 0.1411764705882353 0.1823529411764706 0.1823529411764706 0.1235294117647059 0.1666666666666667 0.1666666666666667 0.1666666666666667 0.1666666666666667 0.1666666666666667 0.1666666666666667 0.1666666666666667 0.1666666666666667 0.1666666666666667 0.1666666666666667 0.1666666666666667 0.1666666666666667 0.1666666666666667 0.1666666666666667 0.1666666666666667 0.1666666666666667 0.1666666666666667 0.1666666666666667 0.1666666666666667 0.1666666666666667 0.1666666666666667 0.1666666666666667 0.1666666666666667 0.1666666666666667 0.1666666666666667 0.1666666666666667 0.1666666666666667 0.1666666666666667 0.1666666666666667 0.1666666666666667 0.1666666666666667 0.1666666666666667 0.1666666666666667 0.1666666666666667 0.1666666666666667 0.1666666666666667 0.1666666666666667 0.1666666666666667 0.1666666666666667 0.1666666666666667 0.1666666666666667 0.1666666666666667 0.01851851851851852 0.01851851851851852 0.1296296296296296 0.01851851851851852 0.2407407407407407 0.5740740740740741 0.1944444444444444 0.02777777777777778 0.02777777777777778 0.02777777777777778 0.361111111111111 0.361111111111111 0.08333333333333333 0.08333333333333333 0.08333333333333333 0.08333333333333333 0.5833333333333334 0.08333333333333333 0.05555555555555555 0.05555555555555555 0.05555555555555555 0.05555555555555555 0.3888888888888889 0.3888888888888889 0.01388888888888889 0.01388888888888889 0.01388888888888889 0.01388888888888889 0.5138888888888888 0.4305555555555556 0.1666666666666667 0.1666666666666667 0.1666666666666667 0.1666666666666667 0.1666666666666667 0.1666666666666667 0.01851851851851852 0.01851851851851852 0.01851851851851852 0.2407407407407407 0.01851851851851852 0.6851851851851852 0.01111111111111111 0.01111111111111111 0.07777777777777778 0.01111111111111111 0.5444444444444444 0.3444444444444444 0.02083333333333333 0.02083333333333333 0.02083333333333333 0.02083333333333333 0.3958333333333333 0.5208333333333334 0.02083333333333333 0.1458333333333333 0.1458333333333333 0.1458333333333333 0.1458333333333333 0.3958333333333333 0.1944444444444444 0.02777777777777778 0.02777777777777778 0.1944444444444444 0.02777777777777778 0.5277777777777777 0.1666666666666667 0.1666666666666667 0.1666666666666667 0.1666666666666667 0.1666666666666667 0.1666666666666667 0.01515151515151515 0.01515151515151515 0.01515151515151515 0.3787878787878788 0.1060606060606061 0.4696969696969697 0.06666666666666667 0.1333333333333333 0.1333333333333333 0.06666666666666667 0.3333333333333333 0.2666666666666667 0.01666666666666667 0.01666666666666667 0.2166666666666667 0.01666666666666667 0.3166666666666667 0.4166666666666667 0.007575757575757574 0.2348484848484848 0.05303030303030302 0.2348484848484848 0.2348484848484848 0.2348484848484848 0.08974358974358976 0.01282051282051282 0.08974358974358976 0.08974358974358976 0.5512820512820513 0.1666666666666667 0.1666666666666667 0.1666666666666667 0.1666666666666667 0.1666666666666667 0.1666666666666667 0.1666666666666667 0.1666666666666667 0.08333333333333333 0.1666666666666667 0.1666666666666667 0.25 0.1666666666666667 0.01666666666666667 0.1166666666666667 0.01666666666666667 0.3166666666666667 0.3166666666666667 0.2166666666666667 0.01282051282051282 0.08974358974358976 0.3974358974358975 0.1666666666666667 0.08974358974358976 0.2435897435897436 0.01190476190476191 0.1547619047619048 0.01190476190476191 0.1547619047619048 0.6547619047619048 0.01190476190476191 0.01851851851851852 0.1296296296296296 0.1296296296296296 0.1296296296296296 0.462962962962963 0.1296296296296296 0.1666666666666667 0.1666666666666667 0.1666666666666667 0.1666666666666667 0.1666666666666667 0.1666666666666667 0.08333333333333333 0.08333333333333333 0.08333333333333333 0.08333333333333333 0.08333333333333333 0.5833333333333334 0.03333333333333333 0.03333333333333333 0.03333333333333333 0.03333333333333333 0.6333333333333333 0.2333333333333334 0.3888888888888888 0.05555555555555554 0.05555555555555554 0.05555555555555554 0.05555555555555554 0.3888888888888888 0.04166666666666667 0.04166666666666667 0.04166666666666667 0.2916666666666667 0.5416666666666667 0.04166666666666667 0.05555555555555555 0.05555555555555555 0.05555555555555555 0.05555555555555555 0.3888888888888889 0.3888888888888889 0.1666666666666667 0.1666666666666667 0.1666666666666667 0.1666666666666667 0.1666666666666667 0.1666666666666667 0.1666666666666667 0.1666666666666667 0.1666666666666667 0.1666666666666667 0.1666666666666667 0.1666666666666667 0.1666666666666667 0.1666666666666667 0.1666666666666667 0.1666666666666667 0.1666666666666667 0.1666666666666667 0.1666666666666667 0.1666666666666667 0.1666666666666667 0.1666666666666667 0.1666666666666667 0.1666666666666667 0.5833333333333333 0.08333333333333331 0.08333333333333331 0.08333333333333331 0.08333333333333331 0.08333333333333331 0.1666666666666667 0.1666666666666667 0.1666666666666667 0.1666666666666667 0.1666666666666667 0.1666666666666667 0.1666666666666667 0.1666666666666667 0.1666666666666667 0.1666666666666667 0.1666666666666667 0.1666666666666667 0.0303030303030303 0.9117259552042161 0.006587615283267458 0.0158102766798419 0.02371541501976285 0.01185770750988142 0.021875 0.93515625 0.008593750000000001 0.0109375 0.01171875 0.01171875 0.01067961165048544 0.9548543689320388 0.004368932038834952 0.009223300970873786 0.008737864077669903 0.01213592233009709 0.02085505735140772 0.940563086548488 0.006882168925964546 0.007924921793534932 0.01021897810218978 0.01355578727841501 0.02470078940667176 0.9261522790934554 0.008403361344537815 0.007639419404125286 0.01757066462948816 0.01553348612172142 0.1666666666666667 0.1666666666666667 0.1666666666666667 0.1666666666666667 0.1666666666666667 0.1666666666666667 0.02445302445302445 0.01287001287001287 0.906048906048906 0.01287001287001287 0.01673101673101673 0.02702702702702703 0.01976573938506589 0.01464128843338214 0.9245973645680821 0.01390922401171303 0.01390922401171303 0.01317715959004392 0.01483963618956438 0.01244614648157013 0.9262805169937769 0.01627573001436094 0.01675442795595979 0.01340354236476783 0.01714623571147024 0.01517540402049665 0.916042569964525 0.01359873866771778 0.01891998423334647 0.01911706740244383 0.02913840743531776 0.01456920371765888 0.9030394373273046 0.01733232856066315 0.01708113539311731 0.0188394875659382 0.1666666666666667 0.1666666666666667 0.1666666666666667 0.1666666666666667 0.1666666666666667 0.1666666666666667 0.0509478672985782 0.01540284360189574 0.01421800947867299 0.868483412322275 0.02369668246445498 0.02725118483412323 0.02941176470588235 0.01330532212885154 0.015406162464986 0.9068627450980392 0.02100840336134454 0.01400560224089636 0.03247330960854092 0.0195729537366548 0.01290035587188612 0.9056939501779359 0.01423487544483986 0.01512455516014235 0.03623917857861889 0.01308637004227904 0.01308637004227904 0.8953090396617677 0.02214616468693376 0.0201328769881216 0.03566942979150967 0.01507159005275056 0.01431801055011304 0.8924893242903792 0.02260738507912585 0.01984426023612158 0.1666666666666667 0.1666666666666667 0.1666666666666667 0.1666666666666667 0.1666666666666667 0.1666666666666667 0.04239401496259351 0.01371571072319202 0.01870324189526185 0.0199501246882793 0.8840399002493765 0.02119700748129676 0.01453488372093023 0.01816860465116279 0.01526162790697674 0.01816860465116279 0.9215116279069767 0.0123546511627907 0.02937308198158703 0.01622095572117492 0.01578255151249452 0.01797457255589654 0.9004822446295485 0.02016659359929856 0.02340303088432764 0.0172645309802417 0.01342796854018799 0.01803184346825245 0.9012085171686169 0.0266641089583733 0.02773613193403298 0.01474262868565717 0.01674162918540729 0.01774112943528236 0.8988005997001499 0.02423788105947026 0.08333333333333333 0.08333333333333333 0.08333333333333333 0.08333333333333333 0.08333333333333333 0.5833333333333334 0.01139240506329114 0.008860759493670886 0.02151898734177215 0.02151898734177215 0.01645569620253165 0.920253164556962 0.005189028910303929 0.01482579688658265 0.01630837657524092 0.02297998517420311 0.02001482579688658 0.9206819866567828 0.002901353965183753 0.01982591876208898 0.008704061895551257 0.02176015473887814 0.01160541586073501 0.9352030947775629 0.007854485324514262 0.01364200082678793 0.01157503100454733 0.01281521289789169 0.01777594047126912 0.9363373294749896 0.01100340581608593 0.01467120775478124 0.0165051087241289 0.01571915116583705 0.02017291066282421 0.9219282158763428 0.1666666666666667 0.1666666666666667 0.1666666666666667 0.1666666666666667 0.1666666666666667 0.1666666666666667 0.1666666666666667 0.1666666666666667 0.1666666666666667 0.1666666666666667 0.1666666666666667 0.1666666666666667 0.1666666666666667 0.1666666666666667 0.1666666666666667 0.1666666666666667 0.1666666666666667 0.1666666666666667 0.1666666666666667 0.1666666666666667 0.1666666666666667 0.1666666666666667 0.1666666666666667 0.1666666666666667 0.1666666666666667 0.1666666666666667 0.1666666666666667 0.1666666666666667 0.1666666666666667 0.1666666666666667 0.1666666666666667 0.1666666666666667 0.1666666666666667 0.1666666666666667 0.1666666666666667 0.1666666666666667 0.1666666666666667 0.1666666666666667 0.1666666666666667 0.1666666666666667 0.1666666666666667 0.1666666666666667 0.04117647058823529 0.04215686274509804 0.01666666666666667 0.09705882352941177 0.3950980392156863 0.407843137254902 0.02766798418972332 0.05830039525691699 0.02865612648221344 0.09387351778656126 0.4081027667984189 0.383399209486166 0.03306613226452906 0.03006012024048096 0.009018036072144287 0.09919839679358716 0.3937875751503006 0.4348697394789579 0.03581267217630854 0.01859504132231405 0.008953168044077135 0.06818181818181818 0.434573002754821 0.4338842975206612 0.03683113273106324 0.01667824878387769 0.009728978457261988 0.05837387074357192 0.4489228630993746 0.4294649061848506 0.1666666666666667 0.1666666666666667 0.1666666666666667 0.1666666666666667 0.1666666666666667 0.1666666666666667 0.0251419302514193 0.1046228710462287 0.064882400648824 0.113544201135442 0.3381995133819952 0.3536090835360908 0.01527272727272727 0.16 0.1018181818181818 0.1163636363636364 0.2850909090909091 0.3214545454545454 0.02313030069390902 0.1295296838858905 0.09175019275250577 0.1218195836545875 0.3107170393215112 0.323053199691596 0.03473053892215569 0.07005988023952096 0.04311377245508982 0.07245508982035928 0.3838323353293413 0.395808383233533 0.02873204247345409 0.05683947532792005 0.04747033104309806 0.08557151780137413 0.3803872579637726 0.400999375390381 0.1666666666666667 0.1666666666666667 0.1666666666666667 0.1666666666666667 0.1666666666666667 0.1666666666666667 0.03038548752834467 0.09931972789115646 0.1210884353741497 0.1365079365079365 0.3387755102040816 0.2739229024943311 0.02454506982649175 0.1354210749047821 0.1206093948370715 0.1455776555226407 0.3063901819720694 0.2674566229369446 0.0131578947368421 0.135387811634349 0.1859418282548476 0.164819944598338 0.293628808864266 0.2070637119113573 0.02057269947178204 0.09841534612176814 0.1381706978037253 0.1295524047817626 0.3402835696413678 0.2730052821795941 0.02837370242214533 0.08062283737024221 0.09896193771626298 0.1034602076124568 0.3716262975778546 0.316955017301038 0.1666666666666667 0.1666666666666667 0.1666666666666667 0.1666666666666667 0.1666666666666667 0.1666666666666667 0.02130406714009038 0.09748224661071658 0.1284699806326662 0.1594577146546159 0.3408650742414461 0.2524209167204648 0.02411091018685955 0.09523809523809523 0.1362266425557565 0.1446654611211573 0.3423749246534056 0.2573839662447257 0.01813110181311018 0.1176197117619712 0.1743375174337517 0.1668991166899117 0.3189214318921432 0.204091120409112 0.02361904761904762 0.1059047619047619 0.1493333333333333 0.1276190476190476 0.3394285714285714 0.2540952380952381 0.0296225513616818 0.0817009077878643 0.1079789775441949 0.1003344481605351 0.3612040133779264 0.3191591017677974 0.1666666666666667 0.1666666666666667 0.1666666666666667 0.1666666666666667 0.1666666666666667 0.1666666666666667 0.03800557880055788 0.0003486750348675034 0.0003486750348675034 0.09030683403068339 0.4145746164574616 0.456415620641562 0.03292600135777325 0.002376103190767142 0.0003394433129667345 0.08384249830278342 0.4158180583842498 0.4646978954514596 0.03938802083333334 0.002278645833333333 0.0003255208333333333 0.1116536458333333 0.4007161458333333 0.4456380208333333 0.03671071953010279 0.001468428781204112 0.002936857562408223 0.05286343612334801 0.4361233480176211 0.4698972099853157 0.04242850445382091 0.0002344116268166901 0.003047351148616971 0.06774496015002344 0.4320206282231599 0.4545241443975622</probabilities>
		</cpt>
		<cpt id="Ease_of_Online_Booking" target="true" diagtype="observation" ranked="true">
			<state id="State0" />
			<state id="State1" />
			<state id="State2" />
			<state id="State3" />
			<state id="State4" />
			<state id="State5" />
			<parents>Gender Type_of_Travel Departure_and_Arrival_Time_Convenience Online_Boarding</parents>
			<probabilities>0.9608036890645584 0.0003293807641633728 0.0003293807641633728 0.0003293807641633728 0.0003293807641633728 0.03787878787878787 0.2105263157894737 0.7647058823529412 0.003095975232198143 0.006191950464396285 0.003095975232198143 0.01238390092879257 0.07589626239511821 0.004958047292143401 0.9088482074752097 0.0003813882532418001 0.004958047292143401 0.004958047292143401 0.2232142857142857 0.002232142857142857 0.004464285714285714 0.7566964285714285 0.006696428571428571 0.006696428571428571 0.3428501708150318 0.0002440214738897023 0.0002440214738897023 0.00317227916056613 0.6503172279160567 0.00317227916056613 0.4148148148148149 0.001851851851851852 0.001851851851851852 0.003703703703703704 0.007407407407407408 0.5703703703703704 0.9691358024691357 0.006172839506172837 0.006172839506172837 0.006172839506172837 0.006172839506172837 0.006172839506172837 0.001323626737260093 0.9530112508272667 0.01191264063534083 0.009265387160820648 0.009927200529450696 0.01455989410986102 0.000195160031225605 0.6442232630757222 0.2343871975019516 0.04469164715066355 0.03298204527712725 0.04352068696330992 0.0007347538574577516 0.6767083027185892 0.03600293901542983 0.2020573108008817 0.0455547391623806 0.03894195444526084 0.0003871467286101432 0.778552071234998 0.04452187379016647 0.04645760743321719 0.08091366627951994 0.04916763453348819 9.117432530999268e-05 0.8053428154631654 0.04166666666666666 0.04330780452224653 0.05370167760758569 0.05588986141502552 0.9637681159420287 0.0072463768115942 0.0072463768115942 0.0072463768115942 0.0072463768115942 0.0072463768115942 0.0002908667830133799 0.2515997673065736 0.640779522978476 0.03344968004653869 0.03519488074461897 0.03868528214077953 6.422607578676943e-05 0.006615285806037253 0.955748233782916 0.01162491971740527 0.01201027617212589 0.01393705844572897 0.000708215297450425 0.01770538243626062 0.698300283286119 0.2089235127478754 0.04107648725212465 0.03328611898016998 6.447453255963895e-05 0.02404900064474533 0.7849774339136042 0.04958091553836235 0.09754996776273372 0.04377820760799485 8.809020436927411e-05 0.02228682170542635 0.7981853417899929 0.04977096546863988 0.05664200140944326 0.07302677942212825 0.9786324786324789 0.004273504273504275 0.004273504273504275 0.004273504273504275 0.004273504273504275 0.004273504273504275 0.01169590643274854 0.2592592592592592 0.03313840155945419 0.6159844054580896 0.04093567251461988 0.03898635477582846 0.008121827411167513 0.01624365482233503 0.233502538071066 0.6659898477157361 0.03045685279187817 0.04568527918781726 0.004976775049767751 0.009953550099535502 0.02090245520902455 0.9236894492368944 0.01957531519575315 0.02090245520902455 0.003525264394829612 0.01801801801801802 0.04386995691343518 0.7833920877399138 0.1022326674500588 0.04896200548374461 0.003680336487907465 0.02523659305993691 0.05678233438485805 0.7833859095688749 0.04784437434279706 0.08307045215562565 0.989583333333333 0.002083333333333332 0.002083333333333332 0.002083333333333332 0.002083333333333332 0.002083333333333332 0.01964285714285714 0.2964285714285714 0.02678571428571428 0.04107142857142857 0.5875 0.02857142857142857 0.01368421052631579 0.01894736842105263 0.2736842105263158 0.03473684210526316 0.6242105263157894 0.03473684210526316 0.007117437722419929 0.02206405693950178 0.03629893238434164 0.2064056939501779 0.6882562277580072 0.0398576512455516 0.01801579466929911 0.01530108588351431 0.03010858835143139 0.03282329713721618 0.8679664363277393 0.0357847976307996 0.02925809822361547 0.02664576802507837 0.04231974921630095 0.0412748171368861 0.7643678160919541 0.09613375130616511 0.8881856540084385 0.00210970464135021 0.00210970464135021 0.00210970464135021 0.00210970464135021 0.1033755274261603 0.02669404517453799 0.1765913757700205 0.04517453798767967 0.03696098562628337 0.0595482546201232 0.6550308008213552 0.02789400278940028 0.01813110181311018 0.1771269177126918 0.04463040446304044 0.04044630404463041 0.6917712691771269 0.007081038552321007 0.02439024390243903 0.03147128245476003 0.1487018095987412 0.05035405192761605 0.7380015735641228 0.02475247524752475 0.02589489718202589 0.03655750190403656 0.05026656511805027 0.1062452399086063 0.7562833206397563 0.025 0.01693548387096774 0.03427419354838709 0.03709677419354838 0.04637096774193548 0.8403225806451613 0.9537037037037034 0.009259259259259255 0.009259259259259255 0.009259259259259255 0.009259259259259255 0.009259259259259255 0.002873563218390805 0.8649425287356323 0.0545977011494253 0.07183908045977014 0.002873563218390805 0.002873563218390805 0.001937984496124031 0.03682170542635658 0.8507751937984496 0.03682170542635658 0.03682170542635658 0.03682170542635658 0.06034482758620689 0.04310344827586207 0.06034482758620689 0.7931034482758621 0.02586206896551724 0.01724137931034483 0.07692307692307693 0.09090909090909091 0.1888111888111888 0.1888111888111888 0.4195804195804196 0.03496503496503497 0.07627118644067797 0.1440677966101695 0.211864406779661 0.2627118644067797 0.1271186440677966 0.1779661016949153 0.9858757062146895 0.002824858757062147 0.002824858757062147 0.002824858757062147 0.002824858757062147 0.002824858757062147 0.0091324200913242 0.7716894977168949 0.1004566210045662 0.0730593607305936 0.0319634703196347 0.0136986301369863 0.02331002331002331 0.06060606060606061 0.703962703962704 0.1002331002331002 0.1002331002331002 0.01165501165501166 0.02941176470588235 0.1176470588235294 0.1349480968858132 0.6089965397923875 0.08304498269896193 0.02595155709342561 0.04507042253521127 0.09014084507042254 0.1943661971830986 0.1746478873239437 0.4704225352112676 0.02535211267605634 0.002824858757062147 0.07062146892655367 0.0367231638418079 0.07062146892655367 0.05367231638418079 0.7655367231638418 0.9877450980392154 0.002450980392156862 0.002450980392156862 0.002450980392156862 0.002450980392156862 0.002450980392156862 0.009852216748768473 0.7980295566502463 0.08866995073891626 0.06403940886699508 0.01970443349753695 0.01970443349753695 0.02188183807439825 0.05908096280087527 0.7461706783369803 0.09409190371991247 0.0525164113785558 0.0262582056892779 0.03748125937031484 0.09745127436281859 0.1739130434782609 0.5817091454272864 0.08395802098950525 0.02548725637181409 0.03747534516765286 0.1420118343195266 0.1558185404339251 0.1893491124260355 0.4319526627218935 0.04339250493096647 0.01351351351351351 0.04054054054054054 0.1216216216216216 0.0945945945945946 0.04054054054054054 0.6891891891891893 0.9882629107981218 0.002347417840375586 0.002347417840375586 0.002347417840375586 0.002347417840375586 0.002347417840375586 0.008571428571428572 0.6971428571428572 0.09142857142857143 0.1314285714285714 0.04285714285714286 0.02857142857142857 0.01776198934280639 0.07815275310834814 0.7424511545293073 0.09236234458259325 0.04618117229129663 0.02309058614564831 0.03116531165311653 0.07046070460704607 0.1585365853658537 0.6178861788617886 0.08943089430894309 0.03252032520325203 0.01941747572815534 0.112621359223301 0.2174757281553398 0.1766990291262136 0.4504854368932039 0.02330097087378641 0.01075268817204301 0.09677419354838711 0.2096774193548387 0.2096774193548387 0.1236559139784946 0.3494623655913979 0.9962797619047622 0.0007440476190476192 0.0007440476190476192 0.0007440476190476192 0.0007440476190476192 0.0007440476190476192 0.01359703337453646 0.8170580964153275 0.05686032138442521 0.07169344870210136 0.03213844252163164 0.00865265760197775 0.0105433901054339 0.0251419302514193 0.8913219789132198 0.0462287104622871 0.0186536901865369 0.008110300081103 0.01879455605962411 0.06740116655865197 0.09462086843810759 0.7653920933246922 0.04277381723914452 0.01101749837977965 0.03935418768920283 0.112008072653885 0.1856710393541877 0.2144298688193744 0.4011099899091827 0.04742684157416751 0.04712812960235641 0.1391752577319588 0.2555228276877761 0.2334315169366716 0.1310751104565538 0.1936671575846834 0.9952380952380955 0.0009523809523809526 0.0009523809523809526 0.0009523809523809526 0.0009523809523809526 0.0009523809523809526 0.009615384615384616 0.7898351648351649 0.08653846153846155 0.08241758241758243 0.0260989010989011 0.005494505494505495 0.01183970856102004 0.01912568306010929 0.9043715846994536 0.03642987249544627 0.02459016393442623 0.003642987249544627 0.01220504475183076 0.05044751830756713 0.07648494711147275 0.8087876322213181 0.04068348250610252 0.01139137510170871 0.0304247990815155 0.1125143513203215 0.203788748564868 0.2072330654420207 0.4012629161882894 0.04477611940298508 0.04351032448377581 0.1393805309734513 0.2551622418879056 0.2507374631268436 0.1261061946902655 0.1851032448377581 0.9551282051282048 0.000377073906485671 0.000377073906485671 0.000377073906485671 0.000377073906485671 0.04336349924585218 0.3077427821522311 0.6699475065616799 0.004593175853018374 0.0006561679790026248 0.01640419947506562 0.0006561679790026248 0.1072097378277153 0.003277153558052434 0.874063670411985 0.0004681647940074905 0.01170411985018727 0.003277153558052434 0.1449799196787148 0.0004016064257028112 0.005220883534136546 0.8341365461847389 0.01485943775100402 0.0004016064257028112 0.3666166166166167 0.0002502502502502502 0.003253253253253254 0.0002502502502502502 0.624874874874875 0.004754754754754755 0.4327327327327327 0.002102102102102102 0.003903903903903904 0.002102102102102102 0.0003003003003003003 0.5588588588588589 0.9074074074074078 0.01851851851851852 0.01851851851851852 0.01851851851851852 0.01851851851851852 0.01851851851851852 0.0001246571927200199 0.9447768636250309 0.01209174769384193 0.01059586138120169 0.01583146347544253 0.01657940663176265 0.0001991238550378336 0.6871764237355636 0.1901632815611311 0.04320987654320989 0.04918359219434489 0.03006770211071287 0.0001501501501501501 0.6965465465465466 0.0506006006006006 0.1605105105105105 0.046996996996997 0.04519519519519519 6.6190097961345e-05 0.7689303680169448 0.04653163886682554 0.04891448239343395 0.08108287000264762 0.05447445062218693 8.375209380234502e-05 0.7970686767169177 0.04078726968174203 0.04028475711892796 0.05385259631490786 0.06792294807370182 0.9266666666666664 0.006666666666666664 0.04666666666666665 0.006666666666666664 0.006666666666666664 0.006666666666666664 0.002049180327868853 0.2172131147540984 0.6659836065573771 0.03688524590163934 0.0430327868852459 0.0348360655737705 0.0004260758414997869 0.005965061780997017 0.9433319130805283 0.01917341286749041 0.01661695781849169 0.01448657861099276 0.0001401738155312587 0.01443790299971965 0.727642276422764 0.1792823100644799 0.04723857583403419 0.03125876086347069 6.525711302531976e-05 0.02629861654920387 0.771012790394153 0.05135734795092665 0.09951709736361264 0.05174889062907857 8.417508417508415e-05 0.0223063973063973 0.8218013468013466 0.0521043771043771 0.04503367003367002 0.05867003367003366 0.9845679012345682 0.00308641975308642 0.00308641975308642 0.00308641975308642 0.00308641975308642 0.00308641975308642 0.007874015748031496 0.202755905511811 0.03149606299212598 0.6889763779527559 0.03346456692913385 0.03543307086614173 0.01211453744493392 0.02202643171806168 0.1894273127753304 0.6982378854625552 0.03964757709251102 0.03854625550660793 0.002976190476190476 0.008556547619047618 0.02083333333333333 0.9281994047619047 0.0234375 0.01599702380952381 0.003138485680659082 0.02275402118477834 0.04590035307963907 0.7897214593958415 0.09258532757944292 0.04590035307963907 0.003081664098613251 0.02362609142270159 0.04519774011299435 0.7914740626605034 0.05957883923985619 0.07704160246533129 0.9877450980392154 0.002450980392156862 0.002450980392156862 0.002450980392156862 0.002450980392156862 0.002450980392156862 0.0260707635009311 0.2811918063314711 0.04283054003724394 0.04655493482309125 0.5698324022346368 0.0335195530726257 0.01199563794983642 0.01853871319520175 0.2420937840785169 0.03925845147219193 0.6521264994547438 0.03598691384950927 0.008709422011084718 0.02137767220902613 0.02692003167062549 0.1805225653206651 0.7220902612826603 0.04038004750593824 0.02128777923784494 0.01471747700394218 0.03127463863337714 0.03258869908015768 0.869119579500657 0.03101182654402102 0.02627737226277372 0.024330900243309 0.04330900243309003 0.04768856447688564 0.7693430656934307 0.08905109489051095 0.9129353233830847 0.002487562189054727 0.002487562189054727 0.002487562189054727 0.002487562189054727 0.07711442786069654 0.03036876355748373 0.1843817787418655 0.0455531453362256 0.03470715835140998 0.05639913232104122 0.648590021691974 0.01438848920863309 0.02038369304556355 0.1810551558752997 0.039568345323741 0.04316546762589928 0.7014388489208633 0.01095890410958904 0.01643835616438356 0.04840182648401826 0.1589041095890411 0.04292237442922375 0.7223744292237443 0.01902587519025875 0.02701674277016743 0.03995433789954338 0.04490106544901065 0.0943683409436834 0.7747336377473364 0.0239642567018684 0.01624695369618196 0.03818034118602762 0.04142973192526401 0.0463038180341186 0.8338748984565394 0.9747474747474751 0.005050505050505053 0.005050505050505053 0.005050505050505053 0.005050505050505053 0.005050505050505053 0.001893939393939393 0.8996212121212119 0.03598484848484847 0.04734848484848484 0.01325757575757575 0.001893939393939393 0.009259259259259259 0.001322751322751323 0.9378306878306878 0.02513227513227513 0.01719576719576719 0.009259259259259259 0.001016260162601626 0.001016260162601626 0.0193089430894309 0.9766260162601628 0.001016260162601626 0.001016260162601626 0.01296296296296296 0.05740740740740741 0.001851851851851851 0.03518518518518518 0.8907407407407407 0.001851851851851851 0.004901960784313725 0.1225490196078431 0.06372549019607843 0.1813725490196078 0.03431372549019608 0.5931372549019608 0.9915824915824913 0.001683501683501683 0.001683501683501683 0.001683501683501683 0.001683501683501683 0.001683501683501683 0.003311258278145695 0.9039735099337748 0.02649006622516556 0.02980132450331126 0.009933774834437087 0.02649006622516556 0.0003255208333333333 0.008138020833333334 0.9690755208333334 0.01399739583333333 0.002278645833333333 0.006184895833333333 0.004619758351101634 0.01101634683724236 0.01528073916133617 0.9555792466240226 0.01314854299928927 0.0003553660270078179 0.006920415224913495 0.01038062283737024 0.02768166089965398 0.03460207612456748 0.9169550173010381 0.003460207612456748 0.001872659176029962 0.01310861423220974 0.03558052434456929 0.04681647940074907 0.02434456928838951 0.8782771535580525 0.9901960784313723 0.001960784313725489 0.001960784313725489 0.001960784313725489 0.001960784313725489 0.001960784313725489 0.0004668534080298785 0.9584500466853406 0.01167133520074696 0.0172735760971055 0.00887021475256769 0.00326797385620915 0.002164502164502165 0.008658008658008658 0.9523809523809523 0.01948051948051948 0.008658008658008658 0.008658008658008658 0.00667779632721202 0.01168614357262104 0.02337228714524207 0.9432387312186978 0.01001669449081803 0.005008347245409015 0.01322751322751323 0.02592592592592592 0.04497354497354496 0.06402116402116402 0.8513227513227513 0.000529100529100529 0.01111111111111111 0.02222222222222222 0.02222222222222222 0.07777777777777778 0.05555555555555556 0.8111111111111111 0.9934383202099736 0.001312335958005249 0.001312335958005249 0.001312335958005249 0.001312335958005249 0.001312335958005249 0.002544529262086514 0.9363867684478372 0.02290076335877863 0.03053435114503817 0.002544529262086514 0.005089058524173028 0.0002741228070175439 0.0002741228070175439 0.9805372807017545 0.01178728070175439 0.005208333333333334 0.001918859649122808 0.0045662100456621 0.0182648401826484 0.0197869101978691 0.9406392694063926 0.0121765601217656 0.0045662100456621 0.005319148936170213 0.02127659574468085 0.007978723404255319 0.04787234042553191 0.9122340425531915 0.005319148936170213 0.01438848920863309 0.05035971223021583 0.02158273381294964 0.07913669064748202 0.02158273381294964 0.8129496402877698 0.9976979742173109 0.000460405156537753 0.000460405156537753 0.000460405156537753 0.000460405156537753 0.000460405156537753 0.004374453193350831 0.9492563429571304 0.02012248468941382 0.01574803149606299 0.00962379702537183 0.0008748906386701663 0.001034661148473875 0.004655975168132436 0.9772374547335747 0.00982928091050181 0.006207966890843249 0.001034661148473875 0.001555209953343701 0.008294453084499741 0.01192327630896838 0.9683773976153447 0.009331259720062209 0.0005184033177812338 0.008737092930897538 0.02065131056393963 0.03891977760127085 0.03494837172359015 0.8816521048451151 0.01509134233518666 0.01192842942345924 0.05964214711729621 0.07554671968190854 0.08151093439363816 0.06759443339960237 0.7037773359840953 0.9977106227106225 0.0004578754578754578 0.0004578754578754578 0.0004578754578754578 0.0004578754578754578 0.0004578754578754578 0.002816901408450704 0.9586854460093897 0.01971830985915493 0.01126760563380282 0.005633802816901408 0.001877934272300469 0.001177163037080636 0.007062978222483814 0.9735138316656856 0.01118304885226604 0.005885815185403178 0.001177163037080636 0.002837684449489217 0.00510783200908059 0.01645856980703746 0.9648127128263337 0.007945516458569807 0.002837684449489217 0.005454545454545455 0.02545454545454546 0.02909090909090909 0.03181818181818181 0.9045454545454545 0.003636363636363636 0.01886792452830189 0.05241090146750525 0.06918238993710692 0.06918238993710692 0.0419287211740042 0.7484276729559749</probabilities>
		</cpt>
		<cpt id="Discreted_age" target="true" diagtype="observation" ranked="true">
			<state id="S_0_18_" />
			<state id="S_18_40_" />
			<state id="S_40_65_" />
			<state id="S_65__" />
			<probabilities>0.07581613797351401 0.4174314752078842 0.4606867878041269 0.04606559901447491</probabilities>
		</cpt>
		<cpt id="Check_in_Service" target="true" diagtype="observation" ranked="true">
			<state id="State0" />
			<state id="State1" />
			<state id="State2" />
			<state id="State3" />
			<state id="State4" />
			<state id="State5" />
			<parents>Seat_Comfort Discreted_age</parents>
			<probabilities>0.1666666666666667 0.1666666666666667 0.1666666666666667 0.1666666666666667 0.1666666666666667 0.1666666666666667 0.1666666666666667 0.1666666666666667 0.1666666666666667 0.1666666666666667 0.1666666666666667 0.1666666666666667 0.5833333333333333 0.08333333333333331 0.08333333333333331 0.08333333333333331 0.08333333333333331 0.08333333333333331 0.1666666666666667 0.1666666666666667 0.1666666666666667 0.1666666666666667 0.1666666666666667 0.1666666666666667 8.874689385871493e-05 0.1726127085552006 0.1246893858714945 0.25621228257011 0.2748491302804401 0.171547745828896 2.093013520867345e-05 0.1748294193980493 0.1386621457574616 0.2616057599732095 0.2637406337644941 0.1611411109715769 3.603603603603603e-05 0.2095495495495495 0.149009009009009 0.240036036036036 0.2307387387387387 0.1706306306306306 0.0002579979360165119 0.2107843137254902 0.1689886480908153 0.2293601651186791 0.2510319917440661 0.139576883384933 8.218277449046678e-05 0.1455456936226167 0.1775969756738987 0.2466305062458908 0.2663543721236029 0.1637902695595003 1.759014951627089e-05 0.1485136323658751 0.1856640281442393 0.2514160070360598 0.261231310466139 0.1531574318381707 2.719756309834638e-05 0.1823052654482158 0.2304449521322889 0.2356668842471714 0.23272954743255 0.1188261531766753 0.0001847745750184775 0.1853288987435329 0.2230229120473023 0.2318920916481892 0.2440872135994088 0.1154841093865484 8.27540549486925e-05 0.151522674611056 0.1351373717312149 0.2890599139357829 0.2602615028136379 0.1639357828533599 1.589572405023049e-05 0.1537593387378796 0.1593864250516611 0.2932920044508028 0.251518041646797 0.1420282943888095 1.756975191510296e-05 0.2018940192564481 0.199996486049617 0.2757923958113712 0.2398446833930705 0.08245484573757821 0.0001237317495669388 0.1849789656025736 0.2131898045038357 0.279262558772581 0.2406582529076961 0.08178668646374658 7.887679444707369e-05 0.107035810064679 0.1292790660987538 0.2674712099700269 0.3185833727717306 0.1775516643003629 1.181697863490263e-05 0.1171417092077898 0.1175671204386463 0.258378237852146 0.3060242957080734 0.2008768198147098 7.699296284319611e-06 0.07687747339893133 0.07636931984416623 0.2911796861766834 0.3225004234612956 0.233065397822639 8.790436005625878e-05 0.1308895921237693 0.1177039381153305 0.2764592123769338 0.3054676511954992 0.1693917018284107 9.162543522081728e-05 0.1243357155946491 0.1243357155946491 0.256276342312626 0.2639728788711746 0.2309877221916804 1.366792411568531e-05 0.1100677929036138 0.1000628724509322 0.2640779618391559 0.2740828822918375 0.251694822590345 9.284016636957812e-06 0.04284573677956031 0.04284573677956031 0.2999758615567439 0.2983604426619132 0.3159629382055852 0.0001392369813422445 0.07783347257031467 0.07115009746588694 0.284182678919521 0.284182678919521 0.282511835143414</probabilities>
		</cpt>
		<cpt id="On_board_Service" target="true" diagtype="observation" ranked="true">
			<state id="State0" />
			<state id="State1" />
			<state id="State2" />
			<state id="State3" />
			<state id="State4" />
			<state id="State5" />
			<parents>In_flight_Service Baggage_Handling Discreted_age</parents>
			<probabilities>0.1666666666666667 0.1666666666666667 0.1666666666666667 0.1666666666666667 0.1666666666666667 0.1666666666666667 0.1666666666666667 0.1666666666666667 0.1666666666666667 0.1666666666666667 0.1666666666666667 0.1666666666666667 0.1666666666666667 0.1666666666666667 0.1666666666666667 0.1666666666666667 0.1666666666666667 0.1666666666666667 0.1666666666666667 0.1666666666666667 0.1666666666666667 0.1666666666666667 0.1666666666666667 0.1666666666666667 0.1666666666666667 0.1666666666666667 0.1666666666666667 0.1666666666666667 0.1666666666666667 0.1666666666666667 0.1666666666666667 0.1666666666666667 0.1666666666666667 0.1666666666666667 0.1666666666666667 0.1666666666666667 0.833333333333333 0.03333333333333332 0.03333333333333332 0.03333333333333332 0.03333333333333332 0.03333333333333332 0.1666666666666667 0.1666666666666667 0.1666666666666667 0.1666666666666667 0.1666666666666667 0.1666666666666667 0.1666666666666667 0.1666666666666667 0.1666666666666667 0.1666666666666667 0.1666666666666667 0.1666666666666667 0.1666666666666667 0.1666666666666667 0.1666666666666667 0.1666666666666667 0.1666666666666667 0.1666666666666667 0.1666666666666667 0.1666666666666667 0.1666666666666667 0.1666666666666667 0.1666666666666667 0.1666666666666667 0.5833333333333333 0.08333333333333331 0.08333333333333331 0.08333333333333331 0.08333333333333331 0.08333333333333331 0.1666666666666667 0.1666666666666667 0.1666666666666667 0.1666666666666667 0.1666666666666667 0.1666666666666667 0.1666666666666667 0.1666666666666667 0.1666666666666667 0.1666666666666667 0.1666666666666667 0.1666666666666667 0.1666666666666667 0.1666666666666667 0.1666666666666667 0.1666666666666667 0.1666666666666667 0.1666666666666667 0.1666666666666667 0.1666666666666667 0.1666666666666667 0.1666666666666667 0.1666666666666667 0.1666666666666667 0.1666666666666667 0.1666666666666667 0.1666666666666667 0.1666666666666667 0.1666666666666667 0.1666666666666667 0.1666666666666667 0.1666666666666667 0.1666666666666667 0.1666666666666667 0.1666666666666667 0.1666666666666667 0.1666666666666667 0.1666666666666667 0.1666666666666667 0.1666666666666667 0.1666666666666667 0.1666666666666667 0.1666666666666667 0.1666666666666667 0.1666666666666667 0.1666666666666667 0.1666666666666667 0.1666666666666667 0.001488095238095238 0.1711309523809524 0.1979166666666667 0.2425595238095238 0.2425595238095238 0.1443452380952381 0.0001697216564833673 0.5205363204344875 0.1356076035302105 0.1264426340801086 0.1193143245078072 0.09792939579090293 5.609783462358354e-05 0.9226410860540786 0.01957814428363066 0.01957814428363066 0.01957814428363066 0.01856838326040615 0.0003280839895013122 0.9609580052493436 0.01017060367454068 0.008202099737532807 0.01213910761154855 0.008202099737532807 0.001718213058419244 0.197594501718213 0.1460481099656357 0.3109965635738831 0.2491408934707904 0.09450171821305839 0.0002600104004160167 0.2015080603224129 0.2155486219448778 0.21866874674987 0.2077483099323973 0.156266250650026 0.0004578754578754579 0.3658424908424908 0.1597985347985348 0.1955128205128205 0.157051282051282 0.1213369963369963 0.00308641975308642 0.5030864197530865 0.1141975308641976 0.09567901234567903 0.1882716049382716 0.09567901234567903 0.001683501683501683 0.2643097643097643 0.1734006734006734 0.2138047138047138 0.2239057239057239 0.1228956228956229 0.0002600104004160166 0.2139885595423817 0.1937077483099324 0.1905876235049402 0.2093083723348934 0.1921476859074363 0.0005050505050505051 0.3580808080808081 0.145959595959596 0.1641414141414141 0.1853535353535354 0.145959595959596 0.002873563218390805 0.3994252873563219 0.2270114942528736 0.1752873563218391 0.07183908045977014 0.1235632183908046 0.001515151515151515 0.2015151515151515 0.2015151515151515 0.146969696969697 0.2287878787878788 0.2196969696969697 0.0002525252525252525 0.1957070707070707 0.2169191919191919 0.1851010101010101 0.2078282828282828 0.1941919191919192 0.0004734848484848485 0.3669507575757576 0.1538825757575757 0.1254734848484848 0.1879734848484849 0.1652462121212121 0.003787878787878788 0.4583333333333334 0.09469696969696971 0.1628787878787879 0.1628787878787879 0.1174242424242424 0.001937984496124031 0.1531007751937984 0.1647286821705426 0.2228682170542635 0.2112403100775194 0.2461240310077519 0.0003401360544217686 0.1982993197278911 0.2309523809523809 0.1840136054421768 0.2064625850340136 0.1799319727891156 0.0006613756613756614 0.3181216931216932 0.1832010582010582 0.1792328042328042 0.1792328042328042 0.1395502645502646 0.005376344086021505 0.4247311827956989 0.2311827956989247 0.1989247311827957 0.1021505376344086 0.03763440860215054 0.001234567901234568 0.3271604938271605 0.2160493827160494 0.208641975308642 0.1641975308641976 0.08271604938271605 0.0002276867030965392 0.211976320582878 0.2270036429872496 0.2133424408014572 0.1983151183970856 0.1491347905282332 0.0003320053120849933 0.1457503320053121 0.4286188579017264 0.1756308100929615 0.151726427622842 0.09794156706507304 0.002083333333333333 0.1020833333333333 0.6020833333333332 0.1645833333333333 0.1020833333333333 0.02708333333333332 0.0007974481658692186 0.2543859649122807 0.1874003189792664 0.2496012759170654 0.2256778309409889 0.08213716108452952 8.198065256599442e-05 0.1201016560091818 0.5421380554189211 0.1432202000327923 0.1397770126250205 0.05468109526151828 3.023157385573492e-05 0.02397363806759779 0.9218513815829251 0.02451780639700102 0.02270391196565693 0.006923030412963297 0.0002370791844476055 0.01872925557136084 0.9276908487434804 0.02868658131816027 0.0215742057847321 0.003082029397818872 0.0007440476190476191 0.2507440476190476 0.2150297619047619 0.2418154761904762 0.2194940476190476 0.07217261904761907 0.0001308215593929879 0.2049973835688121 0.260727367870225 0.2049973835688121 0.2261904761904762 0.1029565672422815 0.0002592016588906169 0.1868843960601348 0.3735095904613789 0.1697770865733541 0.1744427164333852 0.09512700881285639 0.001602564102564102 0.1650641025641026 0.3669871794871794 0.1842948717948718 0.1842948717948718 0.09775641025641024 0.001436781609195402 0.1910919540229885 0.242816091954023 0.2255747126436781 0.1997126436781609 0.139367816091954 0.0002675227394328518 0.2073301230604601 0.2153558052434457 0.1720171214553237 0.2153558052434457 0.1896736222578919 0.0003728560775540641 0.1256524981357196 0.4008202833706188 0.1524981357196122 0.1771066368381804 0.1435495898583147 0.00273224043715847 0.1174863387978142 0.6584699453551912 0.08469945355191258 0.1174863387978142 0.01912568306010929 0.001700680272108843 0.2057823129251701 0.1751700680272109 0.2159863945578231 0.2670068027210884 0.1343537414965986 0.0003248862897985705 0.1874593892137752 0.2069525666016894 0.1816114359974009 0.2166991552956465 0.2069525666016894 0.0006127450980392157 0.1256127450980392 0.397671568627451 0.1770833333333333 0.147671568627451 0.1513480392156863 0.003623188405797102 0.1340579710144928 0.5036231884057972 0.1123188405797102 0.1123188405797102 0.1340579710144928 0.001872659176029962 0.2378277153558052 0.1254681647940075 0.2715355805243445 0.249063670411985 0.1142322097378277 0.0002696871628910464 0.1653182308522115 0.1879719525350594 0.2429881337648328 0.2138619201725998 0.1895900755124056 0.0004284490145672665 0.1161096829477292 0.1418166238217652 0.4657240788346186 0.1418166238217652 0.1341045415595544 0.00273224043715847 0.08469945355191258 0.1174863387978142 0.7240437158469946 0.06830601092896176 0.00273224043715847 0.0005787037037037037 0.2158564814814815 0.2783564814814815 0.1984953703703703 0.2366898148148148 0.07002314814814815 0.0001229105211406096 0.2279990167158309 0.2110373647984267 0.2611848574237954 0.2235742379547689 0.07608161258603735 0.0002222222222222222 0.1815555555555555 0.1762222222222222 0.3855555555555555 0.1882222222222222 0.06822222222222221 0.001557632398753894 0.2445482866043614 0.1697819314641744 0.4314641744548286 0.1043613707165109 0.04828660436137071 0.0001776830135039091 0.2389836531627577 0.2571073205401564 0.2165955934612651 0.2624378109452737 0.02469793887704336 3.323363243602525e-05 0.1986374210701229 0.1984380192755068 0.3822864739115985 0.1988368228647391 0.02176802924559654 2.374507289737379e-05 0.06057368096120054 0.0554447452153678 0.8274920454005792 0.04889110509569264 0.007574678254262238 0.0001933488012374323 0.05355761794276876 0.07791956689868525 0.7925367362722352 0.06631863882443929 0.009474091260634185 0.0001963093835885355 0.2263447192775815 0.2275225755791127 0.2628582646250491 0.2357675696898312 0.04731056144483706 4.53514739229025e-05 0.2299773242630386 0.2424943310657597 0.244671201814059 0.2422222222222223 0.04058956916099773 0.0001009489198465576 0.1902887139107612 0.2011911972541894 0.3162729658792651 0.2278417120936806 0.06430446194225722 0.0006858710562414267 0.2270233196159122 0.1941015089163237 0.3093278463648835 0.2229080932784637 0.04595336076817558 0.001377410468319559 0.1253443526170799 0.1914600550964187 0.2493112947658402 0.2079889807162534 0.2245179063360881 0.0002476473501733532 0.1592372461614661 0.2052996532937098 0.2483902922238732 0.1815255076770679 0.2052996532937098 0.0002903600464576074 0.07694541231126596 0.1692799070847851 0.4253774680603949 0.1605691056910569 0.1675377468060395 0.002873563218390805 0.08908045977011494 0.1063218390804598 0.5201149425287357 0.1408045977011494 0.1408045977011494 0.00228310502283105 0.139269406392694 0.1803652968036529 0.2351598173515982 0.2214611872146119 0.2214611872146119 0.0003436426116838487 0.2106529209621993 0.1797250859106529 0.1962199312714776 0.2189003436426117 0.1941580756013745 0.0005005005005005005 0.1206206206206206 0.1356356356356356 0.1266266266266266 0.483983983983984 0.1326326326326326 0.003144654088050315 0.07861635220125787 0.07861635220125787 0.1729559748427673 0.569182389937107 0.09748427672955977 0.001068376068376068 0.2318376068376069 0.2446581196581197 0.2318376068376069 0.1805555555555556 0.1100427350427351 0.000228310502283105 0.2262557077625571 0.219406392694064 0.1988584474885845 0.1988584474885845 0.156392694063927 0.0003930817610062893 0.1631289308176101 0.1560534591194969 0.1466194968553459 0.4202044025157232 0.1136006289308176 0.002415458937198068 0.1183574879227053 0.1473429951690821 0.0603864734299517 0.5821256038647342 0.08937198067632851 0.0001741553465691397 0.2248345524207593 0.2143852316266109 0.2603622431208638 0.2415534656913967 0.05869035179380008 4.157312713062276e-05 0.2120645214933067 0.2058285524237133 0.2529724785898395 0.2644466616778914 0.0646462126881184 9.861932938856014e-05 0.2018737672583826 0.1977317554240631 0.2054240631163708 0.3332347140039447 0.06163708086785009 0.0006640106241699868 0.1679946879150067 0.1958831341301461 0.2197875166002656 0.3393094289508633 0.07636122177954849 9.867771857114663e-05 0.1185119400039471 0.1096309453325439 0.3038286954805605 0.286658772449181 0.1812709690151964 1.637197118533071e-05 0.083316961362148 0.08616568434839554 0.226833660772757 0.4462835625409299 0.1573837590045842 1.01347927434884e-05 0.02111077328468633 0.02111077328468633 0.04719772980642545 0.8784534306273436 0.03211715820411472 0.0001501501501501501 0.0478978978978979 0.04609609609609609 0.1118618618618619 0.728978978978979 0.06501501501501503 0.000165016501650165 0.01897689768976898 0.02392739273927393 0.3348184818481849 0.317986798679868 0.3041254125412541 3.309504898067249e-05 0.02723722531109346 0.02366296002118083 0.303051363516018 0.3336311887741594 0.3123841673285677 7.119464616260856e-05 0.01929374911006692 0.03766196782001994 0.2260430015662822 0.486188238644454 0.2307418482130144 0.0005518763796909492 0.03035320088300221 0.03035320088300221 0.2522075055187638 0.4409492273730684 0.2455849889624724 0.00205761316872428 0.1502057613168724 0.2613168724279835 0.1625514403292181 0.2119341563786008 0.2119341563786008 0.0003300330033003299 0.2102310231023102 0.2458745874587458 0.1884488448844884 0.1924092409240924 0.1627062706270627 0.0005359056806002144 0.1130760986066452 0.1420150053590568 0.1387995712754555 0.1709539121114684 0.4346195069667738 0.005952380952380952 0.1130952380952381 0.07738095238095237 0.1130952380952381 0.07738095238095237 0.6130952380952381 0.00219298245614035 0.1864035087719298 0.1337719298245614 0.2390350877192982 0.2390350877192982 0.1995614035087719 0.0003408316291751874 0.178254942058623 0.1884798909338787 0.2252897068847989 0.2355146557600545 0.1721199727334697 0.0005952380952380952 0.1720238095238095 0.1148809523809524 0.1327380952380952 0.1934523809523809 0.3863095238095238 0.004273504273504273 0.1581196581196581 0.08119658119658119 0.08119658119658119 0.1837606837606838 0.4914529914529915 0.0009746588693957116 0.07115009746588695 0.08869395711500976 0.246588693957115 0.3050682261208577 0.2875243664717349 0.0001736111111111111 0.1251736111111111 0.1147569444444445 0.2230902777777778 0.2501736111111111 0.2866319444444445 0.0003092145949288806 0.1023500309214595 0.08008658008658008 0.1635745207173779 0.1561533704390847 0.497526283240569 0.001937984496124031 0.04844961240310078 0.08333333333333333 0.1531007751937984 0.1065891472868217 0.6065891472868217 0.0001645278051990786 0.01793353076669957 0.02286936492267193 0.3269167489305693 0.3249424152681803 0.3071734123066798 3.26797385620915e-05 0.02179738562091503 0.02924836601307189 0.3188562091503268 0.3133660130718954 0.3166993464052287 7.723200494284832e-05 0.01722273710225517 0.03853877046648131 0.2424312635156008 0.232700030892802 0.4690299660179178 0.00065359477124183 0.02418300653594771 0.03202614379084967 0.2869281045751634 0.2673202614379085 0.3888888888888889 0.0001550387596899225 0.01875968992248062 0.01689922480620155 0.348062015503876 0.3145736434108528 0.3015503875968993 2.443434491521282e-05 0.01556467771099057 0.02054928407369398 0.2230122660411474 0.2205199628597957 0.5203293749694571 1.252661906551422e-05 0.003770512338719779 0.007303018915194789 0.03879493924589753 0.03954653638982838 0.9105724664912939 0.0002099076406381192 0.003988245172124265 0.006507136859781697 0.09214945424013435 0.0971872376154492 0.7999580184718723</probabilities>
		</cpt>
		<cpt id="Food_and_Drink" target="true" diagtype="observation" ranked="true">
			<state id="State0" />
			<state id="State1" />
			<state id="State2" />
			<state id="State3" />
			<state id="State4" />
			<state id="State5" />
			<parents>Baggage_Handling</parents>
			<probabilities>0.000664599025254763 0.1272707133362871 0.187306158617634 0.2019273371732388 0.2475631369073992 0.2352680549401861 0.0006962818548948615 0.1351483080350926 0.2071438518312213 0.216125887759365 0.2322796267929258 0.2086060437265005 0.001315229584929016 0.1509419364821477 0.2262968550539631 0.2238211287764497 0.2141116397818266 0.1835132103206839 0.001047881781826736 0.1205705609375334 0.2152862428091786 0.2147516092470221 0.2356664741985843 0.2126772310258549 0.0009740834760021252 0.1009799870122203 0.2007202314186197 0.2077749571993624 0.2490406753645434 0.240510065529252</probabilities>
		</cpt>
		<cpt id="Cleanliness" target="true" diagtype="observation" ranked="true">
			<state id="State0" />
			<state id="State1" />
			<state id="State2" />
			<state id="State3" />
			<state id="State4" />
			<state id="State5" />
			<parents>Online_Boarding Seat_Comfort Food_and_Drink Discreted_age</parents>
			<probabilities>0.1666666666666667 0.1666666666666667 0.1666666666666667 0.1666666666666667 0.1666666666666667 0.1666666666666667 0.1666666666666667 0.1666666666666667 0.1666666666666667 0.1666666666666667 0.1666666666666667 0.1666666666666667 0.1666666666666667 0.1666666666666667 0.1666666666666667 0.1666666666666667 0.1666666666666667 0.1666666666666667 0.1666666666666667 0.1666666666666667 0.1666666666666667 0.1666666666666667 0.1666666666666667 0.1666666666666667 0.1666666666666667 0.1666666666666667 0.1666666666666667 0.1666666666666667 0.1666666666666667 0.1666666666666667 0.1666666666666667 0.1666666666666667 0.1666666666666667 0.1666666666666667 0.1666666666666667 0.1666666666666667 0.1666666666666667 0.1666666666666667 0.1666666666666667 0.1666666666666667 0.1666666666666667 0.1666666666666667 0.1666666666666667 0.1666666666666667 0.1666666666666667 0.1666666666666667 0.1666666666666667 0.1666666666666667 0.1666666666666667 0.1666666666666667 0.1666666666666667 0.1666666666666667 0.1666666666666667 0.1666666666666667 0.1666666666666667 0.1666666666666667 0.1666666666666667 0.1666666666666667 0.1666666666666667 0.1666666666666667 0.1666666666666667 0.1666666666666667 0.1666666666666667 0.1666666666666667 0.1666666666666667 0.1666666666666667 0.1666666666666667 0.1666666666666667 0.1666666666666667 0.1666666666666667 0.1666666666666667 0.1666666666666667 0.1666666666666667 0.1666666666666667 0.1666666666666667 0.1666666666666667 0.1666666666666667 0.1666666666666667 0.1666666666666667 0.1666666666666667 0.1666666666666667 0.1666666666666667 0.1666666666666667 0.1666666666666667 0.1666666666666667 0.1666666666666667 0.1666666666666667 0.1666666666666667 0.1666666666666667 0.1666666666666667 0.1666666666666667 0.1666666666666667 0.1666666666666667 0.1666666666666667 0.1666666666666667 0.1666666666666667 0.1666666666666667 0.1666666666666667 0.1666666666666667 0.1666666666666667 0.1666666666666667 0.1666666666666667 0.1666666666666667 0.1666666666666667 0.1666666666666667 0.1666666666666667 0.1666666666666667 0.1666666666666667 0.1666666666666667 0.1666666666666667 0.1666666666666667 0.1666666666666667 0.1666666666666667 0.1666666666666667 0.1666666666666667 0.1666666666666667 0.1666666666666667 0.1666666666666667 0.1666666666666667 0.1666666666666667 0.1666666666666667 0.1666666666666667 0.1666666666666667 0.1666666666666667 0.1666666666666667 0.1666666666666667 0.1666666666666667 0.1666666666666667 0.1666666666666667 0.1666666666666667 0.1666666666666667 0.1666666666666667 0.1666666666666667 0.1666666666666667 0.1666666666666667 0.1666666666666667 0.1666666666666667 0.1666666666666667 0.1666666666666667 0.1666666666666667 0.1666666666666667 0.1666666666666667 0.1666666666666667 0.1666666666666667 0.1666666666666667 0.1666666666666667 0.1666666666666667 0.1666666666666667 0.1666666666666667 0.1666666666666667 0.1666666666666667 0.1666666666666667 0.1666666666666667 0.1666666666666667 0.1666666666666667 0.1666666666666667 0.1666666666666667 0.1666666666666667 0.1666666666666667 0.1666666666666667 0.1666666666666667 0.1666666666666667 0.1666666666666667 0.1666666666666667 0.1666666666666667 0.1666666666666667 0.1666666666666667 0.1666666666666667 0.002083333333333332 0.989583333333333 0.002083333333333332 0.002083333333333332 0.002083333333333332 0.002083333333333332 0.0005931198102016605 0.9970344009489913 0.0005931198102016605 0.0005931198102016605 0.0005931198102016605 0.0005931198102016605 0.002604166666666667 0.9869791666666669 0.002604166666666667 0.002604166666666667 0.002604166666666667 0.002604166666666667 0.009803921568627447 0.9509803921568625 0.009803921568627447 0.009803921568627447 0.009803921568627447 0.009803921568627447 0.02380952380952381 0.02380952380952381 0.8809523809523809 0.02380952380952381 0.02380952380952381 0.02380952380952381 0.008333333333333331 0.008333333333333331 0.9583333333333331 0.008333333333333331 0.008333333333333331 0.008333333333333331 0.02083333333333333 0.02083333333333333 0.8958333333333334 0.02083333333333333 0.02083333333333333 0.02083333333333333 0.1666666666666667 0.1666666666666667 0.1666666666666667 0.1666666666666667 0.1666666666666667 0.1666666666666667 0.05555555555555556 0.05555555555555556 0.05555555555555556 0.7222222222222222 0.05555555555555556 0.05555555555555556 0.006172839506172839 0.006172839506172839 0.006172839506172839 0.9691358024691358 0.006172839506172839 0.006172839506172839 0.02380952380952381 0.02380952380952381 0.02380952380952381 0.8809523809523809 0.02380952380952381 0.02380952380952381 0.05555555555555556 0.05555555555555556 0.05555555555555556 0.7222222222222222 0.05555555555555556 0.05555555555555556 0.04166666666666667 0.04166666666666667 0.04166666666666667 0.04166666666666667 0.7916666666666669 0.04166666666666667 0.007936507936507934 0.007936507936507934 0.007936507936507934 0.007936507936507934 0.9603174603174601 0.007936507936507934 0.05555555555555556 0.05555555555555556 0.05555555555555556 0.05555555555555556 0.7222222222222222 0.05555555555555556 0.1666666666666667 0.1666666666666667 0.1666666666666667 0.1666666666666667 0.1666666666666667 0.1666666666666667 0.05555555555555555 0.05555555555555555 0.05555555555555555 0.05555555555555555 0.05555555555555555 0.7222222222222221 0.009803921568627451 0.009803921568627451 0.009803921568627451 0.009803921568627451 0.009803921568627451 0.9509803921568628 0.05555555555555555 0.05555555555555555 0.05555555555555555 0.05555555555555555 0.05555555555555555 0.7222222222222221 0.1666666666666667 0.1666666666666667 0.1666666666666667 0.1666666666666667 0.1666666666666667 0.1666666666666667 0.1666666666666667 0.1666666666666667 0.1666666666666667 0.1666666666666667 0.1666666666666667 0.1666666666666667 0.1666666666666667 0.1666666666666667 0.1666666666666667 0.1666666666666667 0.1666666666666667 0.1666666666666667 0.1666666666666667 0.1666666666666667 0.1666666666666667 0.1666666666666667 0.1666666666666667 0.1666666666666667 0.1666666666666667 0.1666666666666667 0.1666666666666667 0.1666666666666667 0.1666666666666667 0.1666666666666667 0.08333333333333331 0.5833333333333333 0.08333333333333331 0.08333333333333331 0.08333333333333331 0.08333333333333331 0.0238095238095238 0.8809523809523808 0.0238095238095238 0.0238095238095238 0.0238095238095238 0.0238095238095238 0.08333333333333331 0.5833333333333333 0.08333333333333331 0.08333333333333331 0.08333333333333331 0.08333333333333331 0.1666666666666667 0.1666666666666667 0.1666666666666667 0.1666666666666667 0.1666666666666667 0.1666666666666667 0.001984126984126984 0.001984126984126984 0.9900793650793649 0.001984126984126984 0.001984126984126984 0.001984126984126984 0.0004694835680751173 0.0004694835680751173 0.9976525821596244 0.0004694835680751173 0.0004694835680751173 0.0004694835680751173 0.002415458937198067 0.002415458937198067 0.9879227053140095 0.002415458937198067 0.002415458937198067 0.002415458937198067 0.005747126436781607 0.005747126436781607 0.9712643678160918 0.005747126436781607 0.005747126436781607 0.005747126436781607 0.02083333333333333 0.02083333333333333 0.02083333333333333 0.8958333333333334 0.02083333333333333 0.02083333333333333 0.005952380952380952 0.005952380952380952 0.005952380952380952 0.9702380952380952 0.005952380952380952 0.005952380952380952 0.02083333333333333 0.02083333333333333 0.02083333333333333 0.8958333333333334 0.02083333333333333 0.02083333333333333 0.08333333333333333 0.08333333333333333 0.08333333333333333 0.5833333333333334 0.08333333333333333 0.08333333333333333 0.04166666666666667 0.04166666666666667 0.04166666666666667 0.04166666666666667 0.7916666666666669 0.04166666666666667 0.01282051282051282 0.01282051282051282 0.01282051282051282 0.01282051282051282 0.9358974358974359 0.01282051282051282 0.05555555555555556 0.05555555555555556 0.05555555555555556 0.05555555555555556 0.7222222222222222 0.05555555555555556 0.08333333333333333 0.08333333333333333 0.08333333333333333 0.08333333333333333 0.5833333333333334 0.08333333333333333 0.03333333333333333 0.03333333333333333 0.03333333333333333 0.03333333333333333 0.03333333333333333 0.8333333333333335 0.009259259259259259 0.009259259259259259 0.009259259259259259 0.009259259259259259 0.009259259259259259 0.9537037037037037 0.02380952380952381 0.02380952380952381 0.02380952380952381 0.02380952380952381 0.02380952380952381 0.8809523809523809 0.1666666666666667 0.1666666666666667 0.1666666666666667 0.1666666666666667 0.1666666666666667 0.1666666666666667 0.1666666666666667 0.1666666666666667 0.1666666666666667 0.1666666666666667 0.1666666666666667 0.1666666666666667 0.1666666666666667 0.1666666666666667 0.1666666666666667 0.1666666666666667 0.1666666666666667 0.1666666666666667 0.1666666666666667 0.1666666666666667 0.1666666666666667 0.1666666666666667 0.1666666666666667 0.1666666666666667 0.1666666666666667 0.1666666666666667 0.1666666666666667 0.1666666666666667 0.1666666666666667 0.1666666666666667 0.05555555555555557 0.7222222222222223 0.05555555555555557 0.05555555555555557 0.05555555555555557 0.05555555555555557 0.02083333333333333 0.8958333333333331 0.02083333333333333 0.02083333333333333 0.02083333333333333 0.02083333333333333 0.08333333333333331 0.5833333333333333 0.08333333333333331 0.08333333333333331 0.08333333333333331 0.08333333333333331 0.1666666666666667 0.1666666666666667 0.1666666666666667 0.1666666666666667 0.1666666666666667 0.1666666666666667 0.02777777777777777 0.02777777777777777 0.8611111111111109 0.02777777777777777 0.02777777777777777 0.02777777777777777 0.005376344086021505 0.005376344086021505 0.9731182795698925 0.005376344086021505 0.005376344086021505 0.005376344086021505 0.05555555555555556 0.05555555555555556 0.7222222222222222 0.05555555555555556 0.05555555555555556 0.05555555555555556 0.05555555555555556 0.05555555555555556 0.7222222222222222 0.05555555555555556 0.05555555555555556 0.05555555555555556 0.00177304964539007 0.00177304964539007 0.00177304964539007 0.9911347517730495 0.00177304964539007 0.00177304964539007 0.0004668534080298785 0.0004668534080298785 0.0004668534080298785 0.9976657329598505 0.0004668534080298785 0.0004668534080298785 0.001736111111111111 0.001736111111111111 0.001736111111111111 0.9913194444444443 0.001736111111111111 0.001736111111111111 0.01388888888888889 0.01388888888888889 0.01388888888888889 0.9305555555555556 0.01388888888888889 0.01388888888888889 0.02777777777777777 0.02777777777777777 0.02777777777777777 0.02777777777777777 0.8611111111111109 0.02777777777777777 0.006666666666666665 0.006666666666666665 0.006666666666666665 0.006666666666666665 0.9666666666666666 0.006666666666666665 0.01515151515151515 0.01515151515151515 0.01515151515151515 0.01515151515151515 0.9242424242424243 0.01515151515151515 0.05555555555555556 0.05555555555555556 0.05555555555555556 0.05555555555555556 0.7222222222222222 0.05555555555555556 0.02777777777777778 0.02777777777777778 0.02777777777777778 0.02777777777777778 0.02777777777777778 0.8611111111111112 0.008771929824561403 0.008771929824561403 0.008771929824561403 0.008771929824561403 0.008771929824561403 0.956140350877193 0.01851851851851852 0.01851851851851852 0.01851851851851852 0.01851851851851852 0.01851851851851852 0.9074074074074073 0.05555555555555555 0.05555555555555555 0.05555555555555555 0.05555555555555555 0.05555555555555555 0.7222222222222221 0.1666666666666667 0.1666666666666667 0.1666666666666667 0.1666666666666667 0.1666666666666667 0.1666666666666667 0.1666666666666667 0.1666666666666667 0.1666666666666667 0.1666666666666667 0.1666666666666667 0.1666666666666667 0.1666666666666667 0.1666666666666667 0.1666666666666667 0.1666666666666667 0.1666666666666667 0.1666666666666667 0.1666666666666667 0.1666666666666667 0.1666666666666667 0.1666666666666667 0.1666666666666667 0.1666666666666667 0.05555555555555557 0.7222222222222223 0.05555555555555557 0.05555555555555557 0.05555555555555557 0.05555555555555557 0.01666666666666667 0.916666666666667 0.01666666666666667 0.01666666666666667 0.01666666666666667 0.01666666666666667 0.08333333333333331 0.5833333333333333 0.08333333333333331 0.08333333333333331 0.08333333333333331 0.08333333333333331 0.08333333333333331 0.5833333333333333 0.08333333333333331 0.08333333333333331 0.08333333333333331 0.08333333333333331 0.02380952380952381 0.02380952380952381 0.8809523809523809 0.02380952380952381 0.02380952380952381 0.02380952380952381 0.01111111111111111 0.01111111111111111 0.9444444444444446 0.01111111111111111 0.01111111111111111 0.01111111111111111 0.02777777777777777 0.02777777777777777 0.8611111111111109 0.02777777777777777 0.02777777777777777 0.02777777777777777 0.1666666666666667 0.1666666666666667 0.1666666666666667 0.1666666666666667 0.1666666666666667 0.1666666666666667 0.01851851851851852 0.01851851851851852 0.01851851851851852 0.9074074074074076 0.01851851851851852 0.01851851851851852 0.006410256410256409 0.006410256410256409 0.006410256410256409 0.9679487179487178 0.006410256410256409 0.006410256410256409 0.05555555555555556 0.05555555555555556 0.05555555555555556 0.7222222222222222 0.05555555555555556 0.05555555555555556 0.1666666666666667 0.1666666666666667 0.1666666666666667 0.1666666666666667 0.1666666666666667 0.1666666666666667 0.002032520325203252 0.002032520325203252 0.002032520325203252 0.002032520325203252 0.9898373983739837 0.002032520325203252 0.0004775549188156637 0.0004775549188156637 0.0004775549188156637 0.0004775549188156637 0.9976122254059215 0.0004775549188156637 0.002008032128514056 0.002008032128514056 0.002008032128514056 0.002008032128514056 0.9899598393574296 0.002008032128514056 0.008771929824561401 0.008771929824561401 0.008771929824561401 0.008771929824561401 0.9561403508771928 0.008771929824561401 0.03333333333333333 0.03333333333333333 0.03333333333333333 0.03333333333333333 0.03333333333333333 0.8333333333333335 0.009259259259259259 0.009259259259259259 0.009259259259259259 0.009259259259259259 0.009259259259259259 0.9537037037037037 0.02777777777777778 0.02777777777777778 0.02777777777777778 0.02777777777777778 0.02777777777777778 0.8611111111111112 0.08333333333333333 0.08333333333333333 0.08333333333333333 0.08333333333333333 0.08333333333333333 0.5833333333333334 0.1666666666666667 0.1666666666666667 0.1666666666666667 0.1666666666666667 0.1666666666666667 0.1666666666666667 0.1666666666666667 0.1666666666666667 0.1666666666666667 0.1666666666666667 0.1666666666666667 0.1666666666666667 0.1666666666666667 0.1666666666666667 0.1666666666666667 0.1666666666666667 0.1666666666666667 0.1666666666666667 0.1666666666666667 0.1666666666666667 0.1666666666666667 0.1666666666666667 0.1666666666666667 0.1666666666666667 0.04166666666666667 0.7916666666666669 0.04166666666666667 0.04166666666666667 0.04166666666666667 0.04166666666666667 0.01666666666666667 0.916666666666667 0.01666666666666667 0.01666666666666667 0.01666666666666667 0.01666666666666667 0.08333333333333331 0.5833333333333333 0.08333333333333331 0.08333333333333331 0.08333333333333331 0.08333333333333331 0.1666666666666667 0.1666666666666667 0.1666666666666667 0.1666666666666667 0.1666666666666667 0.1666666666666667 0.02083333333333333 0.02083333333333333 0.8958333333333334 0.02083333333333333 0.02083333333333333 0.02083333333333333 0.009259259259259257 0.009259259259259257 0.9537037037037036 0.009259259259259257 0.009259259259259257 0.009259259259259257 0.02777777777777777 0.02777777777777777 0.8611111111111109 0.02777777777777777 0.02777777777777777 0.02777777777777777 0.1666666666666667 0.1666666666666667 0.1666666666666667 0.1666666666666667 0.1666666666666667 0.1666666666666667 0.02083333333333333 0.02083333333333333 0.02083333333333333 0.8958333333333334 0.02083333333333333 0.02083333333333333 0.009803921568627447 0.009803921568627447 0.009803921568627447 0.9509803921568626 0.009803921568627447 0.009803921568627447 0.03333333333333333 0.03333333333333333 0.03333333333333333 0.8333333333333333 0.03333333333333333 0.03333333333333333 0.1666666666666667 0.1666666666666667 0.1666666666666667 0.1666666666666667 0.1666666666666667 0.1666666666666667 0.05555555555555556 0.05555555555555556 0.05555555555555556 0.05555555555555556 0.7222222222222222 0.05555555555555556 0.009803921568627447 0.009803921568627447 0.009803921568627447 0.009803921568627447 0.9509803921568626 0.009803921568627447 0.04166666666666667 0.04166666666666667 0.04166666666666667 0.04166666666666667 0.7916666666666669 0.04166666666666667 0.1666666666666667 0.1666666666666667 0.1666666666666667 0.1666666666666667 0.1666666666666667 0.1666666666666667 0.002083333333333333 0.002083333333333333 0.002083333333333333 0.002083333333333333 0.002083333333333333 0.9895833333333335 0.000499001996007984 0.000499001996007984 0.000499001996007984 0.000499001996007984 0.000499001996007984 0.9975049900199602 0.002314814814814815 0.002314814814814815 0.002314814814814815 0.002314814814814815 0.002314814814814815 0.9884259259259259 0.007575757575757576 0.007575757575757576 0.007575757575757576 0.007575757575757576 0.007575757575757576 0.9621212121212122 0.1666666666666667 0.1666666666666667 0.1666666666666667 0.1666666666666667 0.1666666666666667 0.1666666666666667 0.1666666666666667 0.1666666666666667 0.1666666666666667 0.1666666666666667 0.1666666666666667 0.1666666666666667 0.1666666666666667 0.1666666666666667 0.1666666666666667 0.1666666666666667 0.1666666666666667 0.1666666666666667 0.1666666666666667 0.1666666666666667 0.1666666666666667 0.1666666666666667 0.1666666666666667 0.1666666666666667 0.1666666666666667 0.1666666666666667 0.1666666666666667 0.1666666666666667 0.1666666666666667 0.1666666666666667 0.1666666666666667 0.1666666666666667 0.1666666666666667 0.1666666666666667 0.1666666666666667 0.1666666666666667 0.1666666666666667 0.1666666666666667 0.1666666666666667 0.1666666666666667 0.1666666666666667 0.1666666666666667 0.1666666666666667 0.1666666666666667 0.1666666666666667 0.1666666666666667 0.1666666666666667 0.1666666666666667 0.1666666666666667 0.1666666666666667 0.1666666666666667 0.1666666666666667 0.1666666666666667 0.1666666666666667 0.1666666666666667 0.1666666666666667 0.1666666666666667 0.1666666666666667 0.1666666666666667 0.1666666666666667 0.1666666666666667 0.1666666666666667 0.1666666666666667 0.1666666666666667 0.1666666666666667 0.1666666666666667 0.1666666666666667 0.1666666666666667 0.1666666666666667 0.1666666666666667 0.1666666666666667 0.1666666666666667 0.1666666666666667 0.1666666666666667 0.1666666666666667 0.1666666666666667 0.1666666666666667 0.1666666666666667 0.1666666666666667 0.1666666666666667 0.1666666666666667 0.1666666666666667 0.1666666666666667 0.1666666666666667 0.1666666666666667 0.1666666666666667 0.1666666666666667 0.1666666666666667 0.1666666666666667 0.1666666666666667 0.1666666666666667 0.1666666666666667 0.1666666666666667 0.1666666666666667 0.1666666666666667 0.1666666666666667 0.1666666666666667 0.1666666666666667 0.1666666666666667 0.1666666666666667 0.1666666666666667 0.1666666666666667 0.1666666666666667 0.1666666666666667 0.1666666666666667 0.1666666666666667 0.1666666666666667 0.1666666666666667 0.1666666666666667 0.1666666666666667 0.1666666666666667 0.1666666666666667 0.1666666666666667 0.1666666666666667 0.1666666666666667 0.1666666666666667 0.1666666666666667 0.1666666666666667 0.1666666666666667 0.1666666666666667 0.1666666666666667 0.1666666666666667 0.1666666666666667 0.1666666666666667 0.1666666666666667 0.1666666666666667 0.1666666666666667 0.1666666666666667 0.1666666666666667 0.1666666666666667 0.1666666666666667 0.1666666666666667 0.1666666666666667 0.1666666666666667 0.1666666666666667 0.1666666666666667 0.1666666666666667 0.1666666666666667 0.1666666666666667 0.1666666666666667 0.1666666666666667 0.1666666666666667 0.1666666666666667 0.1666666666666667 0.02777777777777777 0.8611111111111109 0.02777777777777777 0.02777777777777777 0.02777777777777777 0.02777777777777777 0.02777777777777777 0.8611111111111109 0.02777777777777777 0.02777777777777777 0.02777777777777777 0.02777777777777777 0.01851851851851852 0.9074074074074078 0.01851851851851852 0.01851851851851852 0.01851851851851852 0.01851851851851852 0.08333333333333331 0.5833333333333333 0.08333333333333331 0.08333333333333331 0.08333333333333331 0.08333333333333331 0.0005307855626326962 0.9973460721868362 0.0005307855626326962 0.0005307855626326962 0.0005307855626326962 0.0005307855626326962 9.269558769002594e-05 0.9956433073785687 0.0006488691138301816 0.0006488691138301816 0.002873563218390804 9.269558769002594e-05 0.0001849796522382538 0.9158342582315947 0.02793192748797633 0.02682204957454681 0.01239363669996301 0.0168331483536811 0.001282051282051282 0.9551282051282052 0.008974358974358975 0.008974358974358975 0.02435897435897436 0.001282051282051282 0.003875968992248062 0.6085271317829458 0.3759689922480621 0.003875968992248062 0.003875968992248062 0.003875968992248062 0.001461988304093567 0.5891812865497076 0.361111111111111 0.01023391812865497 0.02777777777777778 0.01023391812865497 0.001118568232662192 0.4977628635346756 0.1756152125279642 0.1152125279642058 0.1286353467561521 0.08165548098434004 0.009259259259259259 0.5092592592592592 0.06481481481481481 0.2314814814814815 0.1759259259259259 0.009259259259259259 0.003875968992248062 0.5852713178294574 0.003875968992248062 0.3992248062015504 0.003875968992248062 0.003875968992248062 0.001377410468319559 0.4146005509641873 0.02617079889807163 0.5137741046831956 0.03443526170798898 0.009641873278236915 0.001262626262626263 0.4482323232323232 0.1376262626262627 0.2664141414141414 0.06944444444444445 0.07702020202020202 0.007246376811594202 0.3550724637681159 0.09420289855072463 0.3115942028985507 0.2246376811594203 0.007246376811594202 0.006944444444444445 0.3402777777777778 0.006944444444444445 0.006944444444444445 0.6319444444444445 0.006944444444444445 0.001587301587301587 0.3634920634920635 0.03015873015873016 0.02063492063492063 0.5634920634920635 0.02063492063492063 0.001557632398753894 0.3006230529595016 0.09501557632398755 0.1697819314641745 0.309968847352025 0.1230529595015576 0.01190476190476191 0.2261904761904762 0.1547619047619048 0.2261904761904762 0.3690476190476191 0.01190476190476191 0.009803921568627451 0.06862745098039216 0.009803921568627451 0.009803921568627451 0.009803921568627451 0.892156862745098 0.002164502164502165 0.170995670995671 0.02813852813852814 0.002164502164502165 0.0670995670995671 0.7294372294372294 0.001424501424501425 0.2150997150997151 0.1210826210826211 0.1467236467236467 0.198005698005698 0.3176638176638177 0.01190476190476191 0.2976190476190477 0.1547619047619048 0.2261904761904762 0.1547619047619048 0.1547619047619048 0.1666666666666667 0.1666666666666667 0.1666666666666667 0.1666666666666667 0.1666666666666667 0.1666666666666667 0.833333333333333 0.03333333333333332 0.03333333333333332 0.03333333333333332 0.03333333333333332 0.03333333333333332 0.1666666666666667 0.1666666666666667 0.1666666666666667 0.1666666666666667 0.1666666666666667 0.1666666666666667 0.1666666666666667 0.1666666666666667 0.1666666666666667 0.1666666666666667 0.1666666666666667 0.1666666666666667 0.006410256410256408 0.9679487179487177 0.006410256410256408 0.006410256410256408 0.006410256410256408 0.006410256410256408 0.001412429378531073 0.8319209039548021 0.08615819209039546 0.009887005649717513 0.04378531073446327 0.02683615819209039 0.001700680272108843 0.3282312925170068 0.1445578231292517 0.1751700680272109 0.2976190476190476 0.05272108843537415 0.009259259259259257 0.3425925925925926 0.06481481481481481 0.06481481481481481 0.287037037037037 0.2314814814814815 0.000771604938271605 0.000771604938271605 0.996141975308642 0.000771604938271605 0.000771604938271605 0.000771604938271605 0.0001900418091980236 0.002470543519574307 0.9739642721398709 0.01159255036107944 0.007031546940326874 0.00475104522995059 0.00036231884057971 0.05253623188405796 0.8134057971014491 0.04818840579710144 0.06340579710144927 0.02210144927536231 0.002136752136752136 0.01495726495726496 0.8995726495726495 0.04059829059829059 0.02777777777777777 0.01495726495726496 0.01515151515151515 0.01515151515151515 0.01515151515151515 0.9242424242424243 0.01515151515151515 0.01515151515151515 0.002252252252252252 0.08333333333333334 0.1238738738738739 0.6779279279279279 0.05630630630630631 0.05630630630630631 0.001388888888888889 0.2763888888888889 0.1347222222222222 0.4097222222222222 0.1430555555555556 0.03472222222222222 0.009259259259259259 0.1759259259259259 0.1759259259259259 0.3981481481481481 0.1203703703703703 0.1203703703703703 0.008771929824561401 0.008771929824561401 0.008771929824561401 0.008771929824561401 0.9561403508771928 0.008771929824561401 0.002192982456140351 0.02850877192982456 0.1469298245614035 0.06798245614035088 0.7258771929824561 0.02850877192982456 0.001683501683501684 0.1632996632996633 0.2441077441077441 0.132996632996633 0.3653198653198653 0.0925925925925926 0.007936507936507934 0.1031746031746031 0.1984126984126984 0.1984126984126984 0.4365079365079364 0.05555555555555555 0.01388888888888889 0.01388888888888889 0.01388888888888889 0.01388888888888889 0.01388888888888889 0.9305555555555555 0.00303030303030303 0.02121212121212121 0.1121212121212121 0.07575757575757576 0.05757575757575757 0.7303030303030302 0.001831501831501832 0.1996336996336997 0.1227106227106227 0.1666666666666667 0.2545787545787546 0.2545787545787546 0.01041666666666667 0.1354166666666667 0.1979166666666667 0.07291666666666667 0.1354166666666667 0.4479166666666667 0.1666666666666667 0.1666666666666667 0.1666666666666667 0.1666666666666667 0.1666666666666667 0.1666666666666667 0.5277777777777777 0.02777777777777778 0.02777777777777778 0.361111111111111 0.02777777777777778 0.02777777777777778 0.1666666666666667 0.1666666666666667 0.1666666666666667 0.1666666666666667 0.1666666666666667 0.1666666666666667 0.1666666666666667 0.1666666666666667 0.1666666666666667 0.1666666666666667 0.1666666666666667 0.1666666666666667 0.0087719298245614 0.9561403508771927 0.0087719298245614 0.0087719298245614 0.0087719298245614 0.0087719298245614 0.002415458937198068 0.7850241545893719 0.04589371980676328 0.0603864734299517 0.04589371980676328 0.0603864734299517 0.002380952380952381 0.2452380952380953 0.1452380952380952 0.2595238095238095 0.1880952380952381 0.1595238095238095 0.01666666666666667 0.3166666666666667 0.2166666666666667 0.01666666666666667 0.2166666666666667 0.2166666666666667 0.009259259259259257 0.009259259259259257 0.898148148148148 0.06481481481481481 0.009259259259259257 0.009259259259259257 0.00219298245614035 0.06798245614035087 0.8048245614035086 0.06798245614035087 0.05482456140350877 0.00219298245614035 0.001851851851851851 0.1240740740740741 0.3574074074074073 0.2018518518518518 0.1796296296296296 0.1351851851851852 0.01282051282051282 0.08974358974358976 0.5512820512820513 0.08974358974358976 0.2435897435897436 0.01282051282051282 0.0006858710562414267 0.0006858710562414267 0.0006858710562414267 0.9965706447187929 0.0006858710562414267 0.0006858710562414267 0.0002060156571899464 0.003914297486608982 0.003914297486608982 0.9804285125669552 0.006386485372888341 0.005150391429748662 0.0004219409282700421 0.04092827004219409 0.03080168776371307 0.8485232067510547 0.04345991561181434 0.03586497890295358 0.002777777777777778 0.01944444444444445 0.01944444444444445 0.8361111111111112 0.06944444444444446 0.05277777777777778 0.007936507936507934 0.007936507936507934 0.007936507936507934 0.05555555555555555 0.9126984126984126 0.007936507936507934 0.003030303030303031 0.02121212121212122 0.05757575757575758 0.09393939393939396 0.7666666666666667 0.05757575757575758 0.002136752136752136 0.1303418803418803 0.1816239316239316 0.2200854700854701 0.3739316239316239 0.09188034188034187 0.0119047619047619 0.08333333333333333 0.2976190476190476 0.08333333333333333 0.3690476190476191 0.1547619047619047 0.01282051282051282 0.01282051282051282 0.01282051282051282 0.01282051282051282 0.01282051282051282 0.9358974358974359 0.002380952380952381 0.03095238095238095 0.05952380952380953 0.07380952380952381 0.05952380952380953 0.7738095238095237 0.001811594202898551 0.1865942028985507 0.1865942028985507 0.1213768115942029 0.1539855072463768 0.3496376811594202 0.01111111111111111 0.2111111111111111 0.2111111111111111 0.07777777777777778 0.1444444444444444 0.3444444444444444 0.5833333333333333 0.08333333333333331 0.08333333333333331 0.08333333333333331 0.08333333333333331 0.08333333333333331 0.8611111111111109 0.02777777777777777 0.02777777777777777 0.02777777777777777 0.02777777777777777 0.02777777777777777 0.1666666666666667 0.1666666666666667 0.1666666666666667 0.1666666666666667 0.1666666666666667 0.1666666666666667 0.1666666666666667 0.1666666666666667 0.1666666666666667 0.1666666666666667 0.1666666666666667 0.1666666666666667 0.01111111111111111 0.9444444444444446 0.01111111111111111 0.01111111111111111 0.01111111111111111 0.01111111111111111 0.002380952380952381 0.7880952380952381 0.07380952380952381 0.03095238095238095 0.0880952380952381 0.01666666666666667 0.002380952380952381 0.2738095238095238 0.1166666666666667 0.2595238095238095 0.1595238095238095 0.1880952380952381 0.01851851851851852 0.462962962962963 0.2407407407407407 0.01851851851851852 0.2407407407407407 0.01851851851851852 0.01111111111111111 0.01111111111111111 0.8777777777777779 0.01111111111111111 0.07777777777777779 0.01111111111111111 0.002164502164502164 0.05411255411255411 0.7943722943722942 0.06709956709956709 0.06709956709956709 0.01515151515151515 0.00196078431372549 0.1431372549019607 0.2843137254901961 0.2137254901960784 0.2254901960784313 0.1313725490196078 0.02083333333333333 0.02083333333333333 0.3958333333333333 0.02083333333333333 0.3958333333333333 0.1458333333333333 0.009803921568627451 0.009803921568627451 0.009803921568627451 0.892156862745098 0.06862745098039216 0.009803921568627451 0.002222222222222222 0.04222222222222222 0.0688888888888889 0.6822222222222223 0.1488888888888889 0.05555555555555557 0.001773049645390071 0.1294326241134752 0.09751773049645389 0.4698581560283688 0.2145390070921986 0.08687943262411346 0.01666666666666667 0.01666666666666667 0.01666666666666667 0.4166666666666667 0.1166666666666667 0.4166666666666667 0.0007062146892655368 0.0007062146892655368 0.0007062146892655368 0.0007062146892655368 0.9964689265536725 0.0007062146892655368 0.0001942501942501943 0.002525252525252525 0.0001942501942501943 0.00135975135975136 0.9920357420357422 0.003690753690753691 0.0004655493482309124 0.02281191806331471 0.02839851024208566 0.03119180633147113 0.8971135940409682 0.02001862197392924 0.002164502164502164 0.01515151515151515 0.01515151515151515 0.02813852813852813 0.9242424242424241 0.01515151515151515 0.009259259259259259 0.009259259259259259 0.009259259259259259 0.009259259259259259 0.009259259259259259 0.9537037037037037 0.00273224043715847 0.03551912568306011 0.08469945355191258 0.01912568306010929 0.05191256830601093 0.8060109289617486 0.002487562189054726 0.1218905472636816 0.181592039800995 0.1368159203980099 0.1368159203980099 0.4203980099502488 0.01666666666666667 0.1166666666666667 0.3166666666666667 0.1166666666666667 0.1166666666666667 0.3166666666666667 0.08333333333333333 0.08333333333333333 0.08333333333333333 0.08333333333333333 0.08333333333333333 0.5833333333333334 0.1666666666666667 0.1666666666666667 0.1666666666666667 0.1666666666666667 0.1666666666666667 0.1666666666666667 0.1666666666666667 0.1666666666666667 0.1666666666666667 0.1666666666666667 0.1666666666666667 0.1666666666666667 0.1666666666666667 0.1666666666666667 0.1666666666666667 0.1666666666666667 0.1666666666666667 0.1666666666666667 0.03333333333333332 0.833333333333333 0.03333333333333332 0.03333333333333332 0.03333333333333332 0.03333333333333332 0.003030303030303031 0.7121212121212123 0.0393939393939394 0.1303030303030304 0.02121212121212122 0.09393939393939398 0.002008032128514056 0.2670682730923695 0.1827309236947791 0.1706827309236948 0.1827309236947791 0.1947791164658635 0.01851851851851852 0.01851851851851852 0.1296296296296296 0.3518518518518518 0.1296296296296296 0.3518518518518518 0.009803921568627451 0.009803921568627451 0.8333333333333333 0.009803921568627451 0.009803921568627451 0.1274509803921569 0.00228310502283105 0.01598173515981735 0.8242009132420089 0.07077625570776255 0.01598173515981735 0.07077625570776255 0.002415458937198068 0.1038647342995169 0.3647342995169082 0.1763285024154589 0.1618357487922705 0.1908212560386473 0.01515151515151515 0.1060606060606061 0.5606060606060607 0.01515151515151515 0.196969696969697 0.1060606060606061 0.009803921568627451 0.009803921568627451 0.009803921568627451 0.8333333333333333 0.009803921568627451 0.1274509803921569 0.002314814814814815 0.0162037037037037 0.0162037037037037 0.835648148148148 0.03009259259259259 0.09953703703703703 0.001831501831501831 0.1666666666666667 0.1996336996336996 0.2545787545787546 0.1666666666666667 0.2106227106227106 0.0119047619047619 0.08333333333333333 0.1547619047619047 0.4404761904761905 0.2261904761904762 0.08333333333333333 0.01041666666666667 0.01041666666666667 0.01041666666666667 0.01041666666666667 0.8854166666666669 0.07291666666666669 0.002192982456140351 0.06798245614035088 0.06798245614035088 0.05482456140350878 0.7258771929824561 0.08114035087719298 0.002057613168724279 0.1625514403292181 0.1748971193415637 0.2119341563786008 0.2736625514403292 0.1748971193415637 0.04166666666666666 0.04166666666666666 0.04166666666666666 0.04166666666666666 0.2916666666666667 0.5416666666666666 0.0007473841554559043 0.0007473841554559043 0.0007473841554559043 0.0007473841554559043 0.0007473841554559043 0.9962630792227204 0.0002123142250530785 0.005307855626326964 0.0002123142250530785 0.002760084925690021 0.004033970276008493 0.9874734607218683 0.0004748338081671415 0.02041785375118709 0.02896486229819563 0.06600189933523268 0.04036087369420703 0.8437796771130105 0.003333333333333333 0.003333333333333333 0.02333333333333333 0.02333333333333333 0.003333333333333333 0.9433333333333334 0.1666666666666667 0.1666666666666667 0.1666666666666667 0.1666666666666667 0.1666666666666667 0.1666666666666667 0.1666666666666667 0.1666666666666667 0.1666666666666667 0.1666666666666667 0.1666666666666667 0.1666666666666667 0.1666666666666667 0.1666666666666667 0.1666666666666667 0.1666666666666667 0.1666666666666667 0.1666666666666667 0.1666666666666667 0.1666666666666667 0.1666666666666667 0.1666666666666667 0.1666666666666667 0.1666666666666667 0.1666666666666667 0.1666666666666667 0.1666666666666667 0.1666666666666667 0.1666666666666667 0.1666666666666667 0.1666666666666667 0.1666666666666667 0.1666666666666667 0.1666666666666667 0.1666666666666667 0.1666666666666667 0.1666666666666667 0.1666666666666667 0.1666666666666667 0.1666666666666667 0.1666666666666667 0.1666666666666667 0.1666666666666667 0.1666666666666667 0.1666666666666667 0.1666666666666667 0.1666666666666667 0.1666666666666667 0.1666666666666667 0.1666666666666667 0.1666666666666667 0.1666666666666667 0.1666666666666667 0.1666666666666667 0.1666666666666667 0.1666666666666667 0.1666666666666667 0.1666666666666667 